{"learner":{"attributes":{"scikit_learn":"{\"_estimator_type\": \"classifier\"}"},"feature_names":["SBol_Vend","Prom_Pagado","Sum_Pagado","%_Promo","Prom_Horas_Ant","Venta_Ant","Recencia","PAGO_EFECTIVO","PAGO_TARJETA","DESC_ADULTO","DESC_DISCAPACIDAD","DESC_ESTUDIANTE","DESC_MENOR","DESC_PETFRIENDLY","DESC_PROFESOR","DESC_PROMOCION ESPECIAL","DESC_SENECTUD"],"feature_types":["float","float","float","float","float","float","int","int","int","int","int","int","int","int","int","int","int"],"gradient_booster":{"model":{"gbtree_model_param":{"num_parallel_tree":"1","num_trees":"600"},"iteration_indptr":[0,6,12,18,24,30,36,42,48,54,60,66,72,78,84,90,96,102,108,114,120,126,132,138,144,150,156,162,168,174,180,186,192,198,204,210,216,222,228,234,240,246,252,258,264,270,276,282,288,294,300,306,312,318,324,330,336,342,348,354,360,366,372,378,384,390,396,402,408,414,420,426,432,438,444,450,456,462,468,474,480,486,492,498,504,510,516,522,528,534,540,546,552,558,564,570,576,582,588,594,600],"tree_info":[0,1,2,3,4,5,0,1,2,3,4,5,0,1,2,3,4,5,0,1,2,3,4,5,0,1,2,3,4,5,0,1,2,3,4,5,0,1,2,3,4,5,0,1,2,3,4,5,0,1,2,3,4,5,0,1,2,3,4,5,0,1,2,3,4,5,0,1,2,3,4,5,0,1,2,3,4,5,0,1,2,3,4,5,0,1,2,3,4,5,0,1,2,3,4,5,0,1,2,3,4,5,0,1,2,3,4,5,0,1,2,3,4,5,0,1,2,3,4,5,0,1,2,3,4,5,0,1,2,3,4,5,0,1,2,3,4,5,0,1,2,3,4,5,0,1,2,3,4,5,0,1,2,3,4,5,0,1,2,3,4,5,0,1,2,3,4,5,0,1,2,3,4,5,0,1,2,3,4,5,0,1,2,3,4,5,0,1,2,3,4,5,0,1,2,3,4,5,0,1,2,3,4,5,0,1,2,3,4,5,0,1,2,3,4,5,0,1,2,3,4,5,0,1,2,3,4,5,0,1,2,3,4,5,0,1,2,3,4,5,0,1,2,3,4,5,0,1,2,3,4,5,0,1,2,3,4,5,0,1,2,3,4,5,0,1,2,3,4,5,0,1,2,3,4,5,0,1,2,3,4,5,0,1,2,3,4,5,0,1,2,3,4,5,0,1,2,3,4,5,0,1,2,3,4,5,0,1,2,3,4,5,0,1,2,3,4,5,0,1,2,3,4,5,0,1,2,3,4,5,0,1,2,3,4,5,0,1,2,3,4,5,0,1,2,3,4,5,0,1,2,3,4,5,0,1,2,3,4,5,0,1,2,3,4,5,0,1,2,3,4,5,0,1,2,3,4,5,0,1,2,3,4,5,0,1,2,3,4,5,0,1,2,3,4,5,0,1,2,3,4,5,0,1,2,3,4,5,0,1,2,3,4,5,0,1,2,3,4,5,0,1,2,3,4,5,0,1,2,3,4,5,0,1,2,3,4,5,0,1,2,3,4,5,0,1,2,3,4,5,0,1,2,3,4,5,0,1,2,3,4,5,0,1,2,3,4,5,0,1,2,3,4,5,0,1,2,3,4,5,0,1,2,3,4,5,0,1,2,3,4,5,0,1,2,3,4,5,0,1,2,3,4,5,0,1,2,3,4,5,0,1,2,3,4,5,0,1,2,3,4,5,0,1,2,3,4,5,0,1,2,3,4,5,0,1,2,3,4,5,0,1,2,3,4,5,0,1,2,3,4,5,0,1,2,3,4,5,0,1,2,3,4,5,0,1,2,3,4,5,0,1,2,3,4,5,0,1,2,3,4,5,0,1,2,3,4,5,0,1,2,3,4,5,0,1,2,3,4,5],"trees":[{"base_weights":[4.7180083E-1,-1.7998962E-1,2.4197161E0,8.998876E-1,-1.7988306E-1],"categories":[],"categories_nodes":[],"categories_segments":[],"categories_sizes":[],"default_left":[0,0,0,0,0],"id":0,"left_children":[1,-1,3,-1,-1],"loss_changes":[5.6167E4,0E0,1.6721082E4,0E0,0E0],"parents":[2147483647,0,0,2,2],"right_children":[2,-1,4,-1,-1],"split_conditions":[1E0,-1.7998962E-1,1E0,8.998876E-1,-1.7988306E-1],"split_indices":[15,0,7,0,0],"split_type":[0,0,0,0,0],"sum_hessian":[2.6901945E4,1.7354168E4,9.547778E3,8.009445E3,1.5383334E3],"tree_param":{"num_deleted":"0","num_feature":"17","num_nodes":"5","size_leaf_vector":"1"}},{"base_weights":[5.930515E-1,-1.7998788E-1,2.0591066E0,-1.7994295E-1,8.9989907E-1],"categories":[],"categories_nodes":[],"categories_segments":[],"categories_sizes":[],"default_left":[0,0,0,0,0],"id":1,"left_children":[1,-1,3,-1,-1],"loss_changes":[4.7055023E4,0E0,3.0188312E4,0E0,0E0],"parents":[2147483647,0,0,2,2],"right_children":[2,-1,4,-1,-1],"split_conditions":[1E0,-1.7998788E-1,1E0,-1.7994295E-1,8.9989907E-1],"split_indices":[9,0,7,0,0],"split_type":[0,0,0,0,0],"sum_hessian":[2.6901945E4,1.4832501E4,1.2069445E4,3.1538892E3,8.915556E3],"tree_param":{"num_deleted":"0","num_feature":"17","num_nodes":"5","size_leaf_vector":"1"}},{"base_weights":[-7.858498E-2,5.116204E-1,-1.799874E-1,2.4431198E0,-1.7997754E-1,2.9566433E0,-1.7972995E-1,8.997585E-1,2.2153962E0,5.336538E-1,8.939844E-1,-1.7617925E-1,8.3540666E-1],"categories":[],"categories_nodes":[],"categories_segments":[],"categories_sizes":[],"default_left":[0,0,0,0,0,0,0,0,0,0,0,0,0],"id":2,"left_children":[1,3,-1,5,-1,7,-1,-1,9,11,-1,-1,-1],"loss_changes":[8.278805E3,2.7093941E4,0E0,7.2031445E3,0E0,1.1775781E2,0E0,0E0,2.7863818E2,1.7657896E2,0E0,0E0,0E0],"parents":[2147483647,0,0,1,1,3,3,5,5,8,8,9,9],"right_children":[2,4,-1,6,-1,8,-1,-1,10,12,-1,-1,-1],"split_conditions":[1E0,1E0,-1.799874E-1,1E0,-1.7997754E-1,1E0,-1.7972995E-1,8.997585E-1,7.1428575E-2,6.1207E2,8.939844E-1,-1.7617925E-1,8.3540666E-1],"split_indices":[7,15,0,16,0,12,0,0,5,1,0,0,0],"split_type":[0,0,0,0,0,0,0,0,0,0,0,0,0],"sum_hessian":[2.6901945E4,1.2618057E4,1.428389E4,4.6086113E3,8.009445E3,3.9430557E3,6.655556E2,3.7261113E3,2.1694446E2,6.8333336E1,1.4861111E2,4.6111115E1,2.2222223E1],"tree_param":{"num_deleted":"0","num_feature":"17","num_nodes":"13","size_leaf_vector":"1"}},{"base_weights":[-3.2316786E-1,-1.799927E-1,2.724986E0,1.735916E-1,8.995551E-1,1.8317306E0,-1.7879689E-1,2.8963132E0,-1.718593E-1,8.808962E-1,1.8947369E-1],"categories":[],"categories_nodes":[],"categories_segments":[],"categories_sizes":[],"default_left":[0,0,0,0,0,0,0,0,0,0,0],"id":3,"left_children":[1,-1,3,5,-1,7,-1,9,-1,-1,-1],"loss_changes":[2.270107E4,0E0,1.5626641E3,2.7920465E2,0E0,1.791449E2,0E0,2.514679E0,0E0,0E0,0E0],"parents":[2147483647,0,0,2,2,3,3,5,5,7,7],"right_children":[2,-1,4,6,-1,8,-1,10,-1,-1,-1],"split_conditions":[1E0,-1.799927E-1,1E0,7.1428575E-2,8.995551E-1,6.3879333E2,-1.7879689E-1,6.1207E2,-1.718593E-1,8.808962E-1,1.8947369E-1],"split_indices":[12,0,7,5,0,1,0,1,0,0,0],"split_type":[0,0,0,0,0,0,0,0,0,0,0],"sum_hessian":[2.6901945E4,2.4663057E4,2.238889E3,2.1694446E2,2.0219446E3,6.8333336E1,1.4861111E2,4.7222225E1,2.1111113E1,4.6111115E1,1.1111112E0],"tree_param":{"num_deleted":"0","num_feature":"17","num_nodes":"11","size_leaf_vector":"1"}},{"base_weights":[-3.3279505E-1,-1.7999277E-1,8.995494E-1],"categories":[],"categories_nodes":[],"categories_segments":[],"categories_sizes":[],"default_left":[0,0,0],"id":4,"left_children":[1,-1,-1],"loss_changes":[2.3946973E4,0E0,0E0],"parents":[2147483647,0,0],"right_children":[2,-1,-1],"split_conditions":[1E0,-1.7999277E-1,8.995494E-1],"split_indices":[16,0,0],"split_type":[0,0,0],"sum_hessian":[2.6901945E4,2.490528E4,1.9966667E3],"tree_param":{"num_deleted":"0","num_feature":"17","num_nodes":"3","size_leaf_vector":"1"}},{"base_weights":[-3.3030462E-1,-3.7726173E-1,2.5565586E0,-4.1802758E-1,1.1051888E0,-1.7661797E-1,8.9762217E-1,-5.6938857E-1,-1.4166307E-1,-1.7951772E-1,8.973258E-1,-5.9460986E-1,1.3981042E0,-1.7997739E-1,8.9922535E-1,-5.965532E-1,1.2747602E0,-1.7808624E-1,8.923693E-1,-1.7998897E-1,-3.3620697E-2,8.0898875E-1,-1.5882352E-1],"categories":[],"categories_nodes":[],"categories_segments":[],"categories_sizes":[],"default_left":[0,0,0,0,0,0,0,0,0,0,0,0,0,0,0,0,0,0,0,0,0,0,0],"id":5,"left_children":[1,3,5,7,9,-1,-1,11,13,-1,-1,15,17,-1,-1,19,21,-1,-1,-1,-1,-1,-1],"loss_changes":[3.647894E3,1.6003281E3,5.9177295E2,1.0777085E3,2.2789363E3,0E0,0E0,8.2691846E2,1.3119742E4,0E0,0E0,6.0475586E1,6.642793E2,0E0,0E0,2.7061523E1,4.603527E1,0E0,0E0,0E0,0E0,0E0,0E0],"parents":[2147483647,0,0,1,1,2,2,3,3,4,4,7,7,8,8,11,11,12,12,15,15,16,16],"right_children":[2,4,6,8,10,-1,-1,12,14,-1,-1,16,18,-1,-1,20,22,-1,-1,-1,-1,-1,-1],"split_conditions":[1.5E1,1E0,1E0,1E0,1E0,-1.7661797E-1,8.9762217E-1,1E0,1E0,-1.7951772E-1,8.973258E-1,1E0,1E0,-1.7997739E-1,8.9922535E-1,1E0,2E0,-1.7808624E-1,8.923693E-1,-1.7998897E-1,-3.3620697E-2,8.0898875E-1,-1.5882352E-1],"split_indices":[3,11,7,15,7,0,0,14,7,0,0,13,7,0,0,10,0,0,0,0,0,0,0],"split_type":[0,0,0,0,0,0,0,0,0,0,0,0,0,0,0,0,0,0,0,0,0,0,0],"sum_hessian":[2.6901945E4,2.6472223E4,4.2972223E2,2.5764445E4,7.0777783E2,5.2222225E1,3.7750003E2,1.664639E4,9.118056E3,3.7222223E2,3.3555557E2,1.643639E4,2.1000002E2,7.9572227E3,1.1608334E3,1.642E4,1.638889E1,9.305556E1,1.1694445E2,1.6305001E4,1.1500001E2,8.888889E0,7.5000005E0],"tree_param":{"num_deleted":"0","num_feature":"17","num_nodes":"23","size_leaf_vector":"1"}},{"base_weights":[3.3717614E-1,-1.7159714E-1,1.1893638E0,4.0469998E-1,-1.7147173E-1],"categories":[],"categories_nodes":[],"categories_segments":[],"categories_sizes":[],"default_left":[0,0,0,0,0],"id":6,"left_children":[1,-1,3,-1,-1],"loss_changes":[2.2022717E4,0E0,4.12516E3,0E0,0E0],"parents":[2147483647,0,0,2,2],"right_children":[2,-1,4,-1,-1],"split_conditions":[1E0,-1.7159714E-1,1E0,4.0469998E-1,-1.7147173E-1],"split_indices":[15,0,7,0,0],"split_type":[0,0,0,0,0],"sum_hessian":[2.8422578E4,1.375172E4,1.4670857E4,1.34516455E4,1.2192125E3],"tree_param":{"num_deleted":"0","num_feature":"17","num_nodes":"5","size_leaf_vector":"1"}},{"base_weights":[4.1218758E-1,-1.7159736E-1,1.0742785E0,-1.7153396E-1,4.0469784E-1],"categories":[],"categories_nodes":[],"categories_segments":[],"categories_sizes":[],"default_left":[0,0,0,0,0],"id":7,"left_children":[1,-1,3,-1,-1],"loss_changes":[1.9045781E4,0E0,7.902121E3,0E0,0E0],"parents":[2147483647,0,0,2,2],"right_children":[2,-1,4,-1,-1],"split_conditions":[1E0,-1.7159736E-1,1E0,-1.7153396E-1,4.0469784E-1],"split_indices":[9,0,7,0,0],"split_type":[0,0,0,0,0],"sum_hessian":[2.9226602E4,1.1754306E4,1.7472297E4,2.4987822E3,1.4973515E4],"tree_param":{"num_deleted":"0","num_feature":"17","num_nodes":"5","size_leaf_vector":"1"}},{"base_weights":[-6.439846E-2,3.6278147E-1,-1.7159867E-1,1.1973397E0,-1.7157353E-1,1.3391676E0,-1.7128435E-1,4.0491748E-1,1.13092E0,3.8325793E-1,4.046733E-1,-1.6859514E-1,3.9744744E-1],"categories":[],"categories_nodes":[],"categories_segments":[],"categories_sizes":[],"default_left":[0,0,0,0,0,0,0,0,0,0,0,0,0],"id":8,"left_children":[1,3,-1,5,-1,7,-1,-1,9,11,-1,-1,-1],"loss_changes":[5.371861E3,1.0494526E4,0E0,1.7832373E3,0E0,1.2938477E1,0E0,0E0,5.2232513E1,6.701361E1,0E0,0E0,0E0],"parents":[2147483647,0,0,1,1,3,3,5,5,8,8,9,9],"right_children":[2,4,-1,6,-1,8,-1,-1,10,12,-1,-1,-1],"split_conditions":[1E0,1E0,-1.7159867E-1,1E0,-1.7157353E-1,1E0,-1.7128435E-1,4.0491748E-1,7.1428575E-2,1.30388E3,4.046733E-1,-1.6859514E-1,3.9744744E-1],"split_indices":[7,15,0,16,0,12,0,0,5,2,0,0,0],"split_type":[0,0,0,0,0,0,0,0,0,0,0,0,0],"sum_hessian":[2.4771965E4,1.3451681E4,1.1320283E4,7.106357E3,6.3453237E3,6.5789277E3,5.274292E2,6.256279E3,3.2264932E2,7.3458954E1,2.4919037E2,3.6859116E1,3.6599834E1],"tree_param":{"num_deleted":"0","num_feature":"17","num_nodes":"13","size_leaf_vector":"1"}},{"base_weights":[-2.8366175E-1,-1.7159726E-1,1.2772881E0,1.3576074E-1,4.046935E-1,1.003154E0,-1.7023832E-1,1.345097E0,-1.6288032E-1,4.0784428E-1,4.1278683E-2],"categories":[],"categories_nodes":[],"categories_segments":[],"categories_sizes":[],"default_left":[0,0,0,0,0,0,0,0,0,0,0],"id":9,"left_children":[1,-1,3,5,-1,7,-1,9,-1,-1,-1],"loss_changes":[1.0420414E4,0E0,2.952412E2,1.3136336E2,0E0,5.1677635E1,0E0,1.1885681E0,0E0,0E0,0E0],"parents":[2147483647,0,0,2,2,3,3,5,5,7,7],"right_children":[2,-1,4,6,-1,8,-1,10,-1,-1,-1],"split_conditions":[1E0,-1.7159726E-1,1E0,7.1428575E-2,4.046935E-1,6.3879333E2,-1.7023832E-1,9.59E2,-1.6288032E-1,4.0784428E-1,4.1278683E-2],"split_indices":[12,0,7,5,0,1,0,6,0,0,0],"split_type":[0,0,0,0,0,0,0,0,0,0,0],"sum_hessian":[2.315039E4,1.9541447E4,3.608943E3,2.1342717E2,3.395516E3,9.536817E1,1.1805899E2,7.820242E1,1.7165752E1,7.715745E1,1.0449708E0],"tree_param":{"num_deleted":"0","num_feature":"17","num_nodes":"11","size_leaf_vector":"1"}},{"base_weights":[-2.9295436E-1,-1.7159835E-1,4.0469784E-1],"categories":[],"categories_nodes":[],"categories_segments":[],"categories_sizes":[],"default_left":[0,0,0],"id":10,"left_children":[1,-1,-1],"loss_changes":[1.057903E4,0E0,0E0],"parents":[2147483647,0,0],"right_children":[2,-1,-1],"split_conditions":[1E0,-1.7159835E-1,4.0469784E-1],"split_indices":[16,0,0],"split_type":[0,0,0],"sum_hessian":[2.3087107E4,1.973406E4,3.3530466E3],"tree_param":{"num_deleted":"0","num_feature":"17","num_nodes":"3","size_leaf_vector":"1"}},{"base_weights":[-2.90235E-1,-3.3608618E-1,1.2310526E0,-1.7161672E-1,-1.4733292E-1,-1.6763169E-1,4.046723E-1,-4.249337E-1,4.0469435E-1,-5.25485E-1,4.046627E-1,-5.632923E-1,4.0458617E-1,-1.7068574E-1,7.537908E-1],"categories":[],"categories_nodes":[],"categories_segments":[],"categories_sizes":[],"default_left":[0,0,0,0,0,0,0,0,0,0,0,0,0,0,0],"id":11,"left_children":[1,3,5,-1,7,-1,-1,9,-1,11,-1,13,-1,-1,-1],"loss_changes":[1.6117787E3,9.9876855E2,1.4337073E2,0E0,5.176546E3,0E0,0E0,1.8755507E3,0E0,7.056555E2,0E0,1.7121997E2,0E0,0E0,0E0],"parents":[2147483647,0,0,1,1,2,2,4,4,7,7,9,9,11,11],"right_children":[2,4,6,-1,8,-1,-1,10,-1,12,-1,14,-1,-1,-1],"split_conditions":[1.5E1,1E0,1E0,-1.7161672E-1,1E0,-1.6763169E-1,4.046723E-1,1E0,4.0469435E-1,1E0,4.046627E-1,1E0,4.0458617E-1,-1.7068574E-1,7.537908E-1],"split_indices":[3,7,7,0,15,0,0,11,0,14,0,10,0,0,0],"split_type":[0,0,0,0,0,0,0,0,0,0,0,0,0,0,0],"sum_hessian":[2.3100074E4,2.242497E4,6.7510297E2,9.965097E3,1.2459875E4,4.14762E1,6.336268E2,1.0510627E4,1.9492478E3,9.947443E3,5.631835E2,9.751423E3,1.9602118E2,9.734325E3,1.7097364E1],"tree_param":{"num_deleted":"0","num_feature":"17","num_nodes":"15","size_leaf_vector":"1"}},{"base_weights":[2.8159502E-1,-1.6623044E-1,8.7990564E-1,2.931325E-1,-1.6607869E-1],"categories":[],"categories_nodes":[],"categories_segments":[],"categories_sizes":[],"default_left":[0,0,0,0,0],"id":12,"left_children":[1,-1,3,-1,-1],"loss_changes":[1.320181E4,0E0,2.1445508E3,0E0,0E0],"parents":[2147483647,0,0,2,2],"right_children":[2,-1,4,-1,-1],"split_conditions":[1E0,-1.6623044E-1,1E0,2.931325E-1,-1.6607869E-1],"split_indices":[15,0,7,0,0],"split_type":[0,0,0,0,0],"sum_hessian":[2.6401322E4,1.1015451E4,1.538587E4,1.4409135E4,9.7673505E2],"tree_param":{"num_deleted":"0","num_feature":"17","num_nodes":"5","size_leaf_vector":"1"}},{"base_weights":[3.404192E-1,-1.6623181E-1,8.073304E-1,-1.661531E-1,2.9315716E-1],"categories":[],"categories_nodes":[],"categories_segments":[],"categories_sizes":[],"default_left":[0,0,0,0,0],"id":13,"left_children":[1,-1,3,-1,-1],"loss_changes":[1.1468664E4,0E0,4.171914E3,0E0,0E0],"parents":[2147483647,0,0,2,2],"right_children":[2,-1,4,-1,-1],"split_conditions":[1E0,-1.6623181E-1,1E0,-1.661531E-1,2.9315716E-1],"split_indices":[9,0,7,0,0],"split_type":[0,0,0,0,0],"sum_hessian":[2.7457006E4,9.416449E3,1.8040557E4,2.0012529E3,1.6039304E4],"tree_param":{"num_deleted":"0","num_feature":"17","num_nodes":"5","size_leaf_vector":"1"}},{"base_weights":[-5.7279207E-2,3.0184475E-1,-1.6623062E-1,8.846423E-1,-1.6620293E-1,9.709822E-1,-1.658551E-1,2.9322076E-1,8.408548E-1,3.1482956E-1,2.9297948E-1,-1.6164367E-1,2.8687456E-1],"categories":[],"categories_nodes":[],"categories_segments":[],"categories_sizes":[],"default_left":[0,0,0,0,0,0,0,0,0,0,0,0,0],"id":14,"left_children":[1,3,-1,5,-1,7,-1,-1,9,11,-1,-1,-1],"loss_changes":[3.8566104E3,6.258495E3,0E0,9.2694336E2,0E0,5.061035E0,0E0,0E0,2.3845078E1,3.9313107E1,0E0,0E0,0E0],"parents":[2147483647,0,0,1,1,3,3,5,5,8,8,9,9],"right_children":[2,4,-1,6,-1,8,-1,-1,10,12,-1,-1,-1],"split_conditions":[1E0,1E0,-1.6623062E-1,1E0,-1.6620293E-1,1E0,-1.658551E-1,2.9322076E-1,7.1428575E-2,6.1207E2,2.9297948E-1,-1.6164367E-1,2.8687456E-1],"split_indices":[7,15,0,16,0,12,0,0,5,1,0,0,0],"split_type":[0,0,0,0,0,0,0,0,0,0,0,0,0],"sum_hessian":[2.1613293E4,1.2545374E4,9.067918E3,7.463226E3,5.082148E3,7.040668E3,4.2255795E2,6.7034185E3,3.3724966E2,6.985825E1,2.6739142E2,3.003959E1,3.9818665E1],"tree_param":{"num_deleted":"0","num_feature":"17","num_nodes":"13","size_leaf_vector":"1"}},{"base_weights":[-2.615176E-1,-1.662311E-1,9.3385667E-1,1.173629E-1,2.9314485E-1,7.5816554E-1,-1.6459414E-1,9.743304E-1,-1.5605359E-1,2.948712E-1,4.164907E-2],"categories":[],"categories_nodes":[],"categories_segments":[],"categories_sizes":[],"default_left":[0,0,0,0,0,0,0,0,0,0,0],"id":15,"left_children":[1,-1,3,5,-1,7,-1,9,-1,-1,-1],"loss_changes":[6.815054E3,0E0,1.3532666E2,8.324146E1,0E0,2.7954082E1,0E0,4.7463226E-1,0E0,0E0,0E0],"parents":[2147483647,0,0,2,2,3,3,5,5,7,7],"right_children":[2,-1,4,6,-1,8,-1,10,-1,-1,-1],"split_conditions":[1E0,-1.662311E-1,1E0,7.1428575E-2,2.9314485E-1,6.3879333E2,-1.6459414E-1,9.59E2,-1.5605359E-1,2.948712E-1,4.164907E-2],"split_indices":[12,0,7,5,0,1,0,6,0,0,0],"split_type":[0,0,0,0,0,0,0,0,0,0,0],"sum_hessian":[1.9483035E4,1.5652407E4,3.8306277E3,1.9307028E2,3.6375574E3,9.8326706E1,9.4743576E1,8.430821E1,1.4018492E1,8.327722E1,1.0309854E0],"tree_param":{"num_deleted":"0","num_feature":"17","num_nodes":"11","size_leaf_vector":"1"}},{"base_weights":[-2.7053377E-1,-1.662322E-1,2.9314062E-1],"categories":[],"categories_nodes":[],"categories_segments":[],"categories_sizes":[],"default_left":[0,0,0],"id":16,"left_children":[1,-1,-1],"loss_changes":[6.864372E3,0E0,0E0],"parents":[2147483647,0,0],"right_children":[2,-1,-1],"split_conditions":[1E0,-1.662322E-1,2.9314062E-1],"split_indices":[16,0,0],"split_type":[0,0,0],"sum_hessian":[1.9398988E4,1.5806909E4,3.5920796E3],"tree_param":{"num_deleted":"0","num_feature":"17","num_nodes":"3","size_leaf_vector":"1"}},{"base_weights":[-2.676516E-1,-1.6623996E-1,-6.6427946E-2,-4.006408E-1,2.9320422E-1,-5.04158E-1,2.9303783E-1,-5.440539E-1,2.9285565E-1,-5.5039954E-1,3.9177662E-1,-1.6622941E-1,4.0115678E-1],"categories":[],"categories_nodes":[],"categories_segments":[],"categories_sizes":[],"default_left":[0,0,0,0,0,0,0,0,0,0,0,0,0],"id":17,"left_children":[1,-1,3,5,-1,7,-1,9,-1,11,-1,-1,-1],"loss_changes":[1.1199779E3,0E0,3.9820198E3,1.2333445E3,0E0,4.7552026E2,0E0,9.2663086E1,0E0,5.523584E1,0E0,0E0,0E0],"parents":[2147483647,0,0,2,2,3,3,5,5,7,7,9,9],"right_children":[2,-1,4,6,-1,8,-1,10,-1,12,-1,-1,-1],"split_conditions":[1E0,-1.6623996E-1,1E0,1E0,2.9320422E-1,1E0,2.9303783E-1,1E0,2.9285565E-1,1E0,3.9177662E-1,-1.6622941E-1,4.0115678E-1],"split_indices":[7,0,15,11,0,14,0,10,0,13,0,0,0],"split_type":[0,0,0,0,0,0,0,0,0,0,0,0,0],"sum_hessian":[1.942789E4,8.015084E3,1.1412808E4,8.645248E3,2.767559E3,8.0415425E3,6.0370593E2,7.831123E3,2.1041956E2,7.8050527E3,2.6069963E1,7.790495E3,1.455778E1],"tree_param":{"num_deleted":"0","num_feature":"17","num_nodes":"13","size_leaf_vector":"1"}},{"base_weights":[2.4894746E-1,-1.6219163E-1,7.290116E-1,2.4041013E-1,-1.6200386E-1],"categories":[],"categories_nodes":[],"categories_segments":[],"categories_sizes":[],"default_left":[0,0,0,0,0],"id":18,"left_children":[1,-1,3,-1,-1],"loss_changes":[8.718664E3,0E0,1.3138457E3,0E0,0E0],"parents":[2147483647,0,0,2,2],"right_children":[2,-1,4,-1,-1],"split_conditions":[1E0,-1.6219163E-1,1E0,2.4041013E-1,-1.6200386E-1],"split_indices":[15,0,7,0,0],"split_type":[0,0,0,0,0],"sum_hessian":[2.2999195E4,8.696117E3,1.4303077E4,1.3531902E4,7.7117523E2],"tree_param":{"num_deleted":"0","num_feature":"17","num_nodes":"5","size_leaf_vector":"1"}},{"base_weights":[2.989804E-1,-1.6219184E-1,6.740303E-1,-1.6209929E-1,2.4042371E-1],"categories":[],"categories_nodes":[],"categories_segments":[],"categories_sizes":[],"default_left":[0,0,0,0,0],"id":19,"left_children":[1,-1,3,-1,-1],"loss_changes":[7.5825303E3,0E0,2.5750557E3,0E0,0E0],"parents":[2147483647,0,0,2,2],"right_children":[2,-1,4,-1,-1],"split_conditions":[1E0,-1.6219184E-1,1E0,-1.6209929E-1,2.4042371E-1],"split_indices":[9,0,7,0,0],"split_type":[0,0,0,0,0],"sum_hessian":[2.407706E4,7.4340645E3,1.6642996E4,1.5797404E3,1.5063257E4],"tree_param":{"num_deleted":"0","num_feature":"17","num_nodes":"5","size_leaf_vector":"1"}},{"base_weights":[-5.2635156E-2,2.6625863E-1,-1.6219002E-1,7.324098E-1,-1.6216138E-1,7.9666966E-1,-1.617307E-1,2.4045348E-1,6.972346E-1,2.739597E-1,2.400992E-1,-1.5841982E-1,2.3225331E-1],"categories":[],"categories_nodes":[],"categories_segments":[],"categories_sizes":[],"default_left":[0,0,0,0,0,0,0,0,0,0,0,0,0],"id":20,"left_children":[1,3,-1,5,-1,7,-1,-1,9,11,-1,-1,-1],"loss_changes":[2.8191943E3,4.120979E3,0E0,5.6785425E2,0E0,2.6240234E0,0E0,0E0,1.3511581E1,2.574346E1,0E0,0E0,0E0],"parents":[2147483647,0,0,1,1,3,3,5,5,8,8,9,9],"right_children":[2,4,-1,6,-1,8,-1,-1,10,12,-1,-1,-1],"split_conditions":[1E0,1E0,-1.6219002E-1,1E0,-1.6216138E-1,1E0,-1.617307E-1,2.4045348E-1,7.1428575E-2,1.30388E3,2.400992E-1,-1.5841982E-1,2.3225331E-1],"split_indices":[7,15,0,16,0,12,0,0,5,2,0,0,0],"split_type":[0,0,0,0,0,0,0,0,0,0,0,0,0],"sum_hessian":[1.8114008E4,1.09554E4,7.158607E3,6.943611E3,4.0117896E3,6.6099307E3,3.3368042E2,6.2962773E3,3.136533E2,6.21491E1,2.5150418E2,2.3851334E1,3.8297768E1],"tree_param":{"num_deleted":"0","num_feature":"17","num_nodes":"13","size_leaf_vector":"1"}},{"base_weights":[-2.4621673E-1,-1.621936E-1,7.691639E-1,1.0593704E-1,2.4040197E-1,6.330596E-1,-1.6016588E-1,7.979221E-1,-1.4993754E-1,2.4151497E-1,3.7058294E-2],"categories":[],"categories_nodes":[],"categories_segments":[],"categories_sizes":[],"default_left":[0,0,0,0,0,0,0,0,0,0,0],"id":21,"left_children":[1,-1,3,5,-1,7,-1,9,-1,-1,-1],"loss_changes":[4.7656714E3,0E0,7.638574E1,5.6646553E1,0E0,1.758073E1,0E0,2.8844833E-1,0E0,0E0,0E0],"parents":[2147483647,0,0,2,2,3,3,5,5,7,7],"right_children":[2,-1,4,6,-1,8,-1,10,-1,-1,-1],"split_conditions":[1E0,-1.621936E-1,1E0,7.1428575E-2,2.4040197E-1,6.3879333E2,-1.6016588E-1,9.59E2,-1.4993754E-1,2.4151497E-1,3.7058294E-2],"split_indices":[12,0,7,5,0,1,0,6,0,0,0],"split_type":[0,0,0,0,0,0,0,0,0,0,0],"sum_hessian":[1.5938599E4,1.2356165E4,3.5824336E3,1.6595631E2,3.4164773E3,9.099778E1,7.495854E1,7.969545E1,1.1302328E1,7.8670235E1,1.0252129E0],"tree_param":{"num_deleted":"0","num_feature":"17","num_nodes":"11","size_leaf_vector":"1"}},{"base_weights":[-2.5500408E-1,-1.621947E-1,2.4040164E-1],"categories":[],"categories_nodes":[],"categories_segments":[],"categories_sizes":[],"default_left":[0,0,0],"id":22,"left_children":[1,-1,-1],"loss_changes":[4.783934E3,0E0,0E0],"parents":[2147483647,0,0],"right_children":[2,-1,-1],"split_conditions":[1E0,-1.621947E-1,2.4040164E-1],"split_indices":[16,0,0],"split_type":[0,0,0],"sum_hessian":[1.5852109E4,1.2478339E4,3.3737708E3],"tree_param":{"num_deleted":"0","num_feature":"17","num_nodes":"3","size_leaf_vector":"1"}},{"base_weights":[-2.5203037E-1,-1.6219482E-1,-6.0945425E-2,-3.8317248E-1,2.4043074E-1,-4.883655E-1,2.4024664E-1,-5.296583E-1,2.399322E-1,-5.3655726E-1,2.8673983E-1,-1.6218635E-1,2.8990042E-1],"categories":[],"categories_nodes":[],"categories_segments":[],"categories_sizes":[],"default_left":[0,0,0,0,0,0,0,0,0,0,0,0,0],"id":23,"left_children":[1,-1,3,5,-1,7,-1,9,-1,11,-1,-1,-1],"loss_changes":[8.7614935E2,0E0,2.656791E3,8.6725146E2,0E0,3.404602E2,0E0,6.399756E1,0E0,3.8186646E1,0E0,0E0,0E0],"parents":[2147483647,0,0,2,2,3,3,5,5,7,7,9,9],"right_children":[2,-1,4,6,-1,8,-1,10,-1,12,-1,-1,-1],"split_conditions":[1E0,-1.6219482E-1,1E0,1E0,2.4043074E-1,1E0,2.4024664E-1,1E0,2.399322E-1,1E0,2.8673983E-1,-1.6218635E-1,2.8990042E-1],"split_indices":[7,0,15,11,0,14,0,10,0,13,0,0,0],"split_type":[0,0,0,0,0,0,0,0,0,0,0,0,0],"sum_hessian":[1.5886042E4,6.327307E3,9.558734E3,6.959053E3,2.5996812E3,6.39176E3,5.672938E2,6.193799E3,1.979606E2,6.165802E3,2.7997108E1,6.149813E3,1.5989123E1],"tree_param":{"num_deleted":"0","num_feature":"17","num_nodes":"13","size_leaf_vector":"1"}},{"base_weights":[2.2800429E-1,-1.5912783E-1,6.418503E-1,2.1044059E-1,-1.5889066E-1],"categories":[],"categories_nodes":[],"categories_segments":[],"categories_sizes":[],"default_left":[0,0,0,0,0],"id":24,"left_children":[1,-1,3,-1,-1],"loss_changes":[6.0201377E3,0E0,8.670259E2,0E0,0E0],"parents":[2147483647,0,0,2,2],"right_children":[2,-1,4,-1,-1],"split_conditions":[1E0,-1.5912783E-1,1E0,2.1044059E-1,-1.5889066E-1],"split_indices":[15,0,7,0,0],"split_type":[0,0,0,0,0],"sum_hessian":[1.9178064E4,6.7702876E3,1.2407777E4,1.1807291E4,6.0048584E2],"tree_param":{"num_deleted":"0","num_feature":"17","num_nodes":"5","size_leaf_vector":"1"}},{"base_weights":[2.726847E-1,-1.5912668E-1,5.9609485E-1,-1.5901503E-1,2.1044919E-1],"categories":[],"categories_nodes":[],"categories_segments":[],"categories_sizes":[],"default_left":[0,0,0,0,0],"id":25,"left_children":[1,-1,3,-1,-1],"loss_changes":[5.237163E3,0E0,1.706602E3,0E0,0E0],"parents":[2147483647,0,0,2,2],"right_children":[2,-1,4,-1,-1],"split_conditions":[1E0,-1.5912668E-1,1E0,-1.5901503E-1,2.1044919E-1],"split_indices":[9,0,7,0,0],"split_type":[0,0,0,0,0],"sum_hessian":[2.016143E4,5.7879316E3,1.4373499E4,1.2298163E3,1.3143683E4],"tree_param":{"num_deleted":"0","num_feature":"17","num_nodes":"5","size_leaf_vector":"1"}},{"base_weights":[-4.945546E-2,2.4351059E-1,-1.5912445E-1,6.445016E-1,-1.590932E-1,6.974404E-1,-1.5854847E-1,2.1046098E-1,6.127083E-1,2.4568671E-1,2.0996496E-1,-1.3818987E-1,2.0993099E-1],"categories":[],"categories_nodes":[],"categories_segments":[],"categories_sizes":[],"default_left":[0,0,0,0,0,0,0,0,0,0,0,0,0],"id":26,"left_children":[1,3,-1,5,-1,7,-1,-1,9,11,-1,-1,-1],"loss_changes":[2.0748882E3,2.839954E3,0E0,3.747024E2,0E0,1.5722656E0,0E0,0E0,8.591377E0,1.7677067E1,0E0,0E0,0E0],"parents":[2147483647,0,0,1,1,3,3,5,5,8,8,9,9],"right_children":[2,4,-1,6,-1,8,-1,-1,10,12,-1,-1,-1],"split_conditions":[1E0,1E0,-1.5912445E-1,1E0,-1.590932E-1,1E0,-1.5854847E-1,2.1046098E-1,7.1428575E-2,6.3879333E2,2.0996496E-1,-1.3818987E-1,2.0993099E-1],"split_indices":[7,15,0,16,0,12,0,0,5,1,0,0,0],"split_type":[0,0,0,0,0,0,0,0,0,0,0,0,0],"sum_hessian":[1.4723548E4,9.15032E3,5.5732275E3,6.0272114E3,3.1231094E3,5.76733E3,2.5988116E2,5.4944336E3,2.728965E2,5.3110455E1,2.1978607E2,2.0777283E1,3.2333176E1],"tree_param":{"num_deleted":"0","num_feature":"17","num_nodes":"13","size_leaf_vector":"1"}},{"base_weights":[-2.3529829E-1,-1.5913157E-1,6.7482454E-1,9.8536715E-2,2.1041782E-1,5.579794E-1,-1.56569E-1,6.963797E-1,-1.441559E-1,2.1080422E-1,3.826944E-2],"categories":[],"categories_nodes":[],"categories_segments":[],"categories_sizes":[],"default_left":[0,0,0,0,0,0,0,0,0,0,0],"id":27,"left_children":[1,-1,3,5,-1,7,-1,9,-1,-1,-1],"loss_changes":[3.4223013E3,0E0,4.770056E1,3.9817455E1,0E0,1.1854565E1,0E0,1.653099E-1,0E0,0E0,0E0],"parents":[2147483647,0,0,2,2,3,3,5,5,7,7],"right_children":[2,-1,4,6,-1,8,-1,10,-1,-1,-1],"split_conditions":[1E0,-1.5913157E-1,1E0,7.1428575E-2,2.1041782E-1,6.3879333E2,-1.56569E-1,9.59E2,-1.441559E-1,2.1080422E-1,3.826944E-2],"split_indices":[12,0,7,5,0,1,0,6,0,0,0],"split_type":[0,0,0,0,0,0,0,0,0,0,0],"sum_hessian":[1.2738265E4,9.619281E3,3.118983E3,1.376625E2,2.9813203E3,7.9150635E1,5.8511883E1,7.0133415E1,9.017213E0,6.913227E1,1.0011479E0],"tree_param":{"num_deleted":"0","num_feature":"17","num_nodes":"11","size_leaf_vector":"1"}},{"base_weights":[-2.4391401E-1,-1.5913266E-1,2.1041915E-1],"categories":[],"categories_nodes":[],"categories_segments":[],"categories_sizes":[],"default_left":[0,0,0],"id":28,"left_children":[1,-1,-1],"loss_changes":[3.4293496E3,0E0,0E0],"parents":[2147483647,0,0],"right_children":[2,-1,-1],"split_conditions":[1E0,-1.5913266E-1,2.1041915E-1],"split_indices":[16,0,0],"split_type":[0,0,0],"sum_hessian":[1.2658674E4,9.714579E3,2.944095E3],"tree_param":{"num_deleted":"0","num_feature":"17","num_nodes":"3","size_leaf_vector":"1"}},{"base_weights":[-2.4085552E-1,-1.5912586E-1,-5.7154592E-2,-3.7027836E-1,2.104301E-1,-4.7642654E-1,2.1020555E-1,-5.1867694E-1,2.0975374E-1,-5.260251E-1,2.3495789E-1,-1.5911886E-1,2.352554E-1],"categories":[],"categories_nodes":[],"categories_segments":[],"categories_sizes":[],"default_left":[0,0,0,0,0,0,0,0,0,0,0,0,0],"id":29,"left_children":[1,-1,3,5,-1,7,-1,9,-1,11,-1,-1,-1],"loss_changes":[6.751741E2,0E0,1.8452938E3,6.2543335E2,0E0,2.4888342E2,0E0,4.6621826E1,0E0,2.7928345E1,0E0,0E0,0E0],"parents":[2147483647,0,0,2,2,3,3,5,5,7,7,9,9],"right_children":[2,-1,4,6,-1,8,-1,10,-1,12,-1,-1,-1],"split_conditions":[1E0,-1.5912586E-1,1E0,1E0,2.104301E-1,1E0,2.1020555E-1,1E0,2.0975374E-1,1E0,2.3495789E-1,-1.5911886E-1,2.352554E-1],"split_indices":[7,0,15,11,0,14,0,10,0,13,0,0,0],"split_type":[0,0,0,0,0,0,0,0,0,0,0,0,0],"sum_hessian":[1.269244E4,4.925923E3,7.7665176E3,5.4977246E3,2.2687932E3,5.0024624E3,4.952622E2,4.829454E3,1.7300812E2,4.802941E3,2.651342E1,4.787564E3,1.5376889E1],"tree_param":{"num_deleted":"0","num_feature":"17","num_nodes":"13","size_leaf_vector":"1"}},{"base_weights":[2.1392876E-1,-1.5680988E-1,5.8699733E-1,1.9175945E-1,-1.5650553E-1],"categories":[],"categories_nodes":[],"categories_segments":[],"categories_sizes":[],"default_left":[0,0,0,0,0],"id":30,"left_children":[1,-1,3,-1,-1],"loss_changes":[4.259827E3,0E0,5.9582007E2,0E0,0E0],"parents":[2147483647,0,0,2,2],"right_children":[2,-1,4,-1,-1],"split_conditions":[1E0,-1.5680988E-1,1E0,1.9175945E-1,-1.5650553E-1],"split_indices":[15,0,7,0,0],"split_type":[0,0,0,0,0],"sum_hessian":[1.5498711E4,5.2103706E3,1.0288341E4,9.826114E3,4.622258E2],"tree_param":{"num_deleted":"0","num_feature":"17","num_nodes":"5","size_leaf_vector":"1"}},{"base_weights":[2.5513688E-1,-1.5680715E-1,5.466919E-1,-1.5666889E-1,1.9176556E-1],"categories":[],"categories_nodes":[],"categories_segments":[],"categories_sizes":[],"default_left":[0,0,0,0,0],"id":31,"left_children":[1,-1,3,-1,-1],"loss_changes":[3.7059287E3,0E0,1.1758821E3,0E0,0E0],"parents":[2147483647,0,0,2,2],"right_children":[2,-1,4,-1,-1],"split_conditions":[1E0,-1.5680715E-1,1E0,-1.5666889E-1,1.9176556E-1],"split_indices":[9,0,7,0,0],"split_type":[0,0,0,0,0],"sum_hessian":[1.6339293E4,4.4545073E3,1.1884786E4,9.4643005E2,1.0938355E4],"tree_param":{"num_deleted":"0","num_feature":"17","num_nodes":"5","size_leaf_vector":"1"}},{"base_weights":[-4.7216002E-2,2.2826543E-1,-1.5680452E-1,5.8917964E-1,-1.5676871E-1,6.355262E-1,-1.5606876E-1,1.9176508E-1,5.587784E-1,9.402297E-2,6.1439055E-1,-7.9980455E-2,1.7805083E-1,1.2638175E-1,1.9107473E-1],"categories":[],"categories_nodes":[],"categories_segments":[],"categories_sizes":[],"default_left":[0,0,0,0,0,0,0,0,0,0,0,0,0,0,0],"id":32,"left_children":[1,3,-1,5,-1,7,-1,-1,9,11,13,-1,-1,-1,-1],"loss_changes":[1.5317795E3,2.0068389E3,0E0,2.5748132E2,0E0,1.0026855E0,0E0,0E0,5.8412247E0,4.7644534E0,6.176224E-1,0E0,0E0,0E0,0E0],"parents":[2147483647,0,0,1,1,3,3,5,5,8,8,9,9,10,10],"right_children":[2,4,-1,6,-1,8,-1,-1,10,12,14,-1,-1,-1,-1],"split_conditions":[1E0,1E0,-1.5680452E-1,1E0,-1.5676871E-1,1E0,-1.5606876E-1,1.9176508E-1,3.3333333E0,1.30388E3,7.1428575E-2,-7.9980455E-2,1.7805083E-1,1.2638175E-1,1.9107473E-1],"split_indices":[7,15,0,16,0,12,0,0,4,2,5,0,0,0,0],"split_type":[0,0,0,0,0,0,0,0,0,0,0,0,0,0,0],"sum_hessian":[1.1692673E4,7.4035996E3,4.2890728E3,5.000252E3,2.403348E3,4.8001484E3,2.0010321E2,4.572913E3,2.2723558E2,2.4572432E1,2.0266315E2,1.454046E1,1.0031972E1,2.3227343E1,1.794358E2],"tree_param":{"num_deleted":"0","num_feature":"17","num_nodes":"15","size_leaf_vector":"1"}},{"base_weights":[-2.2740288E-1,-1.5681589E-1,6.156632E-1,9.292867E-2,1.917232E-1,5.0715894E-1,-1.5353358E-1,6.290608E-1,-1.3824584E-1,1.9134091E-1,2.3028316E-2],"categories":[],"categories_nodes":[],"categories_segments":[],"categories_sizes":[],"default_left":[0,0,0,0,0,0,0,0,0,0,0],"id":33,"left_children":[1,-1,3,5,-1,7,-1,9,-1,-1,-1],"loss_changes":[2.4890774E3,0E0,3.168518E1,2.8405117E1,0E0,8.217733E0,0E0,2.411995E-1,0E0,0E0,0E0],"parents":[2147483647,0,0,2,2,3,3,5,5,7,7],"right_children":[2,-1,4,6,-1,8,-1,10,-1,-1,-1],"split_conditions":[1E0,-1.5681589E-1,1E0,7.1428575E-2,1.917232E-1,6.3879333E2,-1.5353358E-1,9.59E2,-1.3824584E-1,1.9134091E-1,2.3028316E-2],"split_indices":[12,0,7,5,0,1,0,6,0,0,0],"split_type":[0,0,0,0,0,0,0,0,0,0,0],"sum_hessian":[9.9951455E3,7.402508E3,2.5926372E3,1.11362915E2,2.4812742E3,6.618611E1,4.5176804E1,5.9094234E1,7.0918736E0,5.802102E1,1.0732174E0],"tree_param":{"num_deleted":"0","num_feature":"17","num_nodes":"11","size_leaf_vector":"1"}},{"base_weights":[-2.3589166E-1,-1.56817E-1,1.9172531E-1],"categories":[],"categories_nodes":[],"categories_segments":[],"categories_sizes":[],"default_left":[0,0,0],"id":34,"left_children":[1,-1,-1],"loss_changes":[2.4918113E3,0E0,0E0],"parents":[2147483647,0,0],"right_children":[2,-1,-1],"split_conditions":[1E0,-1.56817E-1,1.9172531E-1],"split_indices":[16,0,0],"split_type":[0,0,0],"sum_hessian":[9.92636E3,7.4760044E3,2.4503557E3],"tree_param":{"num_deleted":"0","num_feature":"17","num_nodes":"3","size_leaf_vector":"1"}},{"base_weights":[-2.3275201E-1,-1.5680322E-1,-5.4459963E-2,-3.6069602E-1,1.9172414E-1,-4.673906E-1,1.9144286E-1,-5.103111E-1,1.908351E-1,-5.1802605E-1,2.0451061E-1,-1.5679717E-1,2.0298807E-1],"categories":[],"categories_nodes":[],"categories_segments":[],"categories_sizes":[],"default_left":[0,0,0,0,0,0,0,0,0,0,0,0,0],"id":35,"left_children":[1,-1,3,5,-1,7,-1,9,-1,11,-1,-1,-1],"loss_changes":[5.1472327E2,0E0,1.3100907E3,4.56302E2,0E0,1.8345453E2,0E0,3.458441E1,0E0,2.0818604E1,0E0,0E0,0E0],"parents":[2147483647,0,0,2,2,3,3,5,5,7,7,9,9],"right_children":[2,-1,4,6,-1,8,-1,10,-1,12,-1,-1,-1],"split_conditions":[1E0,-1.5680322E-1,1E0,1E0,1.9172414E-1,1E0,1.9144286E-1,1E0,1.908351E-1,1E0,2.0451061E-1,-1.5679717E-1,2.0298807E-1],"split_indices":[7,0,15,11,0,14,0,10,0,13,0,0,0],"split_type":[0,0,0,0,0,0,0,0,0,0,0,0,0],"sum_hessian":[9.957172E3,3.7908464E3,6.1663257E3,4.277885E3,1.8884406E3,3.8655085E3,4.1237625E2,3.7213074E3,1.4420134E2,3.6979392E3,2.3368237E1,3.6842195E3,1.3719713E1],"tree_param":{"num_deleted":"0","num_feature":"17","num_nodes":"13","size_leaf_vector":"1"}},{"base_weights":[2.0417105E-1,-1.5506262E-1,5.506598E-1,1.7946084E-1,-1.5466681E-1],"categories":[],"categories_nodes":[],"categories_segments":[],"categories_sizes":[],"default_left":[0,0,0,0,0],"id":36,"left_children":[1,-1,3,-1,-1],"loss_changes":[3.05927E3,0E0,4.1954883E2,0E0,0E0],"parents":[2147483647,0,0,2,2],"right_children":[2,-1,4,-1,-1],"split_conditions":[1E0,-1.5506262E-1,1E0,1.7946084E-1,-1.5466681E-1],"split_indices":[15,0,7,0,0],"split_type":[0,0,0,0,0],"sum_hessian":[1.2243051E4,3.9735537E3,8.269497E3,7.916917E3,3.5257962E2],"tree_param":{"num_deleted":"0","num_feature":"17","num_nodes":"5","size_leaf_vector":"1"}},{"base_weights":[2.4303487E-1,-1.5505804E-1,5.138129E-1,-1.5488236E-1,1.7946568E-1],"categories":[],"categories_nodes":[],"categories_segments":[],"categories_sizes":[],"default_left":[0,0,0,0,0],"id":37,"left_children":[1,-1,3,-1,-1],"loss_changes":[2.6614114E3,0E0,8.2940454E2,0E0,0E0],"parents":[2147483647,0,0,2,2],"right_children":[2,-1,4,-1,-1],"split_conditions":[1E0,-1.5505804E-1,1E0,-1.5488236E-1,1.7946568E-1],"split_indices":[9,0,7,0,0],"split_type":[0,0,0,0,0],"sum_hessian":[1.293207E4,3.39727E3,9.534801E3,7.2172943E2,8.813071E3],"tree_param":{"num_deleted":"0","num_feature":"17","num_nodes":"5","size_leaf_vector":"1"}},{"base_weights":[-4.5594346E-2,2.1765392E-1,-1.5505446E-1,5.521895E-1,-1.550116E-1,5.943588E-1,-1.5410179E-1,1.7945497E-1,5.158075E-1,1.9328754E-1,1.7875864E-1,-1.4655292E-1,1.6824302E-1],"categories":[],"categories_nodes":[],"categories_segments":[],"categories_sizes":[],"default_left":[0,0,0,0,0,0,0,0,0,0,0,0,0],"id":38,"left_children":[1,3,-1,5,-1,7,-1,-1,9,11,-1,-1,-1],"loss_changes":[1.1324651E3,1.4391707E3,0E0,1.8118835E2,0E0,8.544922E-1,0E0,0E0,4.7133026E0,9.96335E0,0E0,0E0,0E0],"parents":[2147483647,0,0,1,1,3,3,5,5,8,8,9,9],"right_children":[2,4,-1,6,-1,8,-1,-1,10,12,-1,-1,-1],"split_conditions":[1E0,1E0,-1.5505446E-1,1E0,-1.550116E-1,1E0,-1.5410179E-1,1.7945497E-1,7.1428575E-2,6.1207E2,1.7875864E-1,-1.4655292E-1,1.6824302E-1],"split_indices":[7,15,0,16,0,12,0,0,5,1,0,0,0],"split_type":[0,0,0,0,0,0,0,0,0,0,0,0,0],"sum_hessian":[9.126697E3,5.856001E3,3.2706965E3,4.023399E3,1.832602E3,3.870703E3,1.5269617E2,3.6846917E3,1.8601105E2,3.7668495E1,1.4834254E2,1.3078027E1,2.459047E1],"tree_param":{"num_deleted":"0","num_feature":"17","num_nodes":"13","size_leaf_vector":"1"}},{"base_weights":[-2.2154863E-1,-1.5507115E-1,5.7644755E-1,9.305532E-2,1.7940988E-1,4.7312754E-1,-1.5087473E-1,1.766938E-1,-1.3512838E-1],"categories":[],"categories_nodes":[],"categories_segments":[],"categories_sizes":[],"default_left":[0,0,0,0,0,0,0,0,0],"id":39,"left_children":[1,-1,3,5,-1,7,-1,-1,-1],"loss_changes":[1.8232452E3,0E0,2.1750122E1,2.0740635E1,0E0,6.233879E0,0E0,0E0,0E0],"parents":[2147483647,0,0,2,2,3,3,5,5],"right_children":[2,-1,4,6,-1,8,-1,-1,-1],"split_conditions":[1E0,-1.5507115E-1,1E0,7.1428575E-2,1.7940988E-1,5.555556E-1,-1.5087473E-1,1.766938E-1,-1.3512838E-1],"split_indices":[12,0,7,5,0,3,0,0,0],"split_type":[0,0,0,0,0,0,0,0,0],"sum_hessian":[7.7334385E3,5.644604E3,2.0888345E3,8.95148E1,1.9993197E3,5.4783504E1,3.4731293E1,4.899926E1,5.784248E0],"tree_param":{"num_deleted":"0","num_feature":"17","num_nodes":"9","size_leaf_vector":"1"}},{"base_weights":[-2.3005372E-1,-1.5507257E-1,1.7941229E-1],"categories":[],"categories_nodes":[],"categories_segments":[],"categories_sizes":[],"default_left":[0,0,0],"id":40,"left_children":[1,-1,-1],"loss_changes":[1.8238134E3,0E0,0E0],"parents":[2147483647,0,0],"right_children":[2,-1,-1],"split_conditions":[1E0,-1.5507257E-1,1.7941229E-1],"split_indices":[16,0,0],"split_type":[0,0,0],"sum_hessian":[7.6755254E3,5.7010415E3,1.9744841E3],"tree_param":{"num_deleted":"0","num_feature":"17","num_nodes":"3","size_leaf_vector":"1"}},{"base_weights":[-2.2683251E-1,-1.5505126E-1,-5.2501764E-2,-3.5353786E-1,1.7940116E-1,-4.6054423E-1,1.7904446E-1,-5.039446E-1,1.7824686E-1,-5.119624E-1,1.8468429E-1,-1.5504518E-1,1.8172184E-1],"categories":[],"categories_nodes":[],"categories_segments":[],"categories_sizes":[],"default_left":[0,0,0,0,0,0,0,0,0,0,0,0,0],"id":41,"left_children":[1,-1,3,5,-1,7,-1,9,-1,11,-1,-1,-1],"loss_changes":[3.894209E2,0E0,9.425641E2,3.348891E2,0E0,1.356991E2,0E0,2.5822754E1,0E0,1.5625793E1,0E0,0E0,0E0],"parents":[2147483647,0,0,2,2,3,3,5,5,7,7,9,9],"right_children":[2,-1,4,6,-1,8,-1,10,-1,12,-1,-1,-1],"split_conditions":[1E0,-1.5505126E-1,1E0,1E0,1.7940116E-1,1E0,1.7904446E-1,1E0,1.7824686E-1,1E0,1.8468429E-1,-1.5504518E-1,1.8172184E-1],"split_indices":[7,0,15,11,0,14,0,10,0,13,0,0,0],"split_type":[0,0,0,0,0,0,0,0,0,0,0,0,0],"sum_hessian":[7.7021787E3,2.890977E3,4.8112017E3,3.28941E3,1.5217919E3,2.9569797E3,3.3243008E2,2.8406123E3,1.16367485E2,2.8209524E3,1.9659843E1,2.8092876E3,1.1664874E1],"tree_param":{"num_deleted":"0","num_feature":"17","num_nodes":"13","size_leaf_vector":"1"}},{"base_weights":[1.9728896E-1,-1.5374738E-1,5.2577007E-1,1.7107348E-1,-1.5322883E-1],"categories":[],"categories_nodes":[],"categories_segments":[],"categories_sizes":[],"default_left":[0,0,0,0,0],"id":42,"left_children":[1,-1,3,-1,-1],"loss_changes":[2.2179014E3,0E0,3.0007166E2,0E0,0E0],"parents":[2147483647,0,0,2,2],"right_children":[2,-1,4,-1,-1],"split_conditions":[1E0,-1.5374738E-1,1E0,1.7107348E-1,-1.5322883E-1],"split_indices":[15,0,7,0,0],"split_type":[0,0,0,0,0],"sum_hessian":[9.510635E3,3.0087607E3,6.5018745E3,6.234805E3,2.670691E2],"tree_param":{"num_deleted":"0","num_feature":"17","num_nodes":"5","size_leaf_vector":"1"}},{"base_weights":[2.3452681E-1,-1.5374038E-1,4.9122337E-1,-1.5351415E-1,1.7107782E-1],"categories":[],"categories_nodes":[],"categories_segments":[],"categories_sizes":[],"default_left":[0,0,0,0,0],"id":43,"left_children":[1,-1,3,-1,-1],"loss_changes":[1.9293723E3,0E0,5.938561E2,0E0,0E0],"parents":[2147483647,0,0,2,2],"right_children":[2,-1,4,-1,-1],"split_conditions":[1E0,-1.5374038E-1,1E0,-1.5351415E-1,1.7107782E-1],"split_indices":[9,0,7,0,0],"split_type":[0,0,0,0,0],"sum_hessian":[1.0059551E4,2.5725002E3,7.4870503E3,5.465146E2,6.9405356E3],"tree_param":{"num_deleted":"0","num_feature":"17","num_nodes":"5","size_leaf_vector":"1"}},{"base_weights":[-4.4427816E-2,2.1022141E-1,-1.5373644E-1,5.270138E-1,-1.5368323E-1,5.6645757E-1,-1.5249097E-1,1.7105702E-1,4.8961088E-1,1.8241026E-1,1.7002901E-1,-1.4334944E-1,1.552101E-1],"categories":[],"categories_nodes":[],"categories_segments":[],"categories_sizes":[],"default_left":[0,0,0,0,0,0,0,0,0,0,0,0,0],"id":44,"left_children":[1,3,-1,5,-1,7,-1,-1,9,11,-1,-1,-1],"loss_changes":[8.379799E2,1.0425182E3,0E0,1.2958197E2,0E0,5.9576416E-1,0E0,0E0,3.413189E0,7.1598854E0,0E0,0E0,0E0],"parents":[2147483647,0,0,1,1,3,3,5,5,8,8,9,9],"right_children":[2,4,-1,6,-1,8,-1,-1,10,12,-1,-1,-1],"split_conditions":[1E0,1E0,-1.5373644E-1,1E0,-1.5368323E-1,1E0,-1.5249097E-1,1.7105702E-1,7.1428575E-2,1.30388E3,1.7002901E-1,-1.4334944E-1,1.552101E-1],"split_indices":[7,15,0,16,0,12,0,0,5,2,0,0,0],"split_type":[0,0,0,0,0,0,0,0,0,0,0,0,0],"sum_hessian":[7.029149E3,4.552646E3,2.4765024E3,3.1651157E3,1.3875304E3,3.049392E3,1.1572363E2,2.9020215E3,1.4737053E2,3.0257504E1,1.1711303E2,1.0040288E1,2.0217216E1],"tree_param":{"num_deleted":"0","num_feature":"17","num_nodes":"13","size_leaf_vector":"1"}},{"base_weights":[-2.173082E-1,-1.5375987E-1,5.4955006E-1,8.967967E-2,1.7100483E-1,4.4472426E-1,-1.48297E-1,5.558665E-1,-1.275271E-1,1.697309E-1,4.970527E-2],"categories":[],"categories_nodes":[],"categories_segments":[],"categories_sizes":[],"default_left":[0,0,0,0,0,0,0,0,0,0,0],"id":45,"left_children":[1,-1,3,5,-1,7,-1,9,-1,-1,-1],"loss_changes":[1.3404733E3,0E0,1.5440216E1,1.5007335E1,0E0,4.574938E0,0E0,6.1704636E-2,0E0,0E0,0E0],"parents":[2147483647,0,0,2,2,3,3,5,5,7,7],"right_children":[2,-1,4,6,-1,8,-1,10,-1,-1,-1],"split_conditions":[1E0,-1.5375987E-1,1E0,7.1428575E-2,1.7100483E-1,6.3879333E2,-1.48297E-1,9.55E2,-1.275271E-1,1.697309E-1,4.970527E-2],"split_indices":[12,0,7,5,0,1,0,6,0,0,0],"split_type":[0,0,0,0,0,0,0,0,0,0,0],"sum_hessian":[5.918693E3,4.273727E3,1.6449655E3,7.03176E1,1.574648E3,4.387953E1,2.6438068E1,3.922803E1,4.6514993E0,3.7818157E1,1.4098731E0],"tree_param":{"num_deleted":"0","num_feature":"17","num_nodes":"11","size_leaf_vector":"1"}},{"base_weights":[-2.2576621E-1,-1.5376124E-1,1.710073E-1],"categories":[],"categories_nodes":[],"categories_segments":[],"categories_sizes":[],"default_left":[0,0,0],"id":46,"left_children":[1,-1,-1],"loss_changes":[1.3405167E3,0E0,0E0],"parents":[2147483647,0,0],"right_children":[2,-1,-1],"split_conditions":[1E0,-1.5376124E-1,1.710073E-1],"split_indices":[16,0,0],"split_type":[0,0,0],"sum_hessian":[5.8717734E3,4.316599E3,1.5551744E3],"tree_param":{"num_deleted":"0","num_feature":"17","num_nodes":"3","size_leaf_vector":"1"}},{"base_weights":[-2.2245866E-1,-1.5373045E-1,-5.104651E-2,-3.4815314E-1,1.7098643E-1,-4.5533496E-1,1.7052974E-1,-4.990891E-1,1.694915E-1,-5.0736314E-1,1.7072766E-1,-1.5372477E-1,1.6643903E-1],"categories":[],"categories_nodes":[],"categories_segments":[],"categories_sizes":[],"default_left":[0,0,0,0,0,0,0,0,0,0,0,0,0],"id":47,"left_children":[1,-1,3,5,-1,7,-1,9,-1,11,-1,-1,-1],"loss_changes":[2.9298965E2,0E0,6.839808E2,2.4658667E2,0E0,1.0052356E2,0E0,1.9322937E1,0E0,1.1756348E1,0E0,0E0,0E0],"parents":[2147483647,0,0,2,2,3,3,5,5,7,7,9,9],"right_children":[2,-1,4,6,-1,8,-1,10,-1,12,-1,-1,-1],"split_conditions":[1E0,-1.5373045E-1,1E0,1E0,1.7098643E-1,1E0,1.7052974E-1,1E0,1.694915E-1,1E0,1.7072766E-1,-1.5372477E-1,1.6643903E-1],"split_indices":[7,0,15,11,0,14,0,10,0,13,0,0,0],"split_type":[0,0,0,0,0,0,0,0,0,0,0,0,0],"sum_hessian":[5.8940454E3,2.1889805E3,3.705065E3,2.5063752E3,1.1986897E3,2.2444246E3,2.619507E2,2.1526238E3,9.1800804E1,2.1365989E3,1.6024963E1,2.1269983E3,9.600568E0],"tree_param":{"num_deleted":"0","num_feature":"17","num_nodes":"13","size_leaf_vector":"1"}},{"base_weights":[1.923536E-1,-1.5275735E-1,5.083254E-1,1.6521472E-1,-1.5207334E-1],"categories":[],"categories_nodes":[],"categories_segments":[],"categories_sizes":[],"default_left":[0,0,0,0,0],"id":48,"left_children":[1,-1,3,-1,-1],"loss_changes":[1.6181394E3,0E0,2.1686694E2,0E0,0E0],"parents":[2147483647,0,0,2,2],"right_children":[2,-1,4,-1,-1],"split_conditions":[1E0,-1.5275735E-1,1E0,1.6521472E-1,-1.5207334E-1],"split_indices":[15,0,7,0,0],"split_type":[0,0,0,0,0],"sum_hessian":[7.297654E3,2.2659675E3,5.0316865E3,4.8304526E3,2.0123384E2],"tree_param":{"num_deleted":"0","num_feature":"17","num_nodes":"5","size_leaf_vector":"1"}},{"base_weights":[2.284419E-1,-1.5274732E-1,4.7535908E-1,-1.52452E-1,1.652191E-1],"categories":[],"categories_nodes":[],"categories_segments":[],"categories_sizes":[],"default_left":[0,0,0,0,0],"id":49,"left_children":[1,-1,3,-1,-1],"loss_changes":[1.4075853E3,0E0,4.2947864E2,0E0,0E0],"parents":[2147483647,0,0,2,2],"right_children":[2,-1,4,-1,-1],"split_conditions":[1E0,-1.5274732E-1,1E0,-1.52452E-1,1.652191E-1],"split_indices":[9,0,7,0,0],"split_type":[0,0,0,0,0],"sum_hessian":[7.7263047E3,1.9374938E3,5.788811E3,4.116304E2,5.3771807E3],"tree_param":{"num_deleted":"0","num_feature":"17","num_nodes":"5","size_leaf_vector":"1"}},{"base_weights":[-4.357571E-2,2.0488378E-1,-1.5274277E-1,5.0927883E-1,-1.5267496E-1,5.468704E-1,-1.511039E-1,1.6518697E-1,4.694707E-1,1.7131408E-1,1.6375887E-1,-1.3838078E-1,1.4706436E-1],"categories":[],"categories_nodes":[],"categories_segments":[],"categories_sizes":[],"default_left":[0,0,0,0,0,0,0,0,0,0,0,0,0],"id":50,"left_children":[1,3,-1,5,-1,7,-1,-1,9,11,-1,-1,-1],"loss_changes":[6.203373E2,7.600392E2,0E0,9.364166E1,0E0,4.2840576E-1,0E0,0E0,2.5517178E0,5.298538E0,0E0,0E0,0E0],"parents":[2147483647,0,0,1,1,3,3,5,5,8,8,9,9],"right_children":[2,4,-1,6,-1,8,-1,-1,10,12,-1,-1,-1],"split_conditions":[1E0,1E0,-1.5274277E-1,1E0,-1.5267496E-1,1E0,-1.511039E-1,1.6518697E-1,7.1428575E-2,6.1207E2,1.6375887E-1,-1.3838078E-1,1.4706436E-1],"split_indices":[7,15,0,16,0,12,0,0,5,1,0,0,0],"split_type":[0,0,0,0,0,0,0,0,0,0,0,0,0],"sum_hessian":[5.3608813E3,3.4958223E3,1.8650588E3,2.450928E3,1.0448943E3,2.3636707E3,8.7257286E1,2.2485337E3,1.1513702E2,2.4144447E1,9.099257E1,7.9426537E0,1.6201794E1],"tree_param":{"num_deleted":"0","num_feature":"17","num_nodes":"13","size_leaf_vector":"1"}},{"base_weights":[-2.1415949E-1,-1.5277499E-1,5.30625E-1,8.7666035E-2,1.6512354E-1,4.2315713E-1,-1.4565833E-1,5.316623E-1,-1.2266132E-1,1.6237667E-1,5.106616E-2],"categories":[],"categories_nodes":[],"categories_segments":[],"categories_sizes":[],"default_left":[0,0,0,0,0,0,0,0,0,0,0],"id":51,"left_children":[1,-1,3,5,-1,7,-1,9,-1,-1,-1],"loss_changes":[9.8798816E2,0E0,1.1133942E1,1.09248495E1,0E0,3.4400387E0,0E0,1.8868446E-2,0E0,0E0,0E0],"parents":[2147483647,0,0,2,2,3,3,5,5,7,7],"right_children":[2,-1,4,6,-1,8,-1,10,-1,-1,-1],"split_conditions":[1E0,-1.5277499E-1,1E0,7.1428575E-2,1.6512354E-1,5.555556E-1,-1.4565833E-1,6.1207E2,-1.2266132E-1,1.6237667E-1,5.106616E-2],"split_indices":[12,0,7,5,0,3,0,1,0,0,0],"split_type":[0,0,0,0,0,0,0,0,0,0,0],"sum_hessian":[4.4931455E3,3.2183296E3,1.2748156E3,5.4742676E1,1.2200729E3,3.4696514E1,2.0046162E1,3.101309E1,3.6834252E0,2.9726606E1,1.2864836E0],"tree_param":{"num_deleted":"0","num_feature":"17","num_nodes":"11","size_leaf_vector":"1"}},{"base_weights":[-2.2260623E-1,-1.5277636E-1,1.6512586E-1],"categories":[],"categories_nodes":[],"categories_segments":[],"categories_sizes":[],"default_left":[0,0,0],"id":52,"left_children":[1,-1,-1],"loss_changes":[9.878519E2,0E0,0E0],"parents":[2147483647,0,0],"right_children":[2,-1,-1],"split_conditions":[1E0,-1.5277636E-1,1.6512586E-1],"split_indices":[16,0,0],"split_type":[0,0,0],"sum_hessian":[4.4558223E3,3.2507441E3,1.2050782E3],"tree_param":{"num_deleted":"0","num_feature":"17","num_nodes":"3","size_leaf_vector":"1"}},{"base_weights":[-2.1920227E-1,-1.5273361E-1,-4.993471E-2,-3.4405667E-1,1.6509424E-1,-4.513332E-1,1.6450468E-1,-4.9535865E-1,1.6315483E-1,-5.038579E-1,1.6015479E-1,-1.527279E-1,1.545279E-1],"categories":[],"categories_nodes":[],"categories_segments":[],"categories_sizes":[],"default_left":[0,0,0,0,0,0,0,0,0,0,0,0,0],"id":53,"left_children":[1,-1,3,5,-1,7,-1,9,-1,11,-1,-1,-1],"loss_changes":[2.1957433E2,0E0,4.9919662E2,1.8191183E2,0E0,7.4511536E1,0E0,1.4468292E1,0E0,8.852966E0,0E0,0E0,0E0],"parents":[2147483647,0,0,2,2,3,3,5,5,7,7,9,9],"right_children":[2,-1,4,6,-1,8,-1,10,-1,12,-1,-1,-1],"split_conditions":[1E0,-1.5273361E-1,1E0,1E0,1.6509424E-1,1E0,1.6450468E-1,1E0,1.6315483E-1,1E0,1.6015479E-1,-1.527279E-1,1.545279E-1],"split_indices":[7,0,15,11,0,14,0,10,0,13,0,0,0],"split_type":[0,0,0,0,0,0,0,0,0,0,0,0,0],"sum_hessian":[4.4740234E3,1.6485292E3,2.8254944E3,1.8965913E3,9.28903E2,1.693508E3,2.0308322E2,1.6222445E3,7.1263565E1,1.609464E3,1.2780601E1,1.601735E3,7.728918E0],"tree_param":{"num_deleted":"0","num_feature":"17","num_nodes":"13","size_leaf_vector":"1"}},{"base_weights":[1.8877149E-1,-1.520094E-1,4.958937E-1,1.6105211E-1,-1.5110283E-1],"categories":[],"categories_nodes":[],"categories_segments":[],"categories_sizes":[],"default_left":[0,0,0,0,0],"id":54,"left_children":[1,-1,3,-1,-1],"loss_changes":[1.1857078E3,0E0,1.5786414E2,0E0,0E0],"parents":[2147483647,0,0,2,2],"right_children":[2,-1,4,-1,-1],"split_conditions":[1E0,-1.520094E-1,1E0,1.6105211E-1,-1.5110283E-1],"split_indices":[15,0,7,0,0],"split_type":[0,0,0,0,0],"sum_hessian":[5.549043E3,1.6996299E3,3.8494133E3,3.698375E3,1.5103838E2],"tree_param":{"num_deleted":"0","num_feature":"17","num_nodes":"5","size_leaf_vector":"1"}},{"base_weights":[2.2403507E-1,-1.519954E-1,4.6403974E-1,-1.5160629E-1,1.6105697E-1],"categories":[],"categories_nodes":[],"categories_segments":[],"categories_sizes":[],"default_left":[0,0,0,0,0],"id":55,"left_children":[1,-1,3,-1,-1],"loss_changes":[1.0314067E3,0E0,3.12745E2,0E0,0E0],"parents":[2147483647,0,0,2,2],"right_children":[2,-1,4,-1,-1],"split_conditions":[1E0,-1.519954E-1,1E0,-1.5160629E-1,1.6105697E-1],"split_indices":[9,0,7,0,0],"split_type":[0,0,0,0,0],"sum_hessian":[5.879039E3,1.4533256E3,4.4257134E3,3.0879898E2,4.116914E3],"tree_param":{"num_deleted":"0","num_feature":"17","num_nodes":"5","size_leaf_vector":"1"}},{"base_weights":[-4.294534E-2,2.0100209E-1,-1.5199E-1,4.9654177E-1,-1.5190195E-1,5.3285193E-1,-1.498245E-1,1.610112E-1,4.5327532E-1,1.6029805E-1,1.5907918E-1,-1.1442597E-1,1.5108302E-1],"categories":[],"categories_nodes":[],"categories_segments":[],"categories_sizes":[],"default_left":[0,0,0,0,0,0,0,0,0,0,0,0,0],"id":56,"left_children":[1,3,-1,5,-1,7,-1,-1,9,11,-1,-1,-1],"loss_changes":[4.5934006E2,5.565325E2,0E0,6.815741E1,0E0,3.1207275E-1,0E0,0E0,1.9469833E0,3.9451253E0,0E0,0E0,0E0],"parents":[2147483647,0,0,1,1,3,3,5,5,8,8,9,9],"right_children":[2,4,-1,6,-1,8,-1,-1,10,12,-1,-1,-1],"split_conditions":[1E0,1E0,-1.5199E-1,1E0,-1.5190195E-1,1E0,-1.498245E-1,1.610112E-1,7.1428575E-2,6.3879333E2,1.5907918E-1,-1.1442597E-1,1.5108302E-1],"split_indices":[7,15,0,16,0,12,0,0,5,1,0,0,0],"split_type":[0,0,0,0,0,0,0,0,0,0,0,0,0],"sum_hessian":[4.058906E3,2.660026E3,1.39888E3,1.8763517E3,7.836742E2,1.8107993E3,6.55524E1,1.7217128E3,8.908662E1,1.9179981E1,6.990663E1,7.397049E0,1.1782931E1],"tree_param":{"num_deleted":"0","num_feature":"17","num_nodes":"13","size_leaf_vector":"1"}},{"base_weights":[-2.1180254E-1,-1.520338E-1,5.1699907E-1,8.6080864E-2,1.6093156E-1,4.049859E-1,-1.4277828E-1,5.122111E-1,-1.14447944E-1,1.5725267E-1,4.0295973E-2],"categories":[],"categories_nodes":[],"categories_segments":[],"categories_sizes":[],"default_left":[0,0,0,0,0,0,0,0,0,0,0],"id":57,"left_children":[1,-1,3,5,-1,7,-1,9,-1,-1,-1],"loss_changes":[7.293242E2,0E0,8.143127E0,7.969324E0,0E0,2.5753803E0,0E0,4.3812275E-2,0E0,0E0,0E0],"parents":[2147483647,0,0,2,2,3,3,5,5,7,7],"right_children":[2,-1,4,6,-1,8,-1,10,-1,-1,-1],"split_conditions":[1E0,-1.520338E-1,1E0,7.1428575E-2,1.6093156E-1,6.3879333E2,-1.4277828E-1,9.55E2,-1.14447944E-1,1.5725267E-1,4.0295973E-2],"split_indices":[12,0,7,5,0,1,0,6,0,0,0],"split_type":[0,0,0,0,0,0,0,0,0,0,0],"sum_hessian":[3.3903093E3,2.4136912E3,9.7661816E2,4.2389473E1,9.3422864E2,2.7222042E1,1.5167432E1,2.4262875E1,2.9591682E0,2.3143036E1,1.1198386E0],"tree_param":{"num_deleted":"0","num_feature":"17","num_nodes":"11","size_leaf_vector":"1"}},{"base_weights":[-2.2026211E-1,-1.5203525E-1,1.6093352E-1],"categories":[],"categories_nodes":[],"categories_segments":[],"categories_sizes":[],"default_left":[0,0,0],"id":58,"left_children":[1,-1,-1],"loss_changes":[7.2918823E2,0E0,0E0],"parents":[2147483647,0,0],"right_children":[2,-1,-1],"split_conditions":[1E0,-1.5203525E-1,1.6093352E-1],"split_indices":[16,0,0],"split_type":[0,0,0],"sum_hessian":[3.3609546E3,2.4381108E3,9.2284375E2],"tree_param":{"num_deleted":"0","num_feature":"17","num_nodes":"3","size_leaf_vector":"1"}},{"base_weights":[-2.1674623E-1,-1.519769E-1,-4.9052827E-2,-3.408824E-1,1.6088891E-1,-4.482039E-1,1.6012225E-1,-4.924492E-1,1.5836513E-1,-5.0115705E-1,1.5150498E-1,-1.5197083E-1,1.4447181E-1],"categories":[],"categories_nodes":[],"categories_segments":[],"categories_sizes":[],"default_left":[0,0,0,0,0,0,0,0,0,0,0,0,0],"id":59,"left_children":[1,-1,3,5,-1,7,-1,9,-1,11,-1,-1,-1],"loss_changes":[1.6409563E2,0E0,3.6576904E2,1.3435075E2,0E0,5.5243607E1,0E0,1.0836334E1,0E0,6.6713867E0,0E0,0E0,0E0],"parents":[2147483647,0,0,2,2,3,3,5,5,7,7,9,9],"right_children":[2,-1,4,6,-1,8,-1,10,-1,12,-1,-1,-1],"split_conditions":[1E0,-1.519769E-1,1E0,1E0,1.6088891E-1,1E0,1.6012225E-1,1E0,1.5836513E-1,1E0,1.5150498E-1,-1.5197083E-1,1.4447181E-1],"split_indices":[7,0,15,11,0,14,0,10,0,13,0,0,0],"split_type":[0,0,0,0,0,0,0,0,0,0,0,0,0],"sum_hessian":[3.3756294E3,1.2364729E3,2.1391565E3,1.4277568E3,7.113996E2,1.2721447E3,1.5561223E2,1.2174539E3,5.469077E1,1.2074108E3,1.0043097E1,1.2012793E3,6.1315203E0],"tree_param":{"num_deleted":"0","num_feature":"17","num_nodes":"13","size_leaf_vector":"1"}},{"base_weights":[1.8614185E-1,-1.514394E-1,4.8691937E-1,1.5805708E-1,-1.5023409E-1],"categories":[],"categories_nodes":[],"categories_segments":[],"categories_sizes":[],"default_left":[0,0,0,0,0],"id":60,"left_children":[1,-1,3,-1,-1],"loss_changes":[8.714944E2,0E0,1.1550049E2,0E0,0E0],"parents":[2147483647,0,0,2,2],"right_children":[2,-1,4,-1,-1],"split_conditions":[1E0,-1.514394E-1,1E0,1.5805708E-1,-1.5023409E-1],"split_indices":[15,0,7,0,0],"split_type":[0,0,0,0,0],"sum_hessian":[4.19134E3,1.2709839E3,2.9203562E3,2.8073096E3,1.1304663E2],"tree_param":{"num_deleted":"0","num_feature":"17","num_nodes":"5","size_leaf_vector":"1"}},{"base_weights":[2.2080646E-1,-1.514202E-1,4.5586425E-1,-1.5090425E-1,1.580629E-1],"categories":[],"categories_nodes":[],"categories_segments":[],"categories_sizes":[],"default_left":[0,0,0,0,0],"id":61,"left_children":[1,-1,3,-1,-1],"loss_changes":[7.580895E2,0E0,2.2884393E2,0E0,0E0],"parents":[2147483647,0,0,2,2],"right_children":[2,-1,4,-1,-1],"split_conditions":[1E0,-1.514202E-1,1E0,-1.5090425E-1,1.580629E-1],"split_indices":[9,0,7,0,0],"split_type":[0,0,0,0,0],"sum_hessian":[4.4427783E3,1.0868644E3,3.355914E3,2.3097455E2,3.1249395E3],"tree_param":{"num_deleted":"0","num_feature":"17","num_nodes":"5","size_leaf_vector":"1"}},{"base_weights":[-4.2454183E-2,1.9817044E-1,-1.5141353E-1,4.872656E-1,-1.5129776E-1,5.226843E-1,-1.4854611E-1,1.579998E-1,4.4023302E-1,1.525174E-1,1.5541899E-1,-1.2892884E-1,1.312569E-1],"categories":[],"categories_nodes":[],"categories_segments":[],"categories_sizes":[],"default_left":[0,0,0,0,0,0,0,0,0,0,0,0,0],"id":62,"left_children":[1,3,-1,5,-1,7,-1,-1,9,11,-1,-1,-1],"loss_changes":[3.402081E2,4.0878546E2,0E0,4.986606E1,0E0,2.2006226E-1,0E0,0E0,1.4774475E0,2.879168E0,0E0,0E0,0E0],"parents":[2147483647,0,0,1,1,3,3,5,5,8,8,9,9],"right_children":[2,4,-1,6,-1,8,-1,-1,10,12,-1,-1,-1],"split_conditions":[1E0,1E0,-1.5141353E-1,1E0,-1.5129776E-1,1E0,-1.4854611E-1,1.579998E-1,7.1428575E-2,1.30388E3,1.5541899E-1,-1.2892884E-1,1.312569E-1],"split_indices":[7,15,0,16,0,12,0,0,5,2,0,0,0],"split_type":[0,0,0,0,0,0,0,0,0,0,0,0,0],"sum_hessian":[3.056686E3,2.0106361E3,1.0460498E3,1.4246589E3,5.859771E2,1.3755354E3,4.9123566E1,1.3070288E3,6.8506615E1,1.5216249E1,5.3290363E1,4.8334227E0,1.0382827E1],"tree_param":{"num_deleted":"0","num_feature":"17","num_nodes":"13","size_leaf_vector":"1"}},{"base_weights":[-2.1002966E-1,-1.5147278E-1,5.0685436E-1,8.294383E-2,1.5789759E-1,3.8497987E-1,-1.3948543E-1,4.9530292E-1,-1.1015984E-1,1.5205412E-1,4.5300383E-2],"categories":[],"categories_nodes":[],"categories_segments":[],"categories_sizes":[],"default_left":[0,0,0,0,0,0,0,0,0,0,0],"id":63,"left_children":[1,-1,3,5,-1,7,-1,9,-1,-1,-1],"loss_changes":[5.3883704E2,0E0,6.0893555E0,5.775259E0,0E0,2.036289E0,0E0,2.6183128E-3,0E0,0E0,0E0],"parents":[2147483647,0,0,2,2,3,3,5,5,7,7],"right_children":[2,-1,4,6,-1,8,-1,10,-1,-1,-1],"split_conditions":[1E0,-1.5147278E-1,1E0,7.1428575E-2,1.5789759E-1,5.555556E-1,-1.3948543E-1,1.57328E3,-1.1015984E-1,1.5205412E-1,4.5300383E-2],"split_indices":[12,0,7,5,0,3,0,2,0,0,0],"split_type":[0,0,0,0,0,0,0,0,0,0,0],"sum_hessian":[2.5467542E3,1.8047095E3,7.420446E2,3.2817516E1,7.092271E2,2.1346992E1,1.1470525E1,1.8914316E1,2.432676E0,1.7843924E1,1.0703923E0],"tree_param":{"num_deleted":"0","num_feature":"17","num_nodes":"11","size_leaf_vector":"1"}},{"base_weights":[-2.185086E-1,-1.5147436E-1,1.5789904E-1],"categories":[],"categories_nodes":[],"categories_segments":[],"categories_sizes":[],"default_left":[0,0,0],"id":64,"left_children":[1,-1,-1],"loss_changes":[5.3886066E2,0E0,0E0],"parents":[2147483647,0,0],"right_children":[2,-1,-1],"split_conditions":[1E0,-1.5147436E-1,1.5789904E-1],"split_indices":[16,0,0],"split_type":[0,0,0],"sum_hessian":[2.5237478E3,1.8230641E3,7.006837E2],"tree_param":{"num_deleted":"0","num_feature":"17","num_nodes":"3","size_leaf_vector":"1"}},{"base_weights":[-2.1485789E-1,-1.5139544E-1,-4.831582E-2,-3.383496E-1,1.5783797E-1,-4.4568345E-1,1.5683493E-1,-4.9012002E-1,1.5454414E-1,-4.990336E-1,1.4384407E-1,-1.5138853E-1,1.3533081E-1],"categories":[],"categories_nodes":[],"categories_segments":[],"categories_sizes":[],"default_left":[0,0,0,0,0,0,0,0,0,0,0,0,0],"id":65,"left_children":[1,-1,3,5,-1,7,-1,9,-1,11,-1,-1,-1],"loss_changes":[1.22394295E2,0E0,2.6873254E2,9.928981E1,0E0,4.096202E1,0E0,8.119949E0,0E0,5.0332947E0,0E0,0E0,0E0],"parents":[2147483647,0,0,2,2,3,3,5,5,7,7,9,9],"right_children":[2,-1,4,6,-1,8,-1,10,-1,12,-1,-1,-1],"split_conditions":[1E0,-1.5139544E-1,1E0,1E0,1.5783797E-1,1E0,1.5683493E-1,1E0,1.5454414E-1,1E0,1.4384407E-1,-1.5138853E-1,1.3533081E-1],"split_indices":[7,0,15,11,0,14,0,10,0,13,0,0,0],"split_type":[0,0,0,0,0,0,0,0,0,0,0,0,0],"sum_hessian":[2.535501E3,9.2460345E2,1.6108975E3,1.0707107E3,5.4018677E2,9.5247424E2,1.1823643E2,9.1083954E2,4.163468E1,9.030233E2,7.8162127E0,8.982032E2,4.8201394E0],"tree_param":{"num_deleted":"0","num_feature":"17","num_nodes":"13","size_leaf_vector":"1"}},{"base_weights":[1.841845E-1,-1.5099764E-1,4.803676E-1,1.5588029E-1,-1.4939243E-1],"categories":[],"categories_nodes":[],"categories_segments":[],"categories_sizes":[],"default_left":[0,0,0,0,0],"id":66,"left_children":[1,-1,3,-1,-1],"loss_changes":[6.419439E2,0E0,8.481772E1,0E0,0E0],"parents":[2147483647,0,0,2,2],"right_children":[2,-1,4,-1,-1],"split_conditions":[1E0,-1.5099764E-1,1E0,1.5588029E-1,-1.4939243E-1],"split_indices":[15,0,7,0,0],"split_type":[0,0,0,0,0],"sum_hessian":[3.1503323E3,9.483324E2,2.2019998E3,2.117551E3,8.444872E1],"tree_param":{"num_deleted":"0","num_feature":"17","num_nodes":"5","size_leaf_vector":"1"}},{"base_weights":[2.1840979E-1,-1.5097156E-1,4.4989723E-1,-1.502847E-1,1.5588765E-1],"categories":[],"categories_nodes":[],"categories_segments":[],"categories_sizes":[],"default_left":[0,0,0,0,0],"id":67,"left_children":[1,-1,3,-1,-1],"loss_changes":[5.5842993E2,0E0,1.6803253E2,0E0,0E0],"parents":[2147483647,0,0,2,2],"right_children":[2,-1,4,-1,-1],"split_conditions":[1E0,-1.5097156E-1,1E0,-1.502847E-1,1.5588765E-1],"split_indices":[9,0,7,0,0],"split_type":[0,0,0,0,0],"sum_hessian":[3.3404854E3,8.110163E2,2.529469E3,1.7239726E2,2.3570718E3],"tree_param":{"num_deleted":"0","num_feature":"17","num_nodes":"5","size_leaf_vector":"1"}},{"base_weights":[-4.208553E-2,1.9603376E-1,-1.5096316E-1,4.8030257E-1,-1.5080975E-1,5.1510036E-1,-1.4716472E-1,1.5580197E-1,4.273589E-1,1.410501E-1,1.5237807E-1,-1.2289182E-1,1.2474572E-1],"categories":[],"categories_nodes":[],"categories_segments":[],"categories_sizes":[],"default_left":[0,0,0,0,0,0,0,0,0,0,0,0,0],"id":68,"left_children":[1,3,-1,5,-1,7,-1,-1,9,11,-1,-1,-1],"loss_changes":[2.5198407E2,3.0086743E2,0E0,3.6615173E1,0E0,1.647644E-1,0E0,0E0,1.1638823E0,2.1596243E0,0E0,0E0,0E0],"parents":[2147483647,0,0,1,1,3,3,5,5,8,8,9,9],"right_children":[2,4,-1,6,-1,8,-1,-1,10,12,-1,-1,-1],"split_conditions":[1E0,1E0,-1.5096316E-1,1E0,-1.5080975E-1,1E0,-1.4716472E-1,1.5580197E-1,7.1428575E-2,6.1207E2,1.5237807E-1,-1.2289182E-1,1.2474572E-1],"split_indices":[7,15,0,16,0,12,0,0,5,1,0,0,0],"split_type":[0,0,0,0,0,0,0,0,0,0,0,0,0],"sum_hessian":[2.2929812E3,1.512513E3,7.804683E2,1.0753398E3,4.37173E2,1.0385839E3,3.6756023E1,9.860221E2,5.2561783E1,1.21469E1,4.0414886E1,3.8799295E0,8.266971E0],"tree_param":{"num_deleted":"0","num_feature":"17","num_nodes":"13","size_leaf_vector":"1"}},{"base_weights":[-2.0864002E-1,-1.5104303E-1,4.9925023E-1,8.150885E-2,1.5566882E-1,3.6849245E-1,-1.3562176E-1,1.4358903E-1,-1.02362335E-1],"categories":[],"categories_nodes":[],"categories_segments":[],"categories_sizes":[],"default_left":[0,0,0,0,0,0,0,0,0],"id":69,"left_children":[1,-1,3,5,-1,7,-1,-1,-1],"loss_changes":[3.984291E2,0E0,4.565506E0,4.2099485E0,0E0,1.5484707E0,0E0,0E0,0E0],"parents":[2147483647,0,0,2,2,3,3,5,5],"right_children":[2,-1,4,6,-1,8,-1,-1,-1],"split_conditions":[1E0,-1.5104303E-1,1E0,7.1428575E-2,1.5566882E-1,5.555556E-1,-1.3562176E-1,1.4358903E-1,-1.02362335E-1],"split_indices":[12,0,7,5,0,3,0,0,0],"split_type":[0,0,0,0,0,0,0,0,0],"sum_hessian":[1.9067852E3,1.3463276E3,5.604575E2,2.540493E1,5.350526E2,1.6721024E1,8.683907E0,1.4756557E1,1.9644661E0],"tree_param":{"num_deleted":"0","num_feature":"17","num_nodes":"9","size_leaf_vector":"1"}},{"base_weights":[-2.1718036E-1,-1.5104483E-1,1.5566956E-1],"categories":[],"categories_nodes":[],"categories_segments":[],"categories_sizes":[],"default_left":[0,0,0],"id":70,"left_children":[1,-1,-1],"loss_changes":[3.9852408E2,0E0,0E0],"parents":[2147483647,0,0],"right_children":[2,-1,-1],"split_conditions":[1E0,-1.5104483E-1,1.5566956E-1],"split_indices":[16,0,0],"split_type":[0,0,0],"sum_hessian":[1.88882E3,1.3601119E3,5.28708E2],"tree_param":{"num_deleted":"0","num_feature":"17","num_nodes":"3","size_leaf_vector":"1"}},{"base_weights":[-2.1336304E-1,-1.5093845E-1,-4.76565E-2,-3.3623773E-1,1.5558712E-1,-4.4356027E-1,1.5426867E-1,-4.881781E-1,1.512803E-1,-4.9730793E-1,1.3654304E-1,-1.5093023E-1,1.2651554E-1],"categories":[],"categories_nodes":[],"categories_segments":[],"categories_sizes":[],"default_left":[0,0,0,0,0,0,0,0,0,0,0,0,0],"id":71,"left_children":[1,-1,3,5,-1,7,-1,9,-1,11,-1,-1,-1],"loss_changes":[9.116906E1,0E0,1.9780626E2,7.340437E1,0E0,3.037445E1,0E0,6.0905E0,0E0,3.8049316E0,0E0,0E0,0E0],"parents":[2147483647,0,0,2,2,3,3,5,5,7,7,9,9],"right_children":[2,-1,4,6,-1,8,-1,10,-1,12,-1,-1,-1],"split_conditions":[1E0,-1.5093845E-1,1E0,1E0,1.5558712E-1,1E0,1.5426867E-1,1E0,1.512803E-1,1E0,1.3654304E-1,-1.5093023E-1,1.2651554E-1],"split_indices":[7,0,15,11,0,14,0,10,0,13,0,0,0],"split_type":[0,0,0,0,0,0,0,0,0,0,0,0,0],"sum_hessian":[1.8982229E3,6.898575E2,1.2083655E3,8.007186E2,4.0764682E2,7.11421E2,8.92976E1,6.799005E2,3.152051E1,6.7385156E2,6.0489817E0,6.7008044E2,3.7710896E0],"tree_param":{"num_deleted":"0","num_feature":"17","num_nodes":"13","size_leaf_vector":"1"}},{"base_weights":[1.8270244E-1,-1.5064529E-1,4.7552866E-1,1.5428361E-1,-1.485063E-1],"categories":[],"categories_nodes":[],"categories_segments":[],"categories_sizes":[],"default_left":[0,0,0,0,0],"id":72,"left_children":[1,-1,3,-1,-1],"loss_changes":[4.7360052E2,0E0,6.2457672E1,0E0,0E0],"parents":[2147483647,0,0,2,2],"right_children":[2,-1,4,-1,-1],"split_conditions":[1E0,-1.5064529E-1,1E0,1.5428361E-1,-1.485063E-1],"split_indices":[15,0,7,0,0],"split_type":[0,0,0,0,0],"sum_hessian":[2.3594001E3,7.0645325E2,1.652947E3,1.5899374E3,6.3009594E1],"tree_param":{"num_deleted":"0","num_feature":"17","num_nodes":"5","size_leaf_vector":"1"}},{"base_weights":[2.1660115E-1,-1.5060997E-1,4.454958E-1,-1.4969341E-1,1.5429322E-1],"categories":[],"categories_nodes":[],"categories_segments":[],"categories_sizes":[],"default_left":[0,0,0,0,0],"id":73,"left_children":[1,-1,3,-1,-1],"loss_changes":[4.120144E2,0E0,1.2369266E2,0E0,0E0],"parents":[2147483647,0,0,2,2],"right_children":[2,-1,4,-1,-1],"split_conditions":[1E0,-1.5060997E-1,1E0,-1.4969341E-1,1.5429322E-1],"split_indices":[9,0,7,0,0],"split_type":[0,0,0,0,0],"sum_hessian":[2.5024155E3,6.042204E2,1.898195E3,1.284865E2,1.7697085E3],"tree_param":{"num_deleted":"0","num_feature":"17","num_nodes":"5","size_leaf_vector":"1"}},{"base_weights":[-4.177389E-2,1.9443351E-1,-1.5059918E-1,4.7501162E-1,-1.5039483E-1,5.09391E-1,-1.4557354E-1,1.5417764E-1,4.1563E-1,1.3226256E-1,1.4965662E-1,-9.50821E-2,1.330945E-1],"categories":[],"categories_nodes":[],"categories_segments":[],"categories_sizes":[],"default_left":[0,0,0,0,0,0,0,0,0,0,0,0,0],"id":74,"left_children":[1,3,-1,5,-1,7,-1,-1,9,11,-1,-1,-1],"loss_changes":[1.8666748E2,2.2177843E2,0E0,2.6962769E1,0E0,1.18759155E-1,0E0,0E0,9.078045E-1,1.6421554E0,0E0,0E0,0E0],"parents":[2147483647,0,0,1,1,3,3,5,5,8,8,9,9],"right_children":[2,4,-1,6,-1,8,-1,-1,10,12,-1,-1,-1],"split_conditions":[1E0,1E0,-1.5059918E-1,1E0,-1.5039483E-1,1E0,-1.4557354E-1,1.5417764E-1,7.1428575E-2,6.3879333E2,1.4965662E-1,-9.50821E-2,1.330945E-1],"split_indices":[7,15,0,16,0,12,0,0,5,1,0,0,0],"split_type":[0,0,0,0,0,0,0,0,0,0,0,0,0],"sum_hessian":[1.7152454E3,1.1338698E3,5.813756E2,8.082431E2,3.2562662E2,7.8075964E2,2.7483467E1,7.4046844E2,4.0291195E1,9.7348795E0,3.0556316E1,3.9781666E0,5.756713E0],"tree_param":{"num_deleted":"0","num_feature":"17","num_nodes":"13","size_leaf_vector":"1"}},{"base_weights":[-2.0754464E-1,-1.5070674E-1,4.932109E-1,7.8485236E-2,1.5400258E-1,3.4938285E-1,-1.310538E-1,4.591664E-1,-9.455817E-2,1.4296648E-1,4.097845E-2],"categories":[],"categories_nodes":[],"categories_segments":[],"categories_sizes":[],"default_left":[0,0,0,0,0,0,0,0,0,0,0],"id":75,"left_children":[1,-1,3,5,-1,7,-1,9,-1,-1,-1],"loss_changes":[2.9469522E2,0E0,3.4876099E0,3.048292E0,0E0,1.1771846E0,0E0,5.308628E-3,0E0,0E0,0E0],"parents":[2147483647,0,0,2,2,3,3,5,5,7,7],"right_children":[2,-1,4,6,-1,8,-1,10,-1,-1,-1],"split_conditions":[1E0,-1.5070674E-1,1E0,7.1428575E-2,1.5400258E-1,5.555556E-1,-1.310538E-1,3E0,-9.455817E-2,1.4296648E-1,4.097845E-2],"split_indices":[12,0,7,5,0,3,0,0,0,0,0],"split_type":[0,0,0,0,0,0,0,0,0,0,0],"sum_hessian":[1.4242709E3,1.0027095E3,4.215614E2,1.974229E1,4.0181912E2,1.3151091E1,6.5911994E0,1.1551883E1,1.5992078E0,1.0508075E1,1.0438087E0],"tree_param":{"num_deleted":"0","num_feature":"17","num_nodes":"11","size_leaf_vector":"1"}},{"base_weights":[-2.1615207E-1,-1.5070888E-1,1.5400231E-1],"categories":[],"categories_nodes":[],"categories_segments":[],"categories_sizes":[],"default_left":[0,0,0],"id":76,"left_children":[1,-1,-1],"loss_changes":[2.9490414E2,0E0,0E0],"parents":[2147483647,0,0],"right_children":[2,-1,-1],"split_conditions":[1E0,-1.5070888E-1,1.5400231E-1],"split_indices":[16,0,0],"split_type":[0,0,0],"sum_hessian":[1.4102169E3,1.0130616E3,3.971553E2],"tree_param":{"num_deleted":"0","num_feature":"17","num_nodes":"3","size_leaf_vector":"1"}},{"base_weights":[-2.1212657E-1,-1.5056571E-1,-4.7018778E-2,-3.3436686E-1,1.5389165E-1,-4.416591E-1,1.5215313E-1,-4.864647E-1,1.482587E-1,-4.958348E-1,1.2917745E-1,-1.5055552E-1,1.176829E-1],"categories":[],"categories_nodes":[],"categories_segments":[],"categories_sizes":[],"default_left":[0,0,0,0,0,0,0,0,0,0,0,0,0],"id":77,"left_children":[1,-1,3,5,-1,7,-1,9,-1,11,-1,-1,-1],"loss_changes":[6.785217E1,0E0,1.4577844E2,5.4274666E1,0E0,2.2525764E1,0E0,4.5760345E0,0E0,2.8848724E0,0E0,0E0,0E0],"parents":[2147483647,0,0,2,2,3,3,5,5,7,7,9,9],"right_children":[2,-1,4,6,-1,8,-1,10,-1,12,-1,-1,-1],"split_conditions":[1E0,-1.5056571E-1,1E0,1E0,1.5389165E-1,1E0,1.5215313E-1,1E0,1.482587E-1,1E0,1.2917745E-1,-1.5055552E-1,1.176829E-1],"split_indices":[7,0,15,11,0,14,0,10,0,13,0,0,0],"split_type":[0,0,0,0,0,0,0,0,0,0,0,0,0],"sum_hessian":[1.4177638E3,5.138801E2,9.0388367E2,5.976265E2,3.0625714E2,5.304697E2,6.715679E1,5.0669122E2,2.3778503E1,5.0202112E2,4.6701183E0,4.990748E2,2.9463108E0],"tree_param":{"num_deleted":"0","num_feature":"17","num_nodes":"13","size_leaf_vector":"1"}},{"base_weights":[1.8155502E-1,-1.5035109E-1,4.719028E-1,1.5310082E-1,-1.475025E-1],"categories":[],"categories_nodes":[],"categories_segments":[],"categories_sizes":[],"default_left":[0,0,0,0,0],"id":78,"left_children":[1,-1,3,-1,-1],"loss_changes":[3.4980225E2,0E0,4.6090393E1,0E0,0E0],"parents":[2147483647,0,0,2,2],"right_children":[2,-1,4,-1,-1],"split_conditions":[1E0,-1.5035109E-1,1E0,1.5310082E-1,-1.475025E-1],"split_indices":[15,0,7,0,0],"split_type":[0,0,0,0,0],"sum_hessian":[1.7624551E3,5.2566876E2,1.2367864E3,1.1898004E3,4.6985966E1],"tree_param":{"num_deleted":"0","num_feature":"17","num_nodes":"5","size_leaf_vector":"1"}},{"base_weights":[2.152067E-1,-1.5030347E-1,4.422075E-1,-1.4907908E-1,1.531135E-1],"categories":[],"categories_nodes":[],"categories_segments":[],"categories_sizes":[],"default_left":[0,0,0,0,0],"id":79,"left_children":[1,-1,3,-1,-1],"loss_changes":[3.043449E2,0E0,9.122397E1,0E0,0E0],"parents":[2147483647,0,0,2,2],"right_children":[2,-1,4,-1,-1],"split_conditions":[1E0,-1.5030347E-1,1E0,-1.4907908E-1,1.531135E-1],"split_indices":[9,0,7,0,0],"split_type":[0,0,0,0,0],"sum_hessian":[1.8695833E3,4.4965466E2,1.4199286E3,9.566973E1,1.3242589E3],"tree_param":{"num_deleted":"0","num_feature":"17","num_nodes":"5","size_leaf_vector":"1"}},{"base_weights":[-4.1505847E-2,1.93194E-1,-1.5028934E-1,4.708379E-1,-1.5001628E-1,5.0495386E-1,-1.4365894E-1,1.52958E-1,4.0379235E-1,1.2347009E-1,1.4701504E-1,-8.5874856E-2,1.2676235E-1],"categories":[],"categories_nodes":[],"categories_segments":[],"categories_sizes":[],"default_left":[0,0,0,0,0,0,0,0,0,0,0,0,0],"id":80,"left_children":[1,3,-1,5,-1,7,-1,-1,9,11,-1,-1,-1],"loss_changes":[1.3829257E2,1.6364204E2,0E0,1.9899109E1,0E0,8.505249E-2,0E0,0E0,7.112994E-1,1.205087E0,0E0,0E0,0E0],"parents":[2147483647,0,0,1,1,3,3,5,5,8,8,9,9],"right_children":[2,4,-1,6,-1,8,-1,-1,10,12,-1,-1,-1],"split_conditions":[1E0,1E0,-1.5028934E-1,1E0,-1.5001628E-1,1E0,-1.4365894E-1,1.52958E-1,7.1428575E-2,6.3879333E2,1.4701504E-1,-8.5874856E-2,1.2676235E-1],"split_indices":[7,15,0,16,0,12,0,0,5,1,0,0,0],"split_type":[0,0,0,0,0,0,0,0,0,0,0,0,0],"sum_hessian":[1.28055E3,8.4797064E2,4.3257938E2,6.0570746E2,2.4226323E2,5.851553E2,2.0552147E1,5.542361E2,3.0919195E1,7.8475323E0,2.3071663E1,3.3293204E0,4.518212E0],"tree_param":{"num_deleted":"0","num_feature":"17","num_nodes":"13","size_leaf_vector":"1"}},{"base_weights":[-2.0664334E-1,-1.5043402E-1,4.8817182E-1,7.428652E-2,1.5272635E-1,3.282469E-1,-1.2569073E-1,1.322725E-1,-8.8332765E-2],"categories":[],"categories_nodes":[],"categories_segments":[],"categories_sizes":[],"default_left":[0,0,0,0,0,0,0,0,0],"id":81,"left_children":[1,-1,3,5,-1,7,-1,-1,-1],"loss_changes":[2.1800493E2,0E0,2.70813E0,2.1956348E0,0E0,9.300144E-1,0E0,0E0,0E0],"parents":[2147483647,0,0,2,2,3,3,5,5],"right_children":[2,-1,4,6,-1,8,-1,-1,-1],"split_conditions":[1E0,-1.5043402E-1,1E0,7.1428575E-2,1.5272635E-1,5.555556E-1,-1.2569073E-1,1.322725E-1,-8.8332765E-2],"split_indices":[12,0,7,5,0,3,0,0,0],"split_type":[0,0,0,0,0,0,0,0,0],"sum_hessian":[1.0621061E3,7.4590436E2,3.1620172E2,1.5429733E1,3.00772E2,1.0406377E1,5.0233564E0,9.059243E0,1.3471339E0],"tree_param":{"num_deleted":"0","num_feature":"17","num_nodes":"9","size_leaf_vector":"1"}},{"base_weights":[-2.1532641E-1,-1.5043668E-1,1.5272477E-1],"categories":[],"categories_nodes":[],"categories_segments":[],"categories_sizes":[],"default_left":[0,0,0],"id":82,"left_children":[1,-1,-1],"loss_changes":[2.1832082E2,0E0,0E0],"parents":[2147483647,0,0],"right_children":[2,-1,-1],"split_conditions":[1E0,-1.5043668E-1,1.5272477E-1],"split_indices":[16,0,0],"split_type":[0,0,0],"sum_hessian":[1.0510613E3,7.5367883E2,2.973825E2],"tree_param":{"num_deleted":"0","num_feature":"17","num_nodes":"3","size_leaf_vector":"1"}},{"base_weights":[-2.1103768E-1,-1.5024424E-1,-4.6350084E-2,-3.3258355E-1,1.5257666E-1,-4.3982825E-1,1.5028033E-1,-4.8484424E-1,1.4522098E-1,-4.9449244E-1,1.2148438E-1,-1.5023118E-1,1.0868201E-1],"categories":[],"categories_nodes":[],"categories_segments":[],"categories_sizes":[],"default_left":[0,0,0,0,0,0,0,0,0,0,0,0,0],"id":83,"left_children":[1,-1,3,5,-1,7,-1,9,-1,11,-1,-1,-1],"loss_changes":[5.047503E1,0E0,1.0751621E2,4.012872E1,0E0,1.6708107E1,0E0,3.44693E0,0E0,2.1962433E0,0E0,0E0,0E0],"parents":[2147483647,0,0,2,2,3,3,5,5,7,7,9,9],"right_children":[2,-1,4,6,-1,8,-1,10,-1,12,-1,-1,-1],"split_conditions":[1E0,-1.5024424E-1,1E0,1E0,1.5257666E-1,1E0,1.5028033E-1,1E0,1.4522098E-1,1E0,1.2148438E-1,-1.5023118E-1,1.0868201E-1],"split_indices":[7,0,15,11,0,14,0,10,0,13,0,0,0],"split_type":[0,0,0,0,0,0,0,0,0,0,0,0,0],"sum_hessian":[1.0571625E3,3.8235248E2,6.7481E2,4.4545056E2,2.2935947E2,3.950887E2,5.036183E1,3.7718594E2,1.7902775E1,3.735794E2,3.6065428E0,3.7127432E2,2.3050892E0],"tree_param":{"num_deleted":"0","num_feature":"17","num_nodes":"13","size_leaf_vector":"1"}},{"base_weights":[1.8062912E-1,-1.5008885E-1,4.6912846E-1,1.52213E-1,-1.4630185E-1],"categories":[],"categories_nodes":[],"categories_segments":[],"categories_sizes":[],"default_left":[0,0,0,0,0],"id":84,"left_children":[1,-1,3,-1,-1],"loss_changes":[2.5858316E2,0E0,3.407126E1,0E0,0E0],"parents":[2147483647,0,0,2,2],"right_children":[2,-1,4,-1,-1],"split_conditions":[1E0,-1.5008885E-1,1E0,1.52213E-1,-1.4630185E-1],"split_indices":[15,0,7,0,0],"split_type":[0,0,0,0,0],"sum_hessian":[1.3141088E3,3.9085837E2,9.232504E2,8.882137E2,3.50367E1],"tree_param":{"num_deleted":"0","num_feature":"17","num_nodes":"5","size_leaf_vector":"1"}},{"base_weights":[2.1408871E-1,-1.5002476E-1,4.3970445E-1,-1.4838916E-1,1.5222992E-1],"categories":[],"categories_nodes":[],"categories_segments":[],"categories_sizes":[],"default_left":[0,0,0,0,0],"id":85,"left_children":[1,-1,3,-1,-1],"loss_changes":[2.2501172E2,0E0,6.737445E1,0E0,0E0],"parents":[2147483647,0,0,2,2],"right_children":[2,-1,4,-1,-1],"split_conditions":[1E0,-1.5002476E-1,1E0,-1.4838916E-1,1.5222992E-1],"split_indices":[9,0,7,0,0],"split_type":[0,0,0,0,0],"sum_hessian":[1.3941111E3,3.343938E2,1.0597173E3,7.119934E1,9.8851794E2],"tree_param":{"num_deleted":"0","num_feature":"17","num_nodes":"5","size_leaf_vector":"1"}},{"base_weights":[-4.123018E-2,1.9223648E-1,-1.5000609E-1,4.6743017E-1,-1.4964056E-1,5.014088E-1,-1.4129871E-1,1.5202105E-1,3.9213032E-1,1.180337E-1,1.442501E-1,-1.0224508E-1,1.06028296E-1],"categories":[],"categories_nodes":[],"categories_segments":[],"categories_sizes":[],"default_left":[0,0,0,0,0,0,0,0,0,0,0,0,0],"id":86,"left_children":[1,3,-1,5,-1,7,-1,-1,9,11,-1,-1,-1],"loss_changes":[1.0247345E2,1.20833145E2,0E0,1.4714783E1,0E0,5.671692E-2,0E0,0E0,5.465951E-1,9.1894263E-1,0E0,0E0,0E0],"parents":[2147483647,0,0,1,1,3,3,5,5,8,8,9,9],"right_children":[2,4,-1,6,-1,8,-1,-1,10,12,-1,-1,-1],"split_conditions":[1E0,1E0,-1.5000609E-1,1E0,-1.4964056E-1,1E0,-1.4129871E-1,1.5202105E-1,7.1428575E-2,6.1207E2,1.442501E-1,-1.0224508E-1,1.06028296E-1],"split_indices":[7,15,0,16,0,12,0,0,5,1,0,0,0],"split_type":[0,0,0,0,0,0,0,0,0,0,0,0,0],"sum_hessian":[9.547952E2,6.331713E2,3.2162387E2,4.5306848E2,1.8010286E2,4.3768637E2,1.538212E1,4.138707E2,2.3815662E1,6.392682E0,1.7422981E1,2.0156813E0,4.377001E0],"tree_param":{"num_deleted":"0","num_feature":"17","num_nodes":"13","size_leaf_vector":"1"}},{"base_weights":[-2.0587586E-1,-1.5020062E-1,4.8357752E-1,6.765105E-2,1.5171315E-1,3.0295008E-1,-1.1950537E-1,1.2546016E-1,-8.2551286E-2],"categories":[],"categories_nodes":[],"categories_segments":[],"categories_sizes":[],"default_left":[0,0,0,0,0,0,0,0,0],"id":87,"left_children":[1,-1,3,5,-1,7,-1,-1,-1],"loss_changes":[1.6125165E2,0E0,2.1547089E0,1.5645738E0,0E0,7.359271E-1,0E0,0E0,0E0],"parents":[2147483647,0,0,2,2,3,3,5,5],"right_children":[2,-1,4,6,-1,8,-1,-1,-1],"split_conditions":[1E0,-1.5020062E-1,1E0,7.1428575E-2,1.5171315E-1,5.555556E-1,-1.1950537E-1,1.2546016E-1,-8.2551286E-2],"split_indices":[12,0,7,5,0,3,0,0,0],"split_type":[0,0,0,0,0,0,0,0,0],"sum_hessian":[7.911908E2,5.5441205E2,2.3677875E2,1.2168215E1,2.2461053E2,8.318062E0,3.8501527E0,7.166097E0,1.151965E0],"tree_param":{"num_deleted":"0","num_feature":"17","num_nodes":"9","size_leaf_vector":"1"}},{"base_weights":[-2.1463022E-1,-1.5020397E-1,1.5170999E-1],"categories":[],"categories_nodes":[],"categories_segments":[],"categories_sizes":[],"default_left":[0,0,0],"id":88,"left_children":[1,-1,-1],"loss_changes":[1.6168158E2,0E0,0E0],"parents":[2147483647,0,0],"right_children":[2,-1,-1],"split_conditions":[1E0,-1.5020397E-1,1.5170999E-1],"split_indices":[16,0,0],"split_type":[0,0,0],"sum_hessian":[7.8244196E2,5.602618E2,2.2218015E2],"tree_param":{"num_deleted":"0","num_feature":"17","num_nodes":"3","size_leaf_vector":"1"}},{"base_weights":[-2.1000652E-1,-1.4994535E-1,-4.5599833E-2,-3.307494E-1,1.51512E-1,-4.3792912E-1,1.4847839E-1,-4.8319498E-1,1.4194274E-1,-4.9317357E-1,1.1334489E-1,-1.4992833E-1,9.9514276E-2],"categories":[],"categories_nodes":[],"categories_segments":[],"categories_sizes":[],"default_left":[0,0,0,0,0,0,0,0,0,0,0,0,0],"id":89,"left_children":[1,-1,3,5,-1,7,-1,9,-1,11,-1,-1,-1],"loss_changes":[3.754332E1,0E0,7.9326294E1,2.9663986E1,0E0,1.2396679E1,0E0,2.6055756E0,0E0,1.6807175E0,0E0,0E0,0E0],"parents":[2147483647,0,0,2,2,3,3,5,5,7,7,9,9],"right_children":[2,-1,4,6,-1,8,-1,10,-1,12,-1,-1,-1],"split_conditions":[1E0,-1.4994535E-1,1E0,1E0,1.51512E-1,1E0,1.4847839E-1,1E0,1.4194274E-1,1E0,1.1334489E-1,-1.4992833E-1,9.9514276E-2],"split_indices":[7,0,15,11,0,14,0,10,0,13,0,0,0],"split_type":[0,0,0,0,0,0,0,0,0,0,0,0,0],"sum_hessian":[7.874269E2,2.8427502E2,5.0315182E2,3.3175262E2,1.713992E2,2.9405188E2,3.770075E1,2.805811E2,1.3470804E1,2.777889E2,2.7921863E0,2.7597906E2,1.8098173E0],"tree_param":{"num_deleted":"0","num_feature":"17","num_nodes":"13","size_leaf_vector":"1"}},{"base_weights":[1.7984363E-1,-1.4983518E-1,4.669379E-1,1.5153357E-1,-1.448158E-1],"categories":[],"categories_nodes":[],"categories_segments":[],"categories_sizes":[],"default_left":[0,0,0,0,0],"id":90,"left_children":[1,-1,3,-1,-1],"loss_changes":[1.9127286E2,0E0,2.522464E1,0E0,0E0],"parents":[2147483647,0,0,2,2],"right_children":[2,-1,4,-1,-1],"split_conditions":[1E0,-1.4983518E-1,1E0,1.5153357E-1,-1.448158E-1],"split_indices":[15,0,7,0,0],"split_type":[0,0,0,0,0],"sum_hessian":[9.785825E2,2.9049713E2,6.880854E2,6.6194495E2,2.6140482E1],"tree_param":{"num_deleted":"0","num_feature":"17","num_nodes":"5","size_leaf_vector":"1"}},{"base_weights":[2.1314588E-1,-1.497491E-1,4.3774515E-1,-1.4756647E-1,1.5155622E-1],"categories":[],"categories_nodes":[],"categories_segments":[],"categories_sizes":[],"default_left":[0,0,0,0,0],"id":91,"left_children":[1,-1,3,-1,-1],"loss_changes":[1.664719E2,0E0,4.9816483E1,0E0,0E0],"parents":[2147483647,0,0,2,2],"right_children":[2,-1,4,-1,-1],"split_conditions":[1E0,-1.497491E-1,1E0,-1.4756647E-1,1.5155622E-1],"split_indices":[9,0,7,0,0],"split_type":[0,0,0,0,0],"sum_hessian":[1.0381863E3,2.4858485E2,7.8960144E2,5.298299E1,7.3661847E2],"tree_param":{"num_deleted":"0","num_feature":"17","num_nodes":"5","size_leaf_vector":"1"}},{"base_weights":[-4.0978413E-2,1.913972E-1,-1.4972425E-1,4.6438345E-1,-1.4923462E-1,4.9833193E-1,-1.3836412E-1,1.5127583E-1,3.784148E-1,1.0923612E-1,1.4118351E-1,-9.579184E-2,9.9638894E-2],"categories":[],"categories_nodes":[],"categories_segments":[],"categories_sizes":[],"default_left":[0,0,0,0,0,0,0,0,0,0,0,0,0],"id":92,"left_children":[1,3,-1,5,-1,7,-1,-1,9,11,-1,-1,-1],"loss_changes":[7.5929695E1,8.924353E1,0E0,1.0898636E1,0E0,4.206848E-2,0E0,0E0,4.310329E-1,7.0417875E-1,0E0,0E0,0E0],"parents":[2147483647,0,0,1,1,3,3,5,5,8,8,9,9],"right_children":[2,4,-1,6,-1,8,-1,-1,10,12,-1,-1,-1],"split_conditions":[1E0,1E0,-1.4972425E-1,1E0,-1.4923462E-1,1E0,-1.3836412E-1,1.5127583E-1,7.1428575E-2,1.30388E3,1.4118351E-1,-9.579184E-2,9.9638894E-2],"split_indices":[7,15,0,16,0,12,0,0,5,2,0,0,0],"split_type":[0,0,0,0,0,0,0,0,0,0,0,0,0],"sum_hessian":[7.1138025E2,4.7235638E2,2.3902385E2,3.3852603E2,1.3383035E2,3.2699435E2,1.1531692E1,3.0855475E2,1.8439589E1,5.2618527E0,1.3177735E1,1.6523812E0,3.6094718E0],"tree_param":{"num_deleted":"0","num_feature":"17","num_nodes":"13","size_leaf_vector":"1"}},{"base_weights":[-2.0512486E-1,-1.499856E-1,4.7932765E-1,6.251489E-2,1.5086554E-1,2.8021827E-1,-1.1255263E-1,1.19273596E-1,-7.579527E-2],"categories":[],"categories_nodes":[],"categories_segments":[],"categories_sizes":[],"default_left":[0,0,0,0,0,0,0,0,0],"id":93,"left_children":[1,-1,3,5,-1,7,-1,-1,-1],"loss_changes":[1.1929877E2,0E0,1.7177162E0,1.1219774E0,0E0,5.819347E-1,0E0,0E0,0E0],"parents":[2147483647,0,0,2,2,3,3,5,5],"right_children":[2,-1,4,6,-1,8,-1,-1,-1],"split_conditions":[1E0,-1.499856E-1,1E0,7.1428575E-2,1.5086554E-1,6.3879333E2,-1.1255263E-1,1.19273596E-1,-7.579527E-2],"split_indices":[12,0,7,5,0,1,0,0,0],"split_type":[0,0,0,0,0,0,0,0,0],"sum_hessian":[5.889999E2,4.1186084E2,1.7713904E2,9.671446E0,1.6746759E2,6.699134E0,2.9723117E0,5.6980686E0,1.001065E0],"tree_param":{"num_deleted":"0","num_feature":"17","num_nodes":"9","size_leaf_vector":"1"}},{"base_weights":[-2.1399862E-1,-1.4998995E-1,1.5086044E-1],"categories":[],"categories_nodes":[],"categories_segments":[],"categories_sizes":[],"default_left":[0,0,0],"id":94,"left_children":[1,-1,-1],"loss_changes":[1.19772766E2,0E0,0E0],"parents":[2147483647,0,0],"right_children":[2,-1,-1],"split_conditions":[1E0,-1.4998995E-1,1.5086044E-1],"split_indices":[16,0,0],"split_type":[0,0,0],"sum_hessian":[5.8202856E2,4.1627386E2,1.6575473E2],"tree_param":{"num_deleted":"0","num_feature":"17","num_nodes":"3","size_leaf_vector":"1"}},{"base_weights":[-2.0894955E-1,-1.4964257E-1,-4.4713818E-2,-3.287296E-1,1.5059611E-1,-4.358271E-1,1.465944E-1,-4.8140138E-1,1.3822356E-1,-4.917773E-1,1.0477069E-1,-1.496201E-1,9.0291776E-2],"categories":[],"categories_nodes":[],"categories_segments":[],"categories_sizes":[],"default_left":[0,0,0,0,0,0,0,0,0,0,0,0,0],"id":95,"left_children":[1,-1,3,5,-1,7,-1,9,-1,11,-1,-1,-1],"loss_changes":[2.7929323E1,0E0,5.853051E1,2.1921095E1,0E0,9.202267E0,0E0,1.9785538E0,0E0,1.2942276E0,0E0,0E0,0E0],"parents":[2147483647,0,0,2,2,3,3,5,5,7,7,9,9],"right_children":[2,-1,4,6,-1,8,-1,10,-1,12,-1,-1,-1],"split_conditions":[1E0,-1.4964257E-1,1E0,1E0,1.5059611E-1,1E0,1.465944E-1,1E0,1.3822356E-1,1E0,1.0477069E-1,-1.496201E-1,9.0291776E-2],"split_indices":[7,0,15,11,0,14,0,10,0,13,0,0,0],"split_type":[0,0,0,0,0,0,0,0,0,0,0,0,0],"sum_hessian":[5.861548E2,2.1126205E2,3.748927E2,2.469821E2,1.2791061E2,2.1878273E2,2.8199371E1,2.0864026E2,1.0142472E1,2.064691E2,2.1711597E0,2.0504076E2,1.4283457E0],"tree_param":{"num_deleted":"0","num_feature":"17","num_nodes":"13","size_leaf_vector":"1"}},{"base_weights":[1.7912658E-1,-1.4956775E-1,4.651237E-1,1.509976E-1,-1.4294434E-1],"categories":[],"categories_nodes":[],"categories_segments":[],"categories_sizes":[],"default_left":[0,0,0,0,0],"id":96,"left_children":[1,-1,3,-1,-1],"loss_changes":[1.4154915E2,0E0,1.8702179E1,0E0,0E0],"parents":[2147483647,0,0,2,2],"right_children":[2,-1,4,-1,-1],"split_conditions":[1E0,-1.4956775E-1,1E0,1.509976E-1,-1.4294434E-1],"split_indices":[15,0,7,0,0],"split_type":[0,0,0,0,0],"sum_hessian":[7.2813025E2,2.158704E2,5.122598E2,4.927347E2,1.9525139E1],"tree_param":{"num_deleted":"0","num_feature":"17","num_nodes":"5","size_leaf_vector":"1"}},{"base_weights":[2.1229647E-1,-1.4945227E-1,4.3614438E-1,-1.4654566E-1,1.5102802E-1],"categories":[],"categories_nodes":[],"categories_segments":[],"categories_sizes":[],"default_left":[0,0,0,0,0],"id":97,"left_children":[1,-1,3,-1,-1],"loss_changes":[1.2322745E2,0E0,3.6869057E1,0E0,0E0],"parents":[2147483647,0,0,2,2],"right_children":[2,-1,4,-1,-1],"split_conditions":[1E0,-1.4945227E-1,1E0,-1.4654566E-1,1.5102802E-1],"split_indices":[9,0,7,0,0],"split_type":[0,0,0,0,0],"sum_hessian":[7.7246704E2,1.8477724E2,5.876898E2,3.9438915E1,5.482509E2],"tree_param":{"num_deleted":"0","num_feature":"17","num_nodes":"5","size_leaf_vector":"1"}},{"base_weights":[-4.0711485E-2,1.9063964E-1,-1.4941905E-1,4.6150383E-1,-1.4876331E-1,4.9552572E-1,-1.3472715E-1,1.5065181E-1,3.6343935E-1,1.0040606E-1,1.3765834E-1,-8.8308915E-2,9.2840716E-2],"categories":[],"categories_nodes":[],"categories_segments":[],"categories_sizes":[],"default_left":[0,0,0,0,0,0,0,0,0,0,0,0,0],"id":98,"left_children":[1,3,-1,5,-1,7,-1,-1,9,11,-1,-1,-1],"loss_changes":[5.626577E1,6.591899E1,0E0,8.086365E0,0E0,3.274536E-2,0E0,0E0,3.3960438E-1,5.343425E-1,0E0,0E0,0E0],"parents":[2147483647,0,0,1,1,3,3,5,5,8,8,9,9],"right_children":[2,4,-1,6,-1,8,-1,-1,10,12,-1,-1,-1],"split_conditions":[1E0,1E0,-1.4941905E-1,1E0,-1.4876331E-1,1E0,-1.3472715E-1,1.5065181E-1,7.1428575E-2,6.1207E2,1.3765834E-1,-8.8308915E-2,9.2840716E-2],"split_indices":[7,15,0,16,0,12,0,0,5,1,0,0,0],"split_type":[0,0,0,0,0,0,0,0,0,0,0,0,0],"sum_hessian":[5.298705E2,3.5226212E2,1.7760834E2,2.5283449E2,9.9427635E1,2.4416765E2,8.666838E0,2.2980148E2,1.4366165E1,4.370625E0,9.995541E0,1.3719639E0,2.9986613E0],"tree_param":{"num_deleted":"0","num_feature":"17","num_nodes":"13","size_leaf_vector":"1"}},{"base_weights":[-2.0436653E-1,-1.4976984E-1,4.749769E-1,5.6687593E-2,1.5010436E-1,2.569479E-1,-1.0497572E-1,1.2236423E-1,-4.651787E-2],"categories":[],"categories_nodes":[],"categories_segments":[],"categories_sizes":[],"default_left":[0,0,0,0,0,0,0,0,0],"id":99,"left_children":[1,-1,3,5,-1,7,-1,-1,-1],"loss_changes":[8.824999E1,0E0,1.3883705E0,8.0337E-1,0E0,4.6416634E-1,0E0,0E0,0E0],"parents":[2147483647,0,0,2,2,3,3,5,5],"right_children":[2,-1,4,6,-1,8,-1,-1,-1],"split_conditions":[1E0,-1.4976984E-1,1E0,7.1428575E-2,1.5010436E-1,6.1207E2,-1.0497572E-1,1.2236423E-1,-4.651787E-2],"split_indices":[12,0,7,5,0,1,0,0,0],"split_type":[0,0,0,0,0,0,0,0,0],"sum_hessian":[4.383713E2,3.0587332E2,1.3249797E2,7.7619286E0,1.2473604E2,5.447175E0,2.3147535E0,3.9940352E0,1.4531398E0],"tree_param":{"num_deleted":"0","num_feature":"17","num_nodes":"9","size_leaf_vector":"1"}},{"base_weights":[-2.1337385E-1,-1.4977558E-1,1.5009709E-1],"categories":[],"categories_nodes":[],"categories_segments":[],"categories_sizes":[],"default_left":[0,0,0],"id":100,"left_children":[1,-1,-1],"loss_changes":[8.875189E1,0E0,0E0],"parents":[2147483647,0,0],"right_children":[2,-1,-1],"split_conditions":[1E0,-1.4977558E-1,1.5009709E-1],"split_indices":[16,0,0],"split_type":[0,0,0],"sum_hessian":[4.3276913E2,3.0921194E2,1.235572E2],"tree_param":{"num_deleted":"0","num_feature":"17","num_nodes":"3","size_leaf_vector":"1"}},{"base_weights":[-2.0778558E-1,-1.4930928E-1,-4.363342E-2,-3.2638687E-1,1.4974472E-1,-4.3338454E-1,1.44483E-1,-4.7934717E-1,1.338877E-1,-4.902021E-1,9.588309E-2,-1.4927936E-1,8.118973E-2],"categories":[],"categories_nodes":[],"categories_segments":[],"categories_sizes":[],"default_left":[0,0,0,0,0,0,0,0,0,0,0,0,0],"id":101,"left_children":[1,-1,3,5,-1,7,-1,9,-1,11,-1,-1,-1],"loss_changes":[2.0786175E1,0E0,4.317592E1,1.619188E1,0E0,6.8360367E0,0E0,1.510746E0,0E0,1.0036507E0,0E0,0E0,0E0],"parents":[2147483647,0,0,2,2,3,3,5,5,7,7,9,9],"right_children":[2,-1,4,6,-1,8,-1,10,-1,12,-1,-1,-1],"split_conditions":[1E0,-1.4930928E-1,1E0,1E0,1.4974472E-1,1E0,1.44483E-1,1E0,1.338877E-1,1E0,9.588309E-2,-1.4927936E-1,8.118973E-2],"split_indices":[7,0,15,11,0,14,0,10,0,13,0,0,0],"split_type":[0,0,0,0,0,0,0,0,0,0,0,0,0],"sum_hessian":[4.3623532E2,1.5697214E2,2.7926318E2,1.8387517E2,9.5388016E1,1.6278258E2,2.109259E1,1.551321E2,7.6504817E0,1.5343394E2,1.6981596E0,1.522995E2,1.1344452E0],"tree_param":{"num_deleted":"0","num_feature":"17","num_nodes":"13","size_leaf_vector":"1"}},{"base_weights":[1.7842798E-1,-1.4926322E-1,4.6352035E-1,1.5055488E-1,-1.405764E-1],"categories":[],"categories_nodes":[],"categories_segments":[],"categories_sizes":[],"default_left":[0,0,0,0,0],"id":102,"left_children":[1,-1,3,-1,-1],"loss_changes":[1.0478819E2,0E0,1.38873825E1,0E0,0E0],"parents":[2147483647,0,0,2,2],"right_children":[2,-1,4,-1,-1],"split_conditions":[1E0,-1.4926322E-1,1E0,1.5055488E-1,-1.405764E-1],"split_indices":[15,0,7,0,0],"split_type":[0,0,0,0,0],"sum_hessian":[5.4155176E2,1.604261E2,3.8112567E2,3.6651575E2,1.4609916E1],"tree_param":{"num_deleted":"0","num_feature":"17","num_nodes":"5","size_leaf_vector":"1"}},{"base_weights":[2.1147253E-1,-1.4910862E-1,4.3475428E-1,-1.4525034E-1,1.5059574E-1],"categories":[],"categories_nodes":[],"categories_segments":[],"categories_sizes":[],"default_left":[0,0,0,0,0],"id":103,"left_children":[1,-1,3,-1,-1],"loss_changes":[9.125516E1,0E0,2.7310066E1,0E0,0E0],"parents":[2147483647,0,0,2,2],"right_children":[2,-1,4,-1,-1],"split_conditions":[1E0,-1.4910862E-1,1E0,-1.4525034E-1,1.5059574E-1],"split_indices":[9,0,7,0,0],"split_type":[0,0,0,0,0],"sum_hessian":[5.74485E2,1.3736917E2,4.3711578E2,2.9377796E1,4.0773798E2],"tree_param":{"num_deleted":"0","num_feature":"17","num_nodes":"5","size_leaf_vector":"1"}},{"base_weights":[-4.0485106E-2,1.8977739E-1,-1.4906397E-1,4.583765E-1,-1.481867E-1,4.9256596E-1,-1.302742E-1,1.5009132E-1,3.442867E-1,-5.076814E-3,4.0840146E-1,5.3462442E-2,1.3313168E-1],"categories":[],"categories_nodes":[],"categories_segments":[],"categories_sizes":[],"default_left":[0,0,0,0,0,0,0,0,0,0,0,0,0],"id":104,"left_children":[1,3,-1,5,-1,7,-1,-1,9,-1,11,-1,-1],"loss_changes":[4.168352E1,4.866617E1,0E0,6.0089455E0,0E0,3.8139343E-2,0E0,0E0,2.9178667E-1,0E0,6.297946E-3,0E0,0E0],"parents":[2147483647,0,0,1,1,3,3,5,5,8,8,10,10],"right_children":[2,4,-1,6,-1,8,-1,-1,10,-1,12,-1,-1],"split_conditions":[1E0,1E0,-1.4906397E-1,1E0,-1.481867E-1,1E0,-1.302742E-1,1.5009132E-1,3.3333333E0,-5.076814E-3,7.1428575E-2,5.3462442E-2,1.3313168E-1],"split_indices":[7,15,0,16,0,12,0,0,4,0,5,0,0],"split_type":[0,0,0,0,0,0,0,0,0,0,0,0,0],"sum_hessian":[3.9474643E2,2.627611E2,1.3198532E2,1.8888766E2,7.3873436E1,1.823514E2,6.5362754E0,1.7105046E2,1.1300934E1,1.8144951E0,9.486439E0,2.0677562E0,7.4186826E0],"tree_param":{"num_deleted":"0","num_feature":"17","num_nodes":"13","size_leaf_vector":"1"}},{"base_weights":[-2.0348017E-1,-1.4953426E-1,4.704284E-1,5.3284913E-2,1.4936069E-1,2.3740481E-1,-9.699417E-2,1.16376564E-1,-4.0444084E-2],"categories":[],"categories_nodes":[],"categories_segments":[],"categories_sizes":[],"default_left":[0,0,0,0,0,0,0,0,0],"id":105,"left_children":[1,-1,3,5,-1,7,-1,-1,-1],"loss_changes":[6.529596E1,0E0,1.119957E0,5.8306247E-1,0E0,3.5936004E-1,0E0,0E0,0E0],"parents":[2147483647,0,0,2,2,3,3,5,5],"right_children":[2,-1,4,6,-1,8,-1,-1,-1],"split_conditions":[1E0,-1.4953426E-1,1E0,7.1428575E-2,1.4936069E-1,1.30388E3,-9.699417E-2,1.16376564E-1,-4.0444084E-2],"split_indices":[12,0,7,5,0,2,0,0,0],"split_type":[0,0,0,0,0,0,0,0,0],"sum_hessian":[3.2630228E2,2.2714299E2,9.915929E1,6.3018613E0,9.285743E1,4.4807982E0,1.8210629E0,3.1605513E0,1.3202472E0],"tree_param":{"num_deleted":"0","num_feature":"17","num_nodes":"9","size_leaf_vector":"1"}},{"base_weights":[-2.1269771E-1,-1.495419E-1,1.4935124E-1],"categories":[],"categories_nodes":[],"categories_segments":[],"categories_sizes":[],"default_left":[0,0,0],"id":106,"left_children":[1,-1,-1],"loss_changes":[6.5783966E1,0E0,0E0],"parents":[2147483647,0,0],"right_children":[2,-1,-1],"split_conditions":[1E0,-1.495419E-1,1.4935124E-1],"split_indices":[16,0,0],"split_type":[0,0,0],"sum_hessian":[3.2175162E2,2.296753E2,9.207632E1],"tree_param":{"num_deleted":"0","num_feature":"17","num_nodes":"3","size_leaf_vector":"1"}},{"base_weights":[-2.064291E-1,-1.489167E-1,-4.2290676E-2,-3.2357693E-1,1.4888258E-1,-4.3045476E-1,1.419998E-1,-4.769091E-1,1.2879433E-1,-1.4650168E-1,8.687844E-2],"categories":[],"categories_nodes":[],"categories_segments":[],"categories_sizes":[],"default_left":[0,0,0,0,0,0,0,0,0,0,0],"id":107,"left_children":[1,-1,3,5,-1,7,-1,9,-1,-1,-1],"loss_changes":[1.5480667E1,0E0,3.1833069E1,1.195285E1,0E0,5.083679E0,0E0,1.1609173E0,0E0,0E0,0E0],"parents":[2147483647,0,0,2,2,3,3,5,5,7,7],"right_children":[2,-1,4,6,-1,8,-1,10,-1,-1,-1],"split_conditions":[1E0,-1.489167E-1,1E0,1E0,1.4888258E-1,1E0,1.419998E-1,1E0,1.2879433E-1,-1.4650168E-1,8.687844E-2],"split_indices":[7,0,15,11,0,14,0,10,0,0,0],"split_type":[0,0,0,0,0,0,0,0,0,0,0],"sum_hessian":[3.2470923E2,1.1663776E2,2.0807146E2,1.3694565E2,7.112581E1,1.2115654E2,1.5789112E1,1.15368355E2,5.7881837E0,1.1403088E2,1.3374777E0],"tree_param":{"num_deleted":"0","num_feature":"17","num_nodes":"11","size_leaf_vector":"1"}},{"base_weights":[1.775962E-1,-1.488963E-1,4.6198425E-1,1.5016466E-1,-1.3759427E-1],"categories":[],"categories_nodes":[],"categories_segments":[],"categories_sizes":[],"default_left":[0,0,0,0,0],"id":108,"left_children":[1,-1,3,-1,-1],"loss_changes":[7.762028E1,0E0,1.0330051E1,0E0,0E0],"parents":[2147483647,0,0,2,2],"right_children":[2,-1,4,-1,-1],"split_conditions":[1E0,-1.488963E-1,1E0,1.5016466E-1,-1.3759427E-1],"split_indices":[15,0,7,0,0],"split_type":[0,0,0,0,0],"sum_hessian":[4.0280573E2,1.19316055E2,2.834897E2,2.7252988E2,1.0959781E1],"tree_param":{"num_deleted":"0","num_feature":"17","num_nodes":"5","size_leaf_vector":"1"}},{"base_weights":[2.106118E-1,-1.4869015E-1,4.3348023E-1,-1.4359094E-1,1.5022004E-1],"categories":[],"categories_nodes":[],"categories_segments":[],"categories_sizes":[],"default_left":[0,0,0,0,0],"id":109,"left_children":[1,-1,3,-1,-1],"loss_changes":[6.76426E1,0E0,2.02473E1,0E0,0E0],"parents":[2147483647,0,0,2,2],"right_children":[2,-1,4,-1,-1],"split_conditions":[1E0,-1.4869015E-1,1E0,-1.4359094E-1,1.5022004E-1],"split_indices":[9,0,7,0,0],"split_type":[0,0,0,0,0],"sum_hessian":[4.2738513E2,1.02224144E2,3.25161E2,2.190872E1,3.032523E2],"tree_param":{"num_deleted":"0","num_feature":"17","num_nodes":"5","size_leaf_vector":"1"}},{"base_weights":[-4.018567E-2,1.8875547E-1,-1.4862968E-1,4.5444146E-1,-1.4745739E-1,4.8883688E-1,-1.249264E-1,1.4954393E-1,3.1923777E-1,7.053629E-2,1.2883234E-1,-6.22488E-2,9.595793E-2],"categories":[],"categories_nodes":[],"categories_segments":[],"categories_sizes":[],"default_left":[0,0,0,0,0,0,0,0,0,0,0,0,0],"id":110,"left_children":[1,3,-1,5,-1,7,-1,-1,9,11,-1,-1,-1],"loss_changes":[3.0890617E1,3.589014E1,0E0,4.4699135E0,0E0,6.5704346E-2,0E0,0E0,2.4864233E-1,3.6593458E-1,0E0,0E0,0E0],"parents":[2147483647,0,0,1,1,3,3,5,5,8,8,9,9],"right_children":[2,4,-1,6,-1,8,-1,-1,10,12,-1,-1,-1],"split_conditions":[1E0,1E0,-1.4862968E-1,1E0,-1.4745739E-1,1E0,-1.249264E-1,1.4954393E-1,7.1428575E-2,5.555556E-1,1.2883234E-1,-6.22488E-2,9.595793E-2],"split_indices":[7,15,0,16,0,12,0,0,5,3,0,0,0],"split_type":[0,0,0,0,0,0,0,0,0,0,0,0,0],"sum_hessian":[2.9448764E2,1.9633644E2,9.81512E1,1.4143172E2,5.490472E1,1.3648001E2,4.9517126E0,1.27302826E2,9.177185E0,3.3214822E0,5.855703E0,1.6496471E0,1.6718351E0],"tree_param":{"num_deleted":"0","num_feature":"17","num_nodes":"13","size_leaf_vector":"1"}},{"base_weights":[-2.0221809E-1,-1.4925854E-1,4.6463752E-1,5.1089644E-2,1.4857098E-1,2.2918607E-1,-9.170392E-2,9.120233E-2,7.4715E-4],"categories":[],"categories_nodes":[],"categories_segments":[],"categories_sizes":[],"default_left":[0,0,0,0,0,0,0,0,0],"id":111,"left_children":[1,-1,3,5,-1,7,-1,-1,-1],"loss_changes":[4.832181E1,0E0,9.296875E-1,4.7126698E-1,0E0,8.0376655E-2,0E0,0E0,0E0],"parents":[2147483647,0,0,2,2,3,3,5,5],"right_children":[2,-1,4,6,-1,8,-1,-1,-1],"split_conditions":[1E0,-1.4925854E-1,1E0,5.555556E-1,1.4857098E-1,8.333333E0,-9.170392E-2,9.120233E-2,7.4715E-4],"split_indices":[12,0,7,3,0,4,0,0,0],"split_type":[0,0,0,0,0,0,0,0,0],"sum_hessian":[2.4320248E2,1.6873416E2,7.446833E1,5.3143454E0,6.9153984E1,3.7833395E0,1.5310056E0,2.5880911E0,1.1952485E0],"tree_param":{"num_deleted":"0","num_feature":"17","num_nodes":"9","size_leaf_vector":"1"}},{"base_weights":[-2.1191292E-1,-1.4926901E-1,1.4855942E-1],"categories":[],"categories_nodes":[],"categories_segments":[],"categories_sizes":[],"default_left":[0,0,0],"id":112,"left_children":[1,-1,-1],"loss_changes":[4.8790993E1,0E0,0E0],"parents":[2147483647,0,0],"right_children":[2,-1,-1],"split_conditions":[1E0,-1.4926901E-1,1.4855942E-1],"split_indices":[16,0,0],"split_type":[0,0,0],"sum_hessian":[2.3933578E2,1.70682E2,6.865378E1],"tree_param":{"num_deleted":"0","num_feature":"17","num_nodes":"3","size_leaf_vector":"1"}},{"base_weights":[-2.0454688E-1,-1.4843208E-1,-4.0581606E-2,-3.1908464E-1,1.4793724E-1,-4.2525452E-1,1.3900074E-1,-4.7204554E-1,1.2285555E-1,-1.4522478E-1,7.798409E-2],"categories":[],"categories_nodes":[],"categories_segments":[],"categories_sizes":[],"default_left":[0,0,0,0,0,0,0,0,0,0,0],"id":113,"left_children":[1,-1,3,5,-1,7,-1,9,-1,-1,-1],"loss_changes":[1.1553798E1,0E0,2.3419657E1,8.790205E0,0E0,3.771473E0,0E0,8.9424133E-1,0E0,0E0,0E0],"parents":[2147483647,0,0,2,2,3,3,5,5,7,7],"right_children":[2,-1,4,6,-1,8,-1,10,-1,-1,-1],"split_conditions":[1E0,-1.4843208E-1,1E0,1E0,1.4793724E-1,1E0,1.3900074E-1,1E0,1.2285555E-1,-1.4522478E-1,7.798409E-2],"split_indices":[7,0,15,11,0,14,0,10,0,0,0],"split_type":[0,0,0,0,0,0,0,0,0,0,0],"sum_hessian":[2.4221461E2,8.671219E1,1.5550243E2,1.02445526E2,5.3056896E1,9.0607155E1,1.1838375E1,8.6209435E1,4.39772E0,8.514792E1,1.0615108E0],"tree_param":{"num_deleted":"0","num_feature":"17","num_nodes":"11","size_leaf_vector":"1"}},{"base_weights":[1.7665663E-1,-1.4843608E-1,4.6038362E-1,1.4979161E-1,-1.3388303E-1],"categories":[],"categories_nodes":[],"categories_segments":[],"categories_sizes":[],"default_left":[0,0,0,0,0],"id":114,"left_children":[1,-1,3,-1,-1],"loss_changes":[5.751055E1,0E0,7.700081E0,0E0,0E0],"parents":[2147483647,0,0,2,2],"right_children":[2,-1,4,-1,-1],"split_conditions":[1E0,-1.4843608E-1,1E0,1.4979161E-1,-1.3388303E-1],"split_indices":[15,0,7,0,0],"split_type":[0,0,0,0,0],"sum_hessian":[2.9968634E2,8.879885E1,2.108875E2,2.0263782E2,8.24968E0],"tree_param":{"num_deleted":"0","num_feature":"17","num_nodes":"5","size_leaf_vector":"1"}},{"base_weights":[2.0966156E-1,-1.4816205E-1,4.3218687E-1,-1.414646E-1,1.4986636E-1],"categories":[],"categories_nodes":[],"categories_segments":[],"categories_sizes":[],"default_left":[0,0,0,0,0],"id":115,"left_children":[1,-1,3,-1,-1],"loss_changes":[5.0162285E1,0E0,1.5025078E1,0E0,0E0],"parents":[2147483647,0,0,2,2],"right_children":[2,-1,4,-1,-1],"split_conditions":[1E0,-1.4816205E-1,1E0,-1.414646E-1,1.4986636E-1],"split_indices":[9,0,7,0,0],"split_type":[0,0,0,0,0],"sum_hessian":[3.1805106E2,7.613225E1,2.419188E2,1.6366253E1,2.2555254E2],"tree_param":{"num_deleted":"0","num_feature":"17","num_nodes":"5","size_leaf_vector":"1"}},{"base_weights":[-3.9797623E-2,1.8780947E-1,-1.4808027E-1,4.5047104E-1,-1.4651799E-1,4.8522827E-1,-1.1866309E-1,1.4896184E-1,2.9925337E-1,5.990859E-2,1.2357519E-1,-6.0636196E-2,8.9356564E-2],"categories":[],"categories_nodes":[],"categories_segments":[],"categories_sizes":[],"default_left":[0,0,0,0,0,0,0,0,0,0,0,0,0],"id":116,"left_children":[1,3,-1,5,-1,7,-1,-1,9,11,-1,-1,-1],"loss_changes":[2.2904453E1,2.6472542E1,0E0,3.3375874E0,0E0,6.8510056E-2,0E0,0E0,2.0274866E-1,3.01466E-1,0E0,0E0,0E0],"parents":[2147483647,0,0,1,1,3,3,5,5,8,8,9,9],"right_children":[2,4,-1,6,-1,8,-1,-1,10,12,-1,-1,-1],"split_conditions":[1E0,1E0,-1.4808027E-1,1E0,-1.4651799E-1,1E0,-1.1866309E-1,1.4896184E-1,7.1428575E-2,6.3879333E2,1.2357519E-1,-6.0636196E-2,8.9356564E-2],"split_indices":[7,15,0,16,0,12,0,0,5,1,0,0,0],"split_type":[0,0,0,0,0,0,0,0,0,0,0,0,0],"sum_hessian":[2.1985397E2,1.4680794E2,7.304604E1,1.0597661E2,4.083132E1,1.0220416E2,3.7724485E0,9.47702E1,7.4339595E0,2.8695638E0,4.564396E0,1.4373274E0,1.4322364E0],"tree_param":{"num_deleted":"0","num_feature":"17","num_nodes":"13","size_leaf_vector":"1"}},{"base_weights":[-2.0087601E-1,-1.4891896E-1,4.5737764E-1,4.325469E-2,1.4766878E-1,2.0398566E-1,-8.419291E-2,8.0768555E-2,1.6448755E-3],"categories":[],"categories_nodes":[],"categories_segments":[],"categories_sizes":[],"default_left":[0,0,0,0,0,0,0,0,0],"id":117,"left_children":[1,-1,3,5,-1,7,-1,-1,-1],"loss_changes":[3.571813E1,0E0,8.021116E-1,3.448751E-1,0E0,5.38449E-2,0E0,0E0,0E0],"parents":[2147483647,0,0,2,2,3,3,5,5],"right_children":[2,-1,4,6,-1,8,-1,-1,-1],"split_conditions":[1E0,-1.4891896E-1,1E0,5.555556E-1,1.4766878E-1,8.333333E0,-8.419291E-2,8.0768555E-2,1.6448755E-3],"split_indices":[12,0,7,3,0,4,0,0,0],"split_type":[0,0,0,0,0,0,0,0,0],"sum_hessian":[1.8144772E2,1.2539707E2,5.6050655E1,4.52489E0,5.1525764E1,3.2716048E0,1.2532852E0,2.1941476E0,1.0774573E0],"tree_param":{"num_deleted":"0","num_feature":"17","num_nodes":"9","size_leaf_vector":"1"}},{"base_weights":[-2.109473E-1,-1.489333E-1,1.4765626E-1],"categories":[],"categories_nodes":[],"categories_segments":[],"categories_sizes":[],"default_left":[0,0,0],"id":118,"left_children":[1,-1,-1],"loss_changes":[3.620299E1,0E0,0E0],"parents":[2147483647,0,0],"right_children":[2,-1,-1],"split_conditions":[1E0,-1.489333E-1,1.4765626E-1],"split_indices":[16,0,0],