{"learner":{"attributes":{"scikit_learn":"{\"_estimator_type\": \"classifier\"}"},"feature_names":["SBol_Vend","Prom_Pagado","Sum_Pagado","%_Promo","Prom_Horas_Ant","Venta_Ant","Recencia","PAGO_EFECTIVO","PAGO_TARJETA","DESC_ADULTO","DESC_DISCAPACIDAD","DESC_ESTUDIANTE","DESC_MENOR","DESC_PETFRIENDLY","DESC_PROFESOR","DESC_PROMOCION ESPECIAL","DESC_SENECTUD"],"feature_types":["float","float","float","float","float","float","int","int","int","int","int","int","int","int","int","int","int"],"gradient_booster":{"model":{"gbtree_model_param":{"num_parallel_tree":"1","num_trees":"600"},"iteration_indptr":[0,6,12,18,24,30,36,42,48,54,60,66,72,78,84,90,96,102,108,114,120,126,132,138,144,150,156,162,168,174,180,186,192,198,204,210,216,222,228,234,240,246,252,258,264,270,276,282,288,294,300,306,312,318,324,330,336,342,348,354,360,366,372,378,384,390,396,402,408,414,420,426,432,438,444,450,456,462,468,474,480,486,492,498,504,510,516,522,528,534,540,546,552,558,564,570,576,582,588,594,600],"tree_info":[0,1,2,3,4,5,0,1,2,3,4,5,0,1,2,3,4,5,0,1,2,3,4,5,0,1,2,3,4,5,0,1,2,3,4,5,0,1,2,3,4,5,0,1,2,3,4,5,0,1,2,3,4,5,0,1,2,3,4,5,0,1,2,3,4,5,0,1,2,3,4,5,0,1,2,3,4,5,0,1,2,3,4,5,0,1,2,3,4,5,0,1,2,3,4,5,0,1,2,3,4,5,0,1,2,3,4,5,0,1,2,3,4,5,0,1,2,3,4,5,0,1,2,3,4,5,0,1,2,3,4,5,0,1,2,3,4,5,0,1,2,3,4,5,0,1,2,3,4,5,0,1,2,3,4,5,0,1,2,3,4,5,0,1,2,3,4,5,0,1,2,3,4,5,0,1,2,3,4,5,0,1,2,3,4,5,0,1,2,3,4,5,0,1,2,3,4,5,0,1,2,3,4,5,0,1,2,3,4,5,0,1,2,3,4,5,0,1,2,3,4,5,0,1,2,3,4,5,0,1,2,3,4,5,0,1,2,3,4,5,0,1,2,3,4,5,0,1,2,3,4,5,0,1,2,3,4,5,0,1,2,3,4,5,0,1,2,3,4,5,0,1,2,3,4,5,0,1,2,3,4,5,0,1,2,3,4,5,0,1,2,3,4,5,0,1,2,3,4,5,0,1,2,3,4,5,0,1,2,3,4,5,0,1,2,3,4,5,0,1,2,3,4,5,0,1,2,3,4,5,0,1,2,3,4,5,0,1,2,3,4,5,0,1,2,3,4,5,0,1,2,3,4,5,0,1,2,3,4,5,0,1,2,3,4,5,0,1,2,3,4,5,0,1,2,3,4,5,0,1,2,3,4,5,0,1,2,3,4,5,0,1,2,3,4,5,0,1,2,3,4,5,0,1,2,3,4,5,0,1,2,3,4,5,0,1,2,3,4,5,0,1,2,3,4,5,0,1,2,3,4,5,0,1,2,3,4,5,0,1,2,3,4,5,0,1,2,3,4,5,0,1,2,3,4,5,0,1,2,3,4,5,0,1,2,3,4,5,0,1,2,3,4,5,0,1,2,3,4,5,0,1,2,3,4,5,0,1,2,3,4,5,0,1,2,3,4,5,0,1,2,3,4,5,0,1,2,3,4,5,0,1,2,3,4,5,0,1,2,3,4,5,0,1,2,3,4,5,0,1,2,3,4,5,0,1,2,3,4,5,0,1,2,3,4,5,0,1,2,3,4,5,0,1,2,3,4,5,0,1,2,3,4,5,0,1,2,3,4,5,0,1,2,3,4,5,0,1,2,3,4,5,0,1,2,3,4,5,0,1,2,3,4,5,0,1,2,3,4,5],"trees":[{"base_weights":[-3.3236346E-1,-1.799928E-1,8.9955115E-1],"categories":[],"categories_nodes":[],"categories_segments":[],"categories_sizes":[],"default_left":[0,0,0],"id":0,"left_children":[1,-1,-1],"loss_changes":[2.4033844E4,0E0,0E0],"parents":[2147483647,0,0],"right_children":[2,-1,-1],"split_conditions":[1E0,-1.799928E-1,8.9955115E-1],"split_indices":[16,0,0],"split_type":[0,0,0],"sum_hessian":[2.6959445E4,2.495528E4,2.0041667E3],"tree_param":{"num_deleted":"0","num_feature":"17","num_nodes":"3","size_leaf_vector":"1"}},{"base_weights":[3.6206123E-1,1.3359599E0,-5.986296E-1,-1.7996135E-1,2.3684027E0,-7.6923095E-2,-5.9958667E-1,-2.9492226E-1,2.9001205E0,-1.7027028E-1,9.9999994E-1,-4.1935483E-1,-1.7998669E-1,-5.4962116E-1,2.726202E0,2.9944634E0,2.1072679E0,-1.3561645E-1,5.6938773E-1,-1.7268623E-1,1.578947E-1,-5.8449703E-1,8.359683E-1,8.9146465E-1,-1.5949367E-1,8.997228E-1,-1.6071428E-1,-5.610034E-1,8.984576E-1,-1.4318182E-1,9.9999994E-1,-1.7850114E-1,3.1898734E-1,2.4939758E-1,-1.7749056E-1,3.976744E-1,4.736842E-2],"categories":[],"categories_nodes":[],"categories_segments":[],"categories_sizes":[],"default_left":[0,0,0,0,0,0,0,0,0,0,0,0,0,0,0,0,0,0,0,0,0,0,0,0,0,0,0,0,0,0,0,0,0,0,0,0,0],"id":1,"left_children":[1,3,5,-1,7,9,11,13,15,-1,17,19,-1,21,23,25,27,-1,-1,-1,29,31,-1,-1,-1,-1,-1,33,-1,-1,35,-1,-1,-1,-1,-1,-1],"loss_changes":[2.522541E4,2.6760148E4,6.730957E0,0E0,1.2366324E4,1.43056135E1,6.4941406E-1,1.1203607E3,5.381406E2,0E0,1.1941012E1,2.8872256E0,0E0,1.5775403E2,9.207861E1,1.0749219E2,1.8427957E3,0E0,0E0,0E0,4.4294257E0,2.3637665E1,0E0,0E0,0E0,0E0,0E0,8.803757E0,0E0,0E0,7.503059E-1,0E0,0E0,0E0,0E0,0E0,0E0],"parents":[2147483647,0,0,1,1,2,2,4,4,5,5,6,6,7,7,8,8,10,10,11,11,13,13,14,14,15,15,16,16,20,20,21,21,27,27,30,30],"right_children":[2,4,6,-1,8,10,12,14,16,-1,18,20,-1,22,24,26,28,-1,-1,-1,30,32,-1,-1,-1,-1,-1,34,-1,-1,36,-1,-1,-1,-1,-1,-1],"split_conditions":[5.3846157E-1,1E0,5.714286E-1,-1.7996135E-1,7.2931E2,1E0,5.882353E-1,1E0,1.6666667E-1,-1.7027028E-1,1E0,1.02414E3,-1.7998669E-1,1E0,7.1428575E-2,1E0,1E0,-1.3561645E-1,5.6938773E-1,-1.7268623E-1,1E0,1E0,8.359683E-1,8.9146465E-1,-1.5949367E-1,8.997228E-1,-1.6071428E-1,1.9148937E-1,8.984576E-1,-1.4318182E-1,1.05388E3,-1.7850114E-1,3.1898734E-1,2.4939758E-1,-1.7749056E-1,3.976744E-1,4.736842E-2],"split_indices":[5,7,5,0,1,9,5,11,5,0,7,1,0,9,5,12,9,0,0,0,7,15,0,0,0,0,0,5,0,0,1,0,0,0,0,0,0],"split_type":[0,0,0,0,0,0,0,0,0,0,0,0,0,0,0,0,0,0,0,0,0,0,0,0,0,0,0,0,0,0,0,0,0,0,0,0,0],"sum_hessian":[2.6959445E4,1.3387501E4,1.3571945E4,4.656667E3,8.730834E3,2.5000002E1,1.3546945E4,1.4530557E3,7.2777783E3,1.75E1,7.5000005E0,3.0000002E1,1.3516945E4,1.3408334E3,1.1222223E2,6.501389E3,7.763889E2,3.0555558E0,4.4444447E0,2.3611113E1,6.3888893E0,1.3277778E3,1.3055556E1,1.0444445E2,7.777778E0,6.4930557E3,8.333334E0,1.938889E2,5.825E2,3.888889E0,2.5E0,1.3200001E3,7.777778E0,3.6111112E0,1.9027779E2,1.388889E0,1.1111112E0],"tree_param":{"num_deleted":"0","num_feature":"17","num_nodes":"37","size_leaf_vector":"1"}},{"base_weights":[4.7122115E-1,-1.7998967E-1,2.418212E0,8.998878E-1,-1.7988363E-1],"categories":[],"categories_nodes":[],"categories_segments":[],"categories_sizes":[],"default_left":[0,0,0,0,0],"id":2,"left_children":[1,-1,3,-1,-1],"loss_changes":[5.6229895E4,0E0,1.6791227E4,0E0,0E0],"parents":[2147483647,0,0,2,2],"right_children":[2,-1,4,-1,-1],"split_conditions":[1E0,-1.7998967E-1,1E0,8.998878E-1,-1.7988363E-1],"split_indices":[15,0,7,0,0],"split_type":[0,0,0,0,0],"sum_hessian":[2.6959445E4,1.7391668E4,9.567778E3,8.0222227E3,1.5455557E3],"tree_param":{"num_deleted":"0","num_feature":"17","num_nodes":"5","size_leaf_vector":"1"}},{"base_weights":[-3.227939E-1,-1.7999272E-1,2.727104E0,2.262443E-1,8.995558E-1,1.912844E0,-1.7879465E-1,8.825431E-1,-1.718593E-1],"categories":[],"categories_nodes":[],"categories_segments":[],"categories_sizes":[],"default_left":[0,0,0,0,0,0,0,0,0],"id":3,"left_children":[1,-1,3,5,-1,7,-1,-1,-1],"loss_changes":[2.2793355E4,0E0,1.5240312E3,3.0761548E2,0E0,1.8754556E2,0E0,0E0,0E0],"parents":[2147483647,0,0,2,2,3,3,5,5],"right_children":[2,-1,4,6,-1,8,-1,-1,-1],"split_conditions":[1E0,-1.7999272E-1,1E0,7.1428575E-2,8.995558E-1,6.35775E2,-1.7879465E-1,8.825431E-1,-1.718593E-1],"split_indices":[12,0,7,5,0,1,0,0,0],"split_type":[0,0,0,0,0,0,0,0,0],"sum_hessian":[2.6959445E4,2.4714168E4,2.2452778E3,2.2000002E2,2.0252778E3,7.166667E1,1.4833334E2,5.0555557E1,2.1111113E1],"tree_param":{"num_deleted":"0","num_feature":"17","num_nodes":"9","size_leaf_vector":"1"}},{"base_weights":[-7.8510106E-2,5.117335E-1,-1.7998743E-1,2.4403515E0,-1.7997757E-1,2.9532452E0,-1.7973074E-1,8.997591E-1,2.1628957E0,4.5412838E-1,8.9397323E-1,-1.7650862E-1,8.592965E-1],"categories":[],"categories_nodes":[],"categories_segments":[],"categories_sizes":[],"default_left":[0,0,0,0,0,0,0,0,0,0,0,0,0],"id":4,"left_children":[1,3,-1,5,-1,7,-1,-1,9,11,-1,-1,-1],"loss_changes":[8.298229E3,2.711524E4,0E0,7.2107188E3,0E0,1.3721875E2,0E0,0E0,3.0718213E2,1.8426776E2,0E0,0E0,0E0],"parents":[2147483647,0,0,1,1,3,3,5,5,8,8,9,9],"right_children":[2,4,-1,6,-1,8,-1,-1,10,12,-1,-1,-1],"split_conditions":[1E0,1E0,-1.7998743E-1,1E0,-1.7997757E-1,1E0,-1.7973074E-1,8.997591E-1,7.1428575E-2,6.35775E2,8.9397323E-1,-1.7650862E-1,8.592965E-1],"split_indices":[7,15,0,16,0,12,0,0,5,1,0,0,0],"split_type":[0,0,0,0,0,0,0,0,0,0,0,0,0],"sum_hessian":[2.6959445E4,1.2645557E4,1.431389E4,4.6233335E3,8.0222227E3,3.9558335E3,6.6750006E2,3.7358335E3,2.2000002E2,7.166667E1,1.4833334E2,5.0555557E1,2.1111113E1],"tree_param":{"num_deleted":"0","num_feature":"17","num_nodes":"13","size_leaf_vector":"1"}},{"base_weights":[-9.96151E-2,-1.7998576E-1,3.4241733E-1,-5.1980567E-1,1.6923819E0,-5.992847E-1,1.6589181E-1,-8.975903E-2,2.9504695E0,-1.7997697E-1,-2.559727E-1,-5.052202E-1,8.9485383E-1,-4.0460604E-1,8.958064E-1,2.9759805E0,-1.7260274E-1,-1.6638654E-1,7.8082186E-1,-5.604395E-1,8.2735425E-1,-4.9729127E-1,8.840864E-1,2.9959743E0,-1.7055394E-1,8.4905654E-2,3.3157894E-1,-1.7640224E-1,7.243902E-1,-1.73891E-1,8.812282E-1,2.6470587E-1,8.9925617E-1],"categories":[],"categories_nodes":[],"categories_segments":[],"categories_sizes":[],"default_left":[0,0,0,0,0,0,0,0,0,0,0,0,0,0,0,0,0,0,0,0,0,0,0,0,0,0,0,0,0,0,0,0,0],"id":5,"left_children":[1,-1,3,5,7,9,11,13,15,-1,17,19,-1,21,-1,23,-1,-1,25,27,-1,29,-1,31,-1,-1,-1,-1,-1,-1,-1,-1,-1],"loss_changes":[5.9629224E3,0E0,1.6662988E4,4.7621436E2,1.2510251E4,1.5625E0,1.7184935E3,2.2381052E3,2.9590234E2,0E0,5.473276E0,1.3386119E2,0E0,6.5265356E2,0E0,2.3183984E2,0E0,0E0,3.421936E-1,6.071318E1,0E0,5.788867E2,0E0,7.90625E0,0E0,0E0,0E0,0E0,0E0,0E0,0E0,0E0,0E0],"parents":[2147483647,0,0,2,2,3,3,4,4,5,5,6,6,7,7,8,8,10,10,11,11,13,13,15,15,18,18,19,19,21,21,23,23],"right_children":[2,-1,4,6,8,10,12,14,16,-1,18,20,-1,22,-1,24,-1,-1,26,28,-1,30,-1,32,-1,-1,-1,-1,-1,-1,-1,-1,-1],"split_conditions":[1E0,-1.7998576E-1,5.555556E-1,1.9148937E-1,6.74354E2,1.6666667E-1,1E0,1E0,1E0,-1.7997697E-1,1E0,1E0,8.9485383E-1,1E0,8.958064E-1,1E0,-1.7260274E-1,-1.6638654E-1,7E0,1E0,8.2735425E-1,1E0,8.840864E-1,5.714286E-1,-1.7055394E-1,8.4905654E-2,3.3157894E-1,-1.7640224E-1,7.243902E-1,-1.73891E-1,8.812282E-1,2.6470587E-1,8.9925617E-1],"split_indices":[7,0,5,5,1,5,15,11,16,0,15,11,0,15,0,12,0,0,0,14,0,9,0,5,0,0,0,0,0,0,0,0,0],"split_type":[0,0,0,0,0,0,0,0,0,0,0,0,0,0,0,0,0,0,0,0,0,0,0,0,0,0,0,0,0,0,0,0,0],"sum_hessian":[2.6959445E4,1.2645557E4,1.431389E4,8.735278E3,5.5786113E3,7.828056E3,9.072223E2,2.308889E3,3.2697224E3,7.8127783E3,1.5277779E1,7.333334E2,1.738889E2,2.0952778E3,2.1361111E2,3.2463892E3,2.3333334E1,1.2222223E1,3.0555558E0,7.2194446E2,1.1388889E1,2.0397223E3,5.5555557E1,3.2283335E3,1.8055557E1,1.9444445E0,1.1111112E0,7.1611115E2,5.8333335E0,1.9927778E3,4.6944447E1,2.777778E0,3.2255557E3],"tree_param":{"num_deleted":"0","num_feature":"17","num_nodes":"33","size_leaf_vector":"1"}},{"base_weights":[-2.9253748E-1,-1.7160329E-1,4.0491152E-1],"categories":[],"categories_nodes":[],"categories_segments":[],"categories_sizes":[],"default_left":[0,0,0],"id":6,"left_children":[1,-1,-1],"loss_changes":[1.0622329E4,0E0,0E0],"parents":[2147483647,0,0],"right_children":[2,-1,-1],"split_conditions":[1E0,-1.7160329E-1,4.0491152E-1],"split_indices":[16,0,0],"split_type":[0,0,0],"sum_hessian":[2.3141508E4,1.9776617E4,3.3648923E3],"tree_param":{"num_deleted":"0","num_feature":"17","num_nodes":"3","size_leaf_vector":"1"}},{"base_weights":[2.6570332E-1,7.9462165E-1,-5.710972E-1,-1.7155863E-1,1.1739802E0,-3.0733964E-1,-1.7159471E-1,-2.5505063E-1,1.3234422E0,-1.650497E-1,1.1024292E-1,-5.14332E-1,1.2810849E0,1.3474582E0,1.0873631E0,-2.5629437E-1,8.1844926E-1,-5.5341583E-1,4.029578E-1,4.0457147E-1,-1.4937383E-1,1.3486888E0,-1.5091765E-1,-5.623542E-1,4.0493223E-1,2.811906E-1,-1.4927894E-1,-9.937726E-2,3.8968542E-1,-1.6978225E-1,2.2273175E-1,4.0469357E-1,-1.2632248E-1,-7.7162795E-2,-1.7062265E-1,-1.0099959E-1,1.854547E-1],"categories":[],"categories_nodes":[],"categories_segments":[],"categories_sizes":[],"default_left":[0,0,0,0,0,0,0,0,0,0,0,0,0,0,0,0,0,0,0,0,0,0,0,0,0,0,0,0,0,0,0,0,0,0,0,0,0],"id":7,"left_children":[1,3,5,-1,7,9,-1,11,13,-1,15,17,19,21,23,25,27,29,-1,-1,-1,31,-1,33,-1,35,-1,-1,-1,-1,-1,-1,-1,-1,-1,-1,-1],"loss_changes":[1.2284677E4,8.816496E3,2.3337402E0,0E0,2.8434297E3,3.9255638E0,0E0,5.029973E2,6.686133E1,0E0,4.064014E0,7.9136536E1,2.257315E1,2.5578125E1,4.8470874E2,1.5076363E0,3.3594475E0,1.7596466E1,0E0,0E0,0E0,6.171875E0,0E0,1.5413666E-1,0E0,1.0214819E0,0E0,0E0,0E0,0E0,0E0,0E0,0E0,0E0,0E0,0E0,0E0],"parents":[2147483647,0,0,1,1,2,2,4,4,5,5,7,7,8,8,10,10,11,11,12,12,13,13,14,14,15,15,16,16,17,17,21,21,23,23,25,25],"right_children":[2,4,6,-1,8,10,-1,12,14,-1,16,18,20,22,24,26,28,30,-1,-1,-1,32,-1,34,-1,36,-1,-1,-1,-1,-1,-1,-1,-1,-1,-1,-1],"split_conditions":[5.555556E-1,1E0,5.882353E-1,-1.7155863E-1,7.2931E2,1E0,-1.7159471E-1,1E0,1.9148937E-1,-1.650497E-1,1.00862E3,1E0,7.1428575E-2,1E0,1E0,5.714286E-1,1E0,1E0,4.029578E-1,4.0457147E-1,-1.4937383E-1,1E0,-1.5091765E-1,2.2222222E-1,4.0493223E-1,1E0,-1.4927894E-1,-9.937726E-2,3.8968542E-1,-1.6978225E-1,2.2273175E-1,4.0469357E-1,-1.2632248E-1,-7.7162795E-2,-1.7062265E-1,-1.0099959E-1,1.854547E-1],"split_indices":[5,7,5,0,1,9,0,11,5,0,1,9,5,12,9,5,7,15,0,0,0,16,0,5,0,3,0,0,0,0,0,0,0,0,0,0,0],"split_type":[0,0,0,0,0,0,0,0,0,0,0,0,0,0,0,0,0,0,0,0,0,0,0,0,0,0,0,0,0,0,0,0,0,0,0,0,0],"sum_hessian":[2.775374E4,1.7005246E4,1.0748493E4,3.695004E3,1.3310243E4,3.711554E1,1.0711378E4,1.2602336E3,1.205001E4,2.3267748E1,1.3847795E1,1.0788088E3,1.8142488E2,1.0933095E4,1.1169152E3,9.545539E0,4.302255E0,1.0572651E3,2.1543638E1,1.7502713E2,6.3977413E0,1.09261E4,6.994535E0,1.5312296E2,9.637922E2,2.906404E0,6.6391354E0,1.359634E0,2.9426212E0,1.0477019E3,9.563232E0,1.0924549E4,1.5508828E0,3.9858975E0,1.4913705E2,1.0260909E0,1.8803132E0],"tree_param":{"num_deleted":"0","num_feature":"17","num_nodes":"37","size_leaf_vector":"1"}},{"base_weights":[3.3672783E-1,-1.7160065E-1,1.1888111E0,4.0470108E-1,-1.7149648E-1],"categories":[],"categories_nodes":[],"categories_segments":[],"categories_sizes":[],"default_left":[0,0,0,0,0],"id":8,"left_children":[1,-1,3,-1,-1],"loss_changes":[2.2055225E4,0E0,4.146324E3,0E0,0E0],"parents":[2147483647,0,0,2,2],"right_children":[2,-1,4,-1,-1],"split_conditions":[1E0,-1.7160065E-1,1E0,4.0470108E-1,-1.7149648E-1],"split_indices":[15,0,7,0,0],"split_type":[0,0,0,0,0],"sum_hessian":[2.8481705E4,1.3782872E4,1.4698833E4,1.3473091E4,1.2257416E3],"tree_param":{"num_deleted":"0","num_feature":"17","num_nodes":"5","size_leaf_vector":"1"}},{"base_weights":[-2.8331113E-1,-1.7160244E-1,1.2784342E0,1.728685E-1,4.0490732E-1,1.0291275E0,-1.7023574E-1,4.045792E-1,-1.626081E-1],"categories":[],"categories_nodes":[],"categories_segments":[],"categories_sizes":[],"default_left":[0,0,0,0,0,0,0,0,0],"id":9,"left_children":[1,-1,3,5,-1,7,-1,-1,-1],"loss_changes":[1.046354E4,0E0,2.8500732E2,1.4028723E2,0E0,5.220253E1,0E0,0E0,0E0],"parents":[2147483647,0,0,2,2,3,3,5,5],"right_children":[2,-1,4,6,-1,8,-1,-1,-1],"split_conditions":[1E0,-1.7160244E-1,1E0,7.1428575E-2,4.0490732E-1,6.35775E2,-1.7023574E-1,4.045792E-1,-1.626081E-1],"split_indices":[12,0,7,5,0,1,0,0,0],"split_type":[0,0,0,0,0,0,0,0,0],"sum_hessian":[2.320476E4,1.9585E4,3.619759E3,2.1938467E2,3.4003743E3,1.01545975E2,1.1783871E2,8.4504875E1,1.70411E1],"tree_param":{"num_deleted":"0","num_feature":"17","num_nodes":"9","size_leaf_vector":"1"}},{"base_weights":[-6.446791E-2,3.6261794E-1,-1.7160244E-1,1.1959224E0,-1.7157349E-1,1.337636E0,-1.7128523E-1,4.0469933E-1,1.1142576E0,3.3298966E-1,4.046741E-1,-1.6768178E-1,4.0418524E-1],"categories":[],"categories_nodes":[],"categories_segments":[],"categories_sizes":[],"default_left":[0,0,0,0,0,0,0,0,0,0,0,0,0],"id":10,"left_children":[1,3,-1,5,-1,7,-1,-1,9,11,-1,-1,-1],"loss_changes":[5.3821406E3,1.0500983E4,0E0,1.7855781E3,0E0,1.5246094E1,0E0,0E0,5.9161255E1,6.9898926E1,0E0,0E0,0E0],"parents":[2147483647,0,0,1,1,3,3,5,5,8,8,9,9],"right_children":[2,4,-1,6,-1,8,-1,-1,10,12,-1,-1,-1],"split_conditions":[1E0,1E0,-1.7160244E-1,1E0,-1.7157349E-1,1E0,-1.7128523E-1,4.0469933E-1,7.1428575E-2,6.35775E2,4.046741E-1,-1.6768178E-1,4.0418524E-1],"split_indices":[7,15,0,16,0,12,0,0,5,1,0,0,0],"split_type":[0,0,0,0,0,0,0,0,0,0,0,0,0],"sum_hessian":[2.4827623E4,1.3482571E4,1.1345052E4,7.1271396E3,6.3554316E3,6.598171E3,5.289689E2,6.2740156E3,3.2415503E2,7.543144E1,2.487236E2,4.037567E1,3.5055775E1],"tree_param":{"num_deleted":"0","num_feature":"17","num_nodes":"13","size_leaf_vector":"1"}},{"base_weights":[-8.184662E-2,-1.7158543E-1,2.5302213E-1,-4.8360324E-1,9.4233054E-1,-1.7158002E-1,1.2523083E-1,-8.4036045E-2,1.3319355E0,-4.695032E-1,1.3444297E0,-3.807197E-1,4.046361E-1,1.3411866E0,-1.6551903E-1,-5.2973366E-1,4.0318513E-1,5.9792656E-1,4.054663E-1,-4.7436854E-1,1.2875724E0,1.3478802E0,-1.6321868E-1,-1.6779196E-1,3.7723097E-1,2.777449E-1,5.3861704E-2,-1.6444194E-1,4.0314034E-1,3.9719257E-1,-1.0970885E-1,1.3572836E-1,4.0463224E-1],"categories":[],"categories_nodes":[],"categories_segments":[],"categories_sizes":[],"default_left":[0,0,0,0,0,0,0,0,0,0,0,0,0,0,0,0,0,0,0,0,0,0,0,0,0,0,0,0,0,0,0,0,0],"id":11,"left_children":[1,-1,3,5,7,-1,9,11,13,15,17,19,-1,21,-1,23,-1,25,-1,27,29,31,-1,-1,-1,-1,-1,-1,-1,-1,-1,-1,-1],"loss_changes":[4.051289E3,0E0,7.4468145E3,3.813534E2,3.0296572E3,0E0,6.5256866E2,8.8706195E2,9.643848E1,6.679907E1,7.6104736E-1,2.7066888E2,0E0,6.969824E1,0E0,3.1691406E1,0E0,4.6245432E-1,0E0,2.2035999E2,6.0296783E0,3.7490234E0,0E0,0E0,0E0,0E0,0E0,0E0,0E0,0E0,0E0,0E0,0E0],"parents":[2147483647,0,0,2,2,3,3,4,4,6,6,7,7,8,8,9,9,10,10,11,11,13,13,15,15,17,17,19,19,20,20,21,21],"right_children":[2,-1,4,6,8,-1,10,12,14,16,18,20,-1,22,-1,24,-1,26,-1,28,30,32,-1,-1,-1,-1,-1,-1,-1,-1,-1,-1,-1],"split_conditions":[1E0,-1.7158543E-1,5.3846157E-1,1.6666667E-1,6.35775E2,-1.7158002E-1,1E0,1E0,1E0,1E0,1.9148937E-1,2.2222223E0,4.046361E-1,1E0,-1.6551903E-1,1E0,4.0318513E-1,9.372697E2,4.054663E-1,1E0,1E0,5.6E-1,-1.6321868E-1,-1.6779196E-1,3.7723097E-1,2.777449E-1,5.3861704E-2,-1.6444194E-1,4.0314034E-1,3.9719257E-1,-1.0970885E-1,1.3572836E-1,4.0463224E-1],"split_indices":[7,0,5,5,1,0,15,11,16,11,5,3,0,12,0,14,0,1,0,9,16,5,0,0,0,0,0,0,0,0,0,0,0],"split_type":[0,0,0,0,0,0,0,0,0,0,0,0,0,0,0,0,0,0,0,0,0,0,0,0,0,0,0,0,0,0,0,0,0],"sum_hessian":[2.4682926E4,1.0018871E4,1.4664055E4,7.088872E3,7.5751826E3,6.1907705E3,8.9810126E2,2.0845295E3,5.4906533E3,6.040542E2,2.940471E2,1.7275526E3,3.5697678E2,5.4641055E3,2.6547592E1,5.853217E2,1.8732475E1,3.582678E0,2.9046442E2,1.6364092E3,9.114346E1,5.445058E3,1.9047777E1,5.764697E2,8.851982E0,1.3286204E0,2.2540576E0,1.5732731E3,6.3136177E1,8.937473E1,1.768734E0,5.935331E0,5.4391226E3],"tree_param":{"num_deleted":"0","num_feature":"17","num_nodes":"33","size_leaf_vector":"1"}},{"base_weights":[-2.7010566E-1,-1.662429E-1,2.933319E-1],"categories":[],"categories_nodes":[],"categories_segments":[],"categories_sizes":[],"default_left":[0,0,0],"id":12,"left_children":[1,-1,-1],"loss_changes":[6.8944497E3,0E0,0E0],"parents":[2147483647,0,0],"right_children":[2,-1,-1],"split_conditions":[1E0,-1.662429E-1,2.933319E-1],"split_indices":[16,0,0],"split_type":[0,0,0],"sum_hessian":[1.9448922E4,1.5843289E4,3.6056323E3],"tree_param":{"num_deleted":"0","num_feature":"17","num_nodes":"3","size_leaf_vector":"1"}},{"base_weights":[2.2431684E-1,6.2061155E-1,-5.5305743E-1,-1.6618398E-1,8.7008256E-1,-2.6027375E-1,-1.6623415E-1,-2.3649037E-1,9.613753E-1,-1.5853344E-1,1.3870631E-1,-4.9767557E-1,9.3581814E-1,9.629881E-1,-1.5535504E-1,-2.1376754E-1,7.045375E-1,-5.3315073E-1,2.8858766E-1,2.9282224E-1,-1.4012137E-1,9.770392E-1,8.227159E-1,2.5210205E-1,-1.407428E-1,-9.014464E-2,3.099165E-1,-1.6400337E-1,1.6330011E-1,2.9315928E-1,-1.0589317E-1,-1.5030318E-1,2.9327664E-1,-9.3390115E-2,1.6805835E-1],"categories":[],"categories_nodes":[],"categories_segments":[],"categories_sizes":[],"default_left":[0,0,0,0,0,0,0,0,0,0,0,0,0,0,0,0,0,0,0,0,0,0,0,0,0,0,0,0,0,0,0,0,0,0,0],"id":13,"left_children":[1,3,5,-1,7,9,-1,11,13,-1,15,17,19,21,-1,23,25,27,-1,-1,-1,29,31,33,-1,-1,-1,-1,-1,-1,-1,-1,-1,-1,-1],"loss_changes":[7.8589204E3,4.95141E3,2.5200195E0,0E0,1.4081426E3,3.588319E0,0E0,3.2593222E2,3.121289E1,0E0,2.9422824E0,4.5558914E1,1.1413101E1,2.4545898E1,0E0,1.2356584E0,2.1611516E0,1.2685699E1,0E0,0E0,0E0,2.8046875E0,2.41854E2,8.645359E-1,0E0,0E0,0E0,0E0,0E0,0E0,0E0,0E0,0E0,0E0,0E0],"parents":[2147483647,0,0,1,1,2,2,4,4,5,5,7,7,8,8,10,10,11,11,12,12,13,13,15,15,16,16,17,17,21,21,22,22,23,23],"right_children":[2,4,6,-1,8,10,-1,12,14,-1,16,18,20,22,-1,24,26,28,-1,-1,-1,30,32,34,-1,-1,-1,-1,-1,-1,-1,-1,-1,-1,-1],"split_conditions":[5.555556E-1,1E0,5.882353E-1,-1.6618398E-1,7.16122E2,1E0,-1.6623415E-1,1E0,1E0,-1.5853344E-1,1.00862E3,1E0,7.1428575E-2,1.6666667E-1,-1.5535504E-1,5.714286E-1,1E0,1E0,2.8858766E-1,2.9282224E-1,-1.4012137E-1,1E0,1E0,3.6E1,-1.407428E-1,-9.014464E-2,3.099165E-1,-1.6400337E-1,1.6330011E-1,2.9315928E-1,-1.0589317E-1,-1.5030318E-1,2.9327664E-1,-9.3390115E-2,1.6805835E-1],"split_indices":[5,7,5,0,1,9,0,11,12,0,1,9,5,5,0,5,7,15,0,0,0,16,9,4,0,0,0,0,0,0,0,0,0,0,0],"split_type":[0,0,0,0,0,0,0,0,0,0,0,0,0,0,0,0,0,0,0,0,0,0,0,0,0,0,0,0,0,0,0,0,0,0,0],"sum_hessian":[2.550812E4,1.6895318E4,8.6128E3,2.9596223E3,1.3935697E4,3.185223E1,8.580947E3,1.0619573E3,1.2873739E4,1.885471E1,1.299752E1,8.689374E2,1.9301994E2,1.2860067E4,1.3672295E1,8.392055E0,4.605466E0,8.4893933E2,1.9998014E1,1.8793149E2,5.088462E0,1.1683734E4,1.1763325E3,2.975959E0,5.4160957E0,1.1555817E0,3.449884E0,8.389001E2,1.0039244E1,1.1682609E4,1.1251183E0,1.2297849E2,1.0533541E3,1.0483856E0,1.9275734E0],"tree_param":{"num_deleted":"0","num_feature":"17","num_nodes":"35","size_leaf_vector":"1"}},{"base_weights":[2.811687E-1,-1.6624086E-1,8.7950575E-1,2.9313388E-1,-1.6611652E-1],"categories":[],"categories_nodes":[],"categories_segments":[],"categories_sizes":[],"default_left":[0,0,0,0,0],"id":14,"left_children":[1,-1,3,-1,-1],"loss_changes":[1.3223741E4,0E0,2.1570918E3,0E0,0E0],"parents":[2147483647,0,0,2,2],"right_children":[2,-1,4,-1,-1],"split_conditions":[1E0,-1.6624086E-1,1E0,2.9313388E-1,-1.6611652E-1],"split_indices":[15,0,7,0,0],"split_type":[0,0,0,0,0],"sum_hessian":[2.6456416E4,1.1041738E4,1.5414679E4,1.4432125E4,9.8255334E2],"tree_param":{"num_deleted":"0","num_feature":"17","num_nodes":"5","size_leaf_vector":"1"}},{"base_weights":[-2.6115033E-1,-1.6624227E-1,9.348558E-1,1.4776103E-1,2.933621E-1,7.753098E-1,-1.6459098E-1,2.9267448E-1,-1.5564974E-1],"categories":[],"categories_nodes":[],"categories_segments":[],"categories_sizes":[],"default_left":[0,0,0,0,0,0,0,0,0],"id":15,"left_children":[1,-1,3,5,-1,7,-1,-1,-1],"loss_changes":[6.8455225E3,0E0,1.3001123E2,8.799739E1,0E0,2.7931587E1,0E0,0E0,0E0],"parents":[2147483647,0,0,2,2,3,3,5,5],"right_children":[2,-1,4,6,-1,8,-1,-1,-1],"split_conditions":[1E0,-1.6624227E-1,1E0,7.1428575E-2,2.933621E-1,6.35775E2,-1.6459098E-1,2.9267448E-1,-1.5564974E-1],"split_indices":[12,0,7,5,0,1,0,0,0],"split_type":[0,0,0,0,0,0,0,0,0],"sum_hessian":[1.95328E4,1.5689754E4,3.8430464E3,1.9938287E2,3.6436636E3,1.0481606E2,9.456681E1,9.098245E1,1.3833607E1],"tree_param":{"num_deleted":"0","num_feature":"17","num_nodes":"9","size_leaf_vector":"1"}},{"base_weights":[-5.7406176E-2,3.0175883E-1,-1.6624537E-1,8.839585E-1,-1.6620289E-1,9.702844E-1,-1.6585411E-1,2.9313216E-1,8.3189994E-1,2.7829784E-1,2.9298076E-1,-1.6155078E-1,2.91991E-1],"categories":[],"categories_nodes":[],"categories_segments":[],"categories_sizes":[],"default_left":[0,0,0,0,0,0,0,0,0,0,0,0,0],"id":16,"left_children":[1,3,-1,5,-1,7,-1,-1,9,11,-1,-1,-1],"loss_changes":[3.865147E3,6.264835E3,0E0,9.2868115E2,0E0,5.852051E0,0E0,0E0,2.6837982E1,4.112763E1,0E0,0E0,0E0],"parents":[2147483647,0,0,1,1,3,3,5,5,8,8,9,9],"right_children":[2,4,-1,6,-1,8,-1,-1,10,12,-1,-1,-1],"split_conditions":[1E0,1E0,-1.6624537E-1,1E0,-1.6620289E-1,1E0,-1.6585411E-1,2.9313216E-1,7.1428575E-2,6.35775E2,2.9298076E-1,-1.6155078E-1,2.91991E-1],"split_indices":[7,15,0,16,0,12,0,0,5,1,0,0,0],"split_type":[0,0,0,0,0,0,0,0,0,0,0,0,0],"sum_hessian":[2.1662053E4,1.2572247E4,9.089806E3,7.482018E3,5.0902285E3,7.0582695E3,4.237488E2,6.7208525E3,3.37417E2,7.052525E1,2.6689175E2,3.2525295E1,3.7999954E1],"tree_param":{"num_deleted":"0","num_feature":"17","num_nodes":"13","size_leaf_vector":"1"}},{"base_weights":[-7.274018E-2,-1.6621657E-1,2.1426232E-1,-5.4433364E-1,6.695191E-1,-1.6621305E-1,8.5346564E-4,-7.831847E-2,8.886674E-1,-1.6440335E-1,2.7570775E-1,-3.5512868E-1,2.933743E-1,1.679617E-1,9.6741015E-1,-4.4936526E-1,9.2957634E-1,9.2290294E-1,-5.5046594E-1,9.7288555E-1,-1.5889081E-1,-1.5663849E-1,2.822707E-1,7.085951E-2,2.9483896E-1,2.90839E-1,-1.506266E-1,-1.6586131E-1,-7.957112E-2,2.9301798E-1,-1.558777E-1],"categories":[],"categories_nodes":[],"categories_segments":[],"categories_sizes":[],"default_left":[0,0,0,0,0,0,0,0,0,0,0,0,0,0,0,0,0,0,0,0,0,0,0,0,0,0,0,0,0,0,0],"id":17,"left_children":[1,-1,3,5,7,-1,9,11,13,-1,-1,15,-1,17,19,21,23,25,27,29,-1,-1,-1,-1,-1,-1,-1,-1,-1,-1,-1],"loss_changes":[2.9678647E3,0E0,4.6486255E3,2.6725708E1,1.3786638E3,0E0,4.5526546E1,5.579954E2,3.690293E2,0E0,0E0,1.8346681E2,0E0,3.4870053E2,4.8586914E1,1.4305835E2,3.592865E0,2.1280914E1,7.9444885E-2,3.4006348E1,0E0,0E0,0E0,0E0,0E0,0E0,0E0,0E0,0E0,0E0,0E0],"parents":[2147483647,0,0,2,2,3,3,4,4,6,6,7,7,8,8,11,11,13,13,14,14,15,15,16,16,17,17,18,18,19,19],"right_children":[2,-1,4,6,8,-1,10,12,14,-1,-1,16,-1,18,20,22,24,26,28,30,-1,-1,-1,-1,-1,-1,-1,-1,-1,-1,-1],"split_conditions":[1E0,-1.6621657E-1,2.9166666E-1,1.6666667E-1,6.35775E2,-1.6621305E-1,1E0,1E0,5.6E-1,-1.6440335E-1,2.7570775E-1,2.2222223E0,2.933743E-1,1E0,1E0,1E0,1E0,1E0,5.3846157E-1,1E0,-1.5889081E-1,-1.5663849E-1,2.822707E-1,7.085951E-2,2.9483896E-1,2.90839E-1,-1.506266E-1,-1.6586131E-1,-7.957112E-2,2.9301798E-1,-1.558777E-1],"split_indices":[7,0,5,5,1,0,15,11,5,0,0,3,0,9,16,9,15,12,5,12,0,0,0,0,0,0,0,0,0,0,0],"split_type":[0,0,0,0,0,0,0,0,0,0,0,0,0,0,0,0,0,0,0,0,0,0,0,0,0,0,0,0,0,0,0],"sum_hessian":[2.1482824E4,8.024491E3,1.3458333E4,5.0474893E3,8.410844E3,4.9591494E3,8.8339615E1,1.9062977E3,6.5045464E3,5.5541313E1,3.2798306E1,1.5109755E3,3.9532227E2,6.409826E2,5.8635635E3,1.4083215E3,1.0265395E2,3.1241E2,3.2857263E2,5.842545E3,2.1018782E1,1.3388728E3,6.944873E1,7.705186E0,9.494877E1,3.028348E2,9.575182E0,3.248948E2,3.6778307E0,5.827892E3,1.4652847E1],"tree_param":{"num_deleted":"0","num_feature":"17","num_nodes":"31","size_leaf_vector":"1"}},{"base_weights":[-2.5448522E-1,-1.6221479E-1,2.4064164E-1],"categories":[],"categories_nodes":[],"categories_segments":[],"categories_sizes":[],"default_left":[0,0,0],"id":18,"left_children":[1,-1,-1],"loss_changes":[4.8092183E3,0E0,0E0],"parents":[2147483647,0,0],"right_children":[2,-1,-1],"split_conditions":[1E0,-1.6221479E-1,2.4064164E-1],"split_indices":[16,0,0],"split_type":[0,0,0],"sum_hessian":[1.5899055E4,1.2510541E4,3.388514E3],"tree_param":{"num_deleted":"0","num_feature":"17","num_nodes":"3","size_leaf_vector":"1"}},{"base_weights":[1.9953834E-1,5.2844965E-1,-5.3942174E-1,-1.6213654E-1,7.213532E-1,-2.1549614E-1,-1.6220611E-1,-2.2266878E-1,7.8940207E-1,-1.5294948E-1,1.6164516E-1,-4.8371628E-1,7.700233E-1,7.9072833E-1,-1.5016146E-1,-1.4214455E-1,6.516186E-1,-5.1562166E-1,2.3591392E-1,2.3987432E-1,-1.3095158E-1,8.011829E-1,6.8247944E-1,-2.9728616E-2,8.9867467E-1,-1.5940009E-1,1.2631075E-1,2.4040669E-1,-1.054282E-1,-1.579053E-1,2.4034055E-1,3.2121813E-1,8.8878654E-2],"categories":[],"categories_nodes":[],"categories_segments":[],"categories_sizes":[],"default_left":[0,0,0,0,0,0,0,0,0,0,0,0,0,0,0,0,0,0,0,0,0,0,0,0,0,0,0,0,0,0,0,0,0],"id":19,"left_children":[1,3,5,-1,7,9,-1,11,13,-1,15,17,19,21,-1,-1,23,25,-1,-1,-1,27,29,-1,31,-1,-1,-1,-1,-1,-1,-1,-1],"loss_changes":[5.369016E3,3.1522534E3,2.6722412E0,0E0,8.320371E2,3.2057226E0,0E0,2.2620232E2,2.1060059E1,0E0,4.3852396E0,2.839154E1,6.8337326E0,1.3109863E1,0E0,0E0,1.5382218E0,1.0147232E1,0E0,0E0,0E0,2.4711914E0,1.5382816E2,0E0,3.0240107E-1,0E0,0E0,0E0,0E0,0E0,0E0,0E0,0E0],"parents":[2147483647,0,0,1,1,2,2,4,4,5,5,7,7,8,8,10,10,11,11,12,12,13,13,16,16,17,17,21,21,22,22,24,24],"right_children":[2,4,6,-1,8,10,-1,12,14,-1,16,18,20,22,-1,-1,24,26,-1,-1,-1,28,30,-1,32,-1,-1,-1,-1,-1,-1,-1,-1],"split_conditions":[5.555556E-1,1E0,5.882353E-1,-1.6213654E-1,7.0517163E2,1E0,-1.6220611E-1,1E0,1E0,-1.5294948E-1,9.2672E2,1E0,7.1428575E-2,1.9148937E-1,-1.5016146E-1,-1.4214455E-1,1.32E2,1E0,2.3591392E-1,2.3987432E-1,-1.3095158E-1,1E0,1E0,-2.9728616E-2,1E1,-1.5940009E-1,1.2631075E-1,2.4040669E-1,-1.054282E-1,-1.579053E-1,2.4034055E-1,3.2121813E-1,8.8878654E-2],"split_indices":[5,7,5,0,1,7,0,11,12,0,1,9,5,5,0,0,6,15,0,0,0,16,9,0,0,0,0,0,0,0,0,0,0],"split_type":[0,0,0,0,0,0,0,0,0,0,0,0,0,0,0,0,0,0,0,0,0,0,0,0,0,0,0,0,0,0,0,0,0],"sum_hessian":[2.2087785E4,1.5284801E4,6.802984E3,2.3364443E3,1.2948356E4,2.7136402E1,6.7758477E3,8.704596E2,1.2077897E4,1.5043808E1,1.2092594E1,6.8962274E2,1.8083685E2,1.2065879E4,1.2018205E1,5.2790384E0,6.8135552E0,6.7330304E2,1.6319664E1,1.7684184E2,3.9950116E0,1.0997356E4,1.0685221E3,1.8353837E0,4.978172E0,6.6262067E2,1.0682383E1,1.0996014E4,1.342583E0,9.520141E1,9.733207E2,3.267544E0,1.7106278E0],"tree_param":{"num_deleted":"0","num_feature":"17","num_nodes":"33","size_leaf_vector":"1"}},{"base_weights":[2.4846427E-1,-1.6221386E-1,7.286411E-1,2.4041168E-1,-1.6205695E-1],"categories":[],"categories_nodes":[],"categories_segments":[],"categories_sizes":[],"default_left":[0,0,0,0,0],"id":20,"left_children":[1,-1,3,-1,-1],"loss_changes":[8.735137E3,0E0,1.322956E3,0E0,0E0],"parents":[2147483647,0,0,2,2],"right_children":[2,-1,4,-1,-1],"split_conditions":[1E0,-1.6221386E-1,1E0,2.4041168E-1,-1.6205695E-1],"split_indices":[15,0,7,0,0],"split_type":[0,0,0,0,0],"sum_hessian":[2.3049186E4,8.719101E3,1.4330086E4,1.3553546E4,7.765398E2],"tree_param":{"num_deleted":"0","num_feature":"17","num_nodes":"5","size_leaf_vector":"1"}},{"base_weights":[-2.4577777E-1,-1.6221419E-1,7.702007E-1,1.3214007E-1,2.4064614E-1,6.4646506E-1,-1.6016206E-1,2.3949724E-1,-1.494254E-1],"categories":[],"categories_nodes":[],"categories_segments":[],"categories_sizes":[],"default_left":[0,0,0,0,0,0,0,0,0],"id":21,"left_children":[1,-1,3,5,-1,7,-1,-1,-1],"loss_changes":[4.790672E3,0E0,7.3231445E1,5.951747E1,0E0,1.7417667E1,0E0,0E0,0E0],"parents":[2147483647,0,0,2,2,3,3,5,5],"right_children":[2,-1,4,6,-1,8,-1,-1,-1],"split_conditions":[1E0,-1.6221419E-1,1E0,7.1428575E-2,2.4064614E-1,6.35775E2,-1.6016206E-1,2.3949724E-1,-1.494254E-1],"split_indices":[12,0,7,5,0,1,0,0,0],"split_type":[0,0,0,0,0,0,0,0,0],"sum_hessian":[1.598523E4,1.2389155E4,3.5960752E3,1.7174205E2,3.424333E3,9.692311E1,7.481895E1,8.583678E1,1.1086339E1],"tree_param":{"num_deleted":"0","num_feature":"17","num_nodes":"9","size_leaf_vector":"1"}},{"base_weights":[-5.2863132E-2,2.6621166E-1,-1.6222155E-1,7.3201215E-1,-1.6216132E-1,7.962784E-1,-1.617286E-1,2.404062E-1,6.9168395E-1,2.4546404E-1,2.4009974E-1,-1.5644556E-1,2.3825558E-1],"categories":[],"categories_nodes":[],"categories_segments":[],"categories_sizes":[],"default_left":[0,0,0,0,0,0,0,0,0,0,0,0,0],"id":22,"left_children":[1,3,-1,5,-1,7,-1,-1,9,11,-1,-1,-1],"loss_changes":[2.8267185E3,4.1259883E3,0E0,5.6902515E2,0E0,2.963379E0,0E0,0E0,1.5024353E1,2.6892372E1,0E0,0E0,0E0],"parents":[2147483647,0,0,1,1,3,3,5,5,8,8,9,9],"right_children":[2,4,-1,6,-1,8,-1,-1,10,12,-1,-1,-1],"split_conditions":[1E0,1E0,-1.6222155E-1,1E0,-1.6216132E-1,1E0,-1.617286E-1,2.404062E-1,7.1428575E-2,6.35775E2,2.4009974E-1,-1.5644556E-1,2.3825558E-1],"split_indices":[7,15,0,16,0,12,0,0,5,1,0,0,0],"split_type":[0,0,0,0,0,0,0,0,0,0,0,0,0],"sum_hessian":[1.8156629E4,1.0977621E4,7.1790073E3,6.959463E3,4.018158E3,6.6248867E3,3.345761E2,6.3119336E3,3.12953E2,6.1917343E1,2.5103564E2,2.584431E1,3.6073032E1],"tree_param":{"num_deleted":"0","num_feature":"17","num_nodes":"13","size_leaf_vector":"1"}},{"base_weights":[-6.6678025E-2,-1.6217747E-1,1.9095822E-1,-5.3665966E-1,5.637022E-1,-1.6217493E-1,-5.4416675E-2,-6.9224425E-2,7.302656E-1,-1.56984E-1,6.023344E-1,-3.3200058E-1,2.4038841E-1,1.4334248E-1,7.939039E-1,2.3855345E-1,3.0195242E-1,-4.2676648E-1,7.609276E-1,7.561465E-1,-5.362578E-1,7.979687E-1,-1.5327595E-1,-1.3708721E-1,2.0417622E-1,-1.3893202E-1,8.162948E-1,2.3478101E-1,-1.02492005E-1,2.3764092E-1,-1.4535515E-1,-1.6173352E-1,-6.824323E-2,2.4024764E-1,-1.4971665E-1],"categories":[],"categories_nodes":[],"categories_segments":[],"categories_sizes":[],"default_left":[0,0,0,0,0,0,0,0,0,0,0,0,0,0,0,0,0,0,0,0,0,0,0,0,0,0,0,0,0,0,0,0,0,0,0],"id":23,"left_children":[1,-1,3,5,7,-1,9,11,13,-1,15,17,-1,19,21,-1,23,25,27,29,31,33,-1,-1,-1,-1,-1,-1,-1,-1,-1,-1,-1,-1,-1],"loss_changes":[2.1964734E3,0E0,3.1610972E3,7.440918E0,8.1252637E2,0E0,1.046922E1,3.6776428E2,2.2777515E2,0E0,5.8248234E-1,1.2820952E2,0E0,2.4947264E2,2.9601562E1,0E0,2.3696811E0,1.313054E2,2.6304703E0,1.4444397E1,1.2776947E-1,2.0732178E1,0E0,0E0,0E0,0E0,0E0,0E0,0E0,0E0,0E0,0E0,0E0,0E0,0E0],"parents":[2147483647,0,0,2,2,3,3,4,4,6,6,7,7,8,8,10,10,11,11,13,13,14,14,16,16,17,17,18,18,19,19,20,20,21,21],"right_children":[2,-1,4,6,8,-1,10,12,14,-1,16,18,-1,20,22,-1,24,26,28,30,32,34,-1,-1,-1,-1,-1,-1,-1,-1,-1,-1,-1,-1,-1],"split_conditions":[1E0,-1.6217747E-1,2.5E-1,1.6666667E-1,6.35775E2,-1.6217493E-1,1E0,1E0,5.6E-1,-1.56984E-1,5.76205E3,2.2222223E0,2.4038841E-1,1E0,1E0,2.3855345E-1,7E0,1E0,1E0,1E0,5.3846157E-1,1E0,-1.5327595E-1,-1.3708721E-1,2.0417622E-1,-1.3893202E-1,8.162948E-1,2.3478101E-1,-1.02492005E-1,2.3764092E-1,-1.4535515E-1,-1.6173352E-1,-6.824323E-2,2.4024764E-1,-1.4971665E-1],"split_indices":[7,0,5,5,1,0,15,11,5,0,2,3,0,9,16,0,0,10,16,12,5,12,0,0,0,0,0,0,0,0,0,0,0,0,0],"split_type":[0,0,0,0,0,0,0,0,0,0,0,0,0,0,0,0,0,0,0,0,0,0,0,0,0,0,0,0,0,0,0,0,0,0,0],"sum_hessian":[1.7987688E4,6.334493E3,1.1653193E4,3.9473323E3,7.705861E3,3.915357E3,3.19755E1,1.6055382E3,6.1003228E3,1.8775005E1,1.3200495E1,1.2337386E3,3.7179953E2,5.9705524E2,5.5032676E3,7.0361195E0,6.164376E0,1.1358597E3,9.7878914E1,3.138974E2,2.831578E2,5.4865645E3,1.6703293E1,1.9829775E0,4.181398E0,1.1237393E3,1.2120504E1,9.627638E1,1.6025268E0,3.0539972E2,8.497696E0,2.7982556E2,3.3322425E0,5.4748887E3,1.167593E1],"tree_param":{"num_deleted":"0","num_feature":"17","num_nodes":"35","size_leaf_vector":"1"}},{"base_weights":[-2.4309808E-1,-1.5915714E-1,2.1075065E-1],"categories":[],"categories_nodes":[],"categories_segments":[],"categories_sizes":[],"default_left":[0,0,0],"id":24,"left_children":[1,-1,-1],"loss_changes":[3.4540964E3,0E0,0E0],"parents":[2147483647,0,0],"right_children":[2,-1,-1],"split_conditions":[1E0,-1.5915714E-1,2.1075065E-1],"split_indices":[16,0,0],"split_type":[0,0,0],"sum_hessian":[1.2706334E4,9.744749E3,2.9615857E3],"tree_param":{"num_deleted":"0","num_feature":"17","num_nodes":"3","size_leaf_vector":"1"}},{"base_weights":[1.8338273E-1,4.727594E-1,-5.2893966E-1,-1.5906045E-1,6.352166E-1,-1.6735415E-1,-1.5914564E-1,6.7733204E-1,-1.5881905E-1,-1.4757246E-1,1.929542E-1,6.9255114E-1,-1.5818502E-1,-1.4417204E-1,6.0560685E-1,7.0215684E-1,5.948444E-1,2.40801E-1,-1.2663212E-1,2.9815792E-3,7.767194E-1,2.1052952E-1,5.597676E-1,-1.3997658E-1,2.1033576E-1,-1.4628143E-2,1.444835E-1,2.9536653E-1,3.3698097E-2],"categories":[],"categories_nodes":[],"categories_segments":[],"categories_sizes":[],"default_left":[0,0,0,0,0,0,0,0,0,0,0,0,0,0,0,0,0,0,0,0,0,0,0,0,0,0,0,0,0],"id":25,"left_children":[1,3,5,-1,7,9,-1,11,-1,-1,13,15,-1,17,19,21,23,25,-1,-1,27,-1,-1,-1,-1,-1,-1,-1,-1],"loss_changes":[3.7835547E3,2.1270603E3,2.875122E0,0E0,5.5133203E2,2.9054039E0,0E0,1.9912793E2,0E0,0E0,1.7716935E0,9.631348E0,0E0,9.0106505E-1,5.66772E-1,3.1323242E0,1.091749E2,2.8631204E-1,0E0,0E0,4.9222827E-1,0E0,0E0,0E0,0E0,0E0,0E0,0E0,0E0],"parents":[2147483647,0,0,1,1,2,2,4,4,5,5,7,7,10,10,11,11,13,13,14,14,15,15,16,16,17,17,20,20],"right_children":[2,4,6,-1,8,10,-1,12,-1,-1,14,16,-1,18,20,22,24,26,-1,-1,28,-1,-1,-1,-1,-1,-1,-1,-1],"split_conditions":[5.555556E-1,1E0,5.882353E-1,-1.5906045E-1,1E0,1E0,-1.5914564E-1,1E0,-1.5881905E-1,-1.4757246E-1,1.00862E3,1.6666667E-1,-1.5818502E-1,5.714286E-1,7E1,1E0,1E0,6.5E1,-1.2663212E-1,2.9815792E-3,3.2E1,2.1052952E-1,5.597676E-1,-1.3997658E-1,2.1033576E-1,-1.4628143E-2,1.444835E-1,2.9536653E-1,3.3698097E-2],"split_indices":[5,7,5,0,12,9,0,16,0,0,1,5,0,5,6,10,9,4,0,0,4,0,0,0,0,0,0,0,0],"split_type":[0,0,0,0,0,0,0,0,0,0,0,0,0,0,0,0,0,0,0,0,0,0,0,0,0,0,0,0,0],"sum_hessian":[1.835302E4,1.3051331E4,5.3016885E3,1.8190168E3,1.1232314E4,2.3033691E1,5.278655E3,1.0840705E4,3.9160947E2,1.1925946E1,1.1107746E1,1.0705872E4,1.3483253E2,6.471403E0,4.6363425E0,9.741939E3,9.639323E2,2.769258E0,3.7021453E0,1.2707508E0,3.365592E0,9.740264E3,1.6759468E0,8.742029E1,8.76512E2,1.619461E0,1.1497968E0,2.196571E0,1.1690209E0],"tree_param":{"num_deleted":"0","num_feature":"17","num_nodes":"29","size_leaf_vector":"1"}},{"base_weights":[2.2738528E-1,-1.5915513E-1,6.414687E-1,2.1044175E-1,-1.5895467E-1],"categories":[],"categories_nodes":[],"categories_segments":[],"categories_sizes":[],"default_left":[0,0,0,0,0],"id":26,"left_children":[1,-1,3,-1,-1],"loss_changes":[6.033683E3,0E0,8.7418164E2,0E0,0E0],"parents":[2147483647,0,0,2,2],"right_children":[2,-1,4,-1,-1],"split_conditions":[1E0,-1.5915513E-1,1E0,2.1044175E-1,-1.5895467E-1],"split_indices":[15,0,7,0,0],"split_type":[0,0,0,0,0],"sum_hessian":[1.9223584E4,6.791934E3,1.2431649E4,1.1826222E4,6.054277E2],"tree_param":{"num_deleted":"0","num_feature":"17","num_nodes":"5","size_leaf_vector":"1"}},{"base_weights":[-2.3456742E-1,-1.5915664E-1,6.761761E-1,1.2160635E-1,2.1075459E-1,5.697848E-1,-1.5656425E-1,2.090512E-1,-1.4350761E-1],"categories":[],"categories_nodes":[],"categories_segments":[],"categories_sizes":[],"default_left":[0,0,0,0,0,0,0,0,0],"id":27,"left_children":[1,-1,3,5,-1,7,-1,-1,-1],"loss_changes":[3.4468552E3,0E0,4.5729004E1,4.1659897E1,0E0,1.1655239E1,0E0,0E0,0E0],"parents":[2147483647,0,0,2,2,3,3,5,5],"right_children":[2,-1,4,6,-1,8,-1,-1,-1],"split_conditions":[1E0,-1.5915664E-1,1E0,7.1428575E-2,2.1075459E-1,6.35775E2,-1.5656425E-1,2.090512E-1,-1.4350761E-1],"split_indices":[12,0,7,5,0,1,0,0,0],"split_type":[0,0,0,0,0,0,0,0,0],"sum_hessian":[1.2785644E4,9.650153E3,3.135491E3,1.4242218E2,2.9930688E3,8.40189E1,5.8403275E1,7.5234406E1,8.784494E0],"tree_param":{"num_deleted":"0","num_feature":"17","num_nodes":"9","size_leaf_vector":"1"}},{"base_weights":[-4.9840644E-2,2.4349116E-1,-1.5916379E-1,6.442817E-1,-1.5909317E-1,6.9723344E-1,-1.5854552E-1,2.104308E-1,6.097065E-1,2.2386718E-1,2.0996453E-1,-1.5194727E-1,2.0721123E-1],"categories":[],"categories_nodes":[],"categories_segments":[],"categories_sizes":[],"default_left":[0,0,0,0,0,0,0,0,0,0,0,0,0],"id":28,"left_children":[1,3,-1,5,-1,7,-1,-1,9,11,-1,-1,-1],"loss_changes":[2.0817253E3,2.843854E3,0E0,3.7549243E2,0E0,1.6984863E0,0E0,0E0,9.323135E0,1.8449585E1,0E0,0E0,0E0],"parents":[2147483647,0,0,1,1,3,3,5,5,8,8,9,9],"right_children":[2,4,-1,6,-1,8,-1,-1,10,12,-1,-1,-1],"split_conditions":[1E0,1E0,-1.5916379E-1,1E0,-1.5909317E-1,1E0,-1.5854552E-1,2.104308E-1,7.1428575E-2,6.35775E2,2.0996453E-1,-1.5194727E-1,2.0721123E-1],"split_indices":[7,15,0,16,0,12,0,0,5,1,0,0,0],"split_type":[0,0,0,0,0,0,0,0,0,0,0,0,0],"sum_hessian":[1.4761447E4,9.167704E3,5.5937427E3,6.0396406E3,3.128064E3,5.779113E3,2.605279E2,5.5076504E3,2.7146228E2,5.208497E1,2.1937732E2,2.0277006E1,3.1807962E1],"tree_param":{"num_deleted":"0","num_feature":"17","num_nodes":"13","size_leaf_vector":"1"}},{"base_weights":[-6.23425E-2,-1.5911289E-1,1.753324E-1,-5.290766E-1,4.991232E-1,-1.5911105E-1,-1.0421273E-1,-6.5929934E-2,6.3923097E-1,-1.3218996E-1,2.6245603E-1,-3.1484115E-1,2.1023248E-1,1.2901616E-1,6.9382316E-1,2.291526E-1,-8.451374E-2,-4.069807E-1,6.6048414E-1,6.554578E-1,-5.248747E-1,6.9781166E-1,-1.4997628E-1,1.3438721E-1,-1.4080994E-1,-1.459681E-1,2.2872454E-1,2.0635203E-1,-1.12811446E-1,2.056082E-1,-1.3965389E-1,-1.585407E-1,-5.6873254E-2,2.1025716E-1,-1.4757033E-1],"categories":[],"categories_nodes":[],"categories_segments":[],"categories_sizes":[],"default_left":[0,0,0,0,0,0,0,0,0,0,0,0,0,0,0,0,0,0,0,0,0,0,0,0,0,0,0,0,0,0,0,0,0,0,0],"id":29,"left_children":[1,-1,3,5,7,-1,9,11,13,-1,15,17,-1,19,21,-1,23,25,27,29,31,33,-1,-1,-1,-1,-1,-1,-1,-1,-1,-1,-1,-1,-1],"loss_changes":[1.6291373E3,0E0,2.2156387E3,1.6260986E0,5.268961E2,0E0,1.4146549E0,2.5273325E2,1.4844629E2,0E0,1.0501605E0,9.0095314E1,0E0,1.7819952E2,2.328418E1,0E0,1.0809224E0,8.541861E1,2.7158852E0,9.928383E0,1.7819595E-1,1.7741455E1,0E0,0E0,0E0,0E0,0E0,0E0,0E0,0E0,0E0,0E0,0E0,0E0,0E0],"parents":[2147483647,0,0,2,2,3,3,4,4,6,6,7,7,8,8,10,10,11,11,13,13,14,14,16,16,17,17,18,18,19,19,20,20,21,21],"right_children":[2,-1,4,6,8,-1,10,12,14,-1,16,18,-1,20,22,-1,24,26,28,30,32,34,-1,-1,-1,-1,-1,-1,-1,-1,-1,-1,-1,-1,-1],"split_conditions":[1E0,-1.5911289E-1,1.9148937E-1,1.6666667E-1,6.1638E2,-1.5911105E-1,1E0,1E0,5.6E-1,-1.3218996E-1,8.9612E2,1.1111112E0,2.1023248E-1,1E0,1E0,2.291526E-1,2.857143E0,1E0,1E0,1E0,5.3846157E-1,1E0,-1.4997628E-1,1.3438721E-1,-1.4080994E-1,-1.459681E-1,2.2872454E-1,2.0635203E-1,-1.12811446E-1,2.056082E-1,-1.3965389E-1,-1.585407E-1,-5.6873254E-2,2.1025716E-1,-1.4757033E-1],"split_indices":[7,0,5,5,1,0,15,11,5,0,1,3,0,9,16,0,3,9,12,12,5,12,0,0,0,0,0,0,0,0,0,0,0,0,0],"split_type":[0,0,0,0,0,0,0,0,0,0,0,0,0,0,0,0,0,0,0,0,0,0,0,0,0,0,0,0,0,0,0,0,0,0,0],"sum_hessian":[1.464343E4,4.931331E3,9.712099E3,3.058241E3,6.6538574E3,3.0487104E3,9.530658E0,1.322154E3,5.3317036E3,4.865144E0,4.665514E0,9.985602E2,3.2359384E2,5.156683E2,4.816035E3,1.4167644E0,3.2487495E0,9.1290063E2,8.565954E1,2.8567307E2,2.299952E2,4.8004116E3,1.5623747E1,1.2941835E0,1.954566E0,8.5528107E2,5.7619587E1,8.378469E1,1.8748498E0,2.78629E2,7.044066E0,2.2698586E2,3.009337E0,4.7885645E3,1.1847135E1],"tree_param":{"num_deleted":"0","num_feature":"17","num_nodes":"35","size_leaf_vector":"1"}},{"base_weights":[-2.3483811E-1,-1.5684804E-1,1.9204058E-1],"categories":[],"categories_nodes":[],"categories_segments":[],"categories_sizes":[],"default_left":[0,0,0],"id":30,"left_children":[1,-1,-1],"loss_changes":[2.5132197E3,0E0,0E0],"parents":[2147483647,0,0],"right_children":[2,-1,-1],"split_conditions":[1E0,-1.5684804E-1,1.9204058E-1],"split_indices":[16,0,0],"split_type":[0,0,0],"sum_hessian":[9.971462E3,7.5024937E3,2.468968E3],"tree_param":{"num_deleted":"0","num_feature":"17","num_nodes":"3","size_leaf_vector":"1"}},{"base_weights":[1.7246428E-1,4.3640935E-1,-5.217204E-1,-1.5673004E-1,5.808586E-1,-1.5458757E-1,-1.5683621E-1,6.1777383E-1,-1.5637577E-1,-1.3954079E-1,3.6458555E-1,6.3106626E-1,-1.5550539E-1,-9.6284665E-2,6.598891E-1,6.395094E-1,5.394186E-1,2.445552E-1,3.65165E-2,1.9175518E-1,3.653635E-1,-1.5680583E-1,1.9149634E-1],"categories":[],"categories_nodes":[],"categories_segments":[],"categories_sizes":[],"default_left":[0,0,0,0,0,0,0,0,0,0,0,0,0,0,0,0,0,0,0,0,0,0,0],"id":31,"left_children":[1,3,5,-1,7,9,-1,11,-1,-1,13,15,-1,-1,17,19,21,-1,-1,-1,-1,-1,-1],"loss_changes":[2.7120518E3,1.4855835E3,1.5163574E0,0E0,3.7951074E2,2.3035314E0,0E0,1.3652466E2,0E0,0E0,1.3281307E0,6.5532227E0,0E0,0E0,2.5023282E-1,7.573242E-1,7.999841E1,0E0,0E0,0E0,0E0,0E0,0E0],"parents":[2147483647,0,0,1,1,2,2,4,4,5,5,7,7,10,10,11,11,14,14,15,15,16,16],"right_children":[2,4,6,-1,8,10,-1,12,-1,-1,14,16,-1,-1,18,20,22,-1,-1,-1,-1,-1,-1],"split_conditions":[5.714286E-1,1E0,5.882353E-1,-1.5673004E-1,1E0,1.02414E3,-1.5683621E-1,1E0,-1.5637577E-1,-1.3954079E-1,1.39E2,2.5E-1,-1.5550539E-1,-9.6284665E-2,3.39E2,1E0,1E0,2.445552E-1,3.65165E-2,1.9175518E-1,3.653635E-1,-1.5680583E-1,1.9149634E-1],"split_indices":[5,7,5,0,12,1,0,16,0,0,6,5,0,0,6,10,9,0,0,0,0,0,0],"split_type":[0,0,0,0,0,0,0,0,0,0,0,0,0,0,0,0,0,0,0,0,0,0,0],"sum_hessian":[1.4799381E4,1.0722725E4,4.0766567E3,1.4035372E3,9.3191875E3,1.223557E1,4.0644211E3,9.017583E3,3.0160437E2,7.7211637E0,4.5144057E0,8.913738E3,1.0384469E2,1.333018E0,3.1813877E0,8.15635E3,7.5738806E2,2.0694745E0,1.1119132E0,8.1538657E3,2.4844532E0,6.41545E1,6.932336E2],"tree_param":{"num_deleted":"0","num_feature":"17","num_nodes":"23","size_leaf_vector":"1"}},{"base_weights":[2.1319954E-1,-1.5684626E-1,5.8657545E-1,1.9176036E-1,-1.5657887E-1],"categories":[],"categories_nodes":[],"categories_segments":[],"categories_sizes":[],"default_left":[0,0,0,0,0],"id":32,"left_children":[1,-1,3,-1,-1],"loss_changes":[4.2706235E3,0E0,6.017595E2,0E0,0E0],"parents":[2147483647,0,0,2,2],"right_children":[2,-1,4,-1,-1],"split_conditions":[1E0,-1.5684626E-1,1E0,1.9176036E-1,-1.5657887E-1],"split_indices":[15,0,7,0,0],"split_type":[0,0,0,0,0],"sum_hessian":[1.5538031E4,5.2293105E3,1.0308721E4,9.841905E3,4.6681567E2],"tree_param":{"num_deleted":"0","num_feature":"17","num_nodes":"5","size_leaf_vector":"1"}},{"base_weights":[-2.265256E-1,-1.5684757E-1,6.169259E-1,1.14098825E-1,1.9200934E-1,5.198804E-1,-1.5352757E-1,1.8983096E-1,-1.3758528E-1],"categories":[],"categories_nodes":[],"categories_segments":[],"categories_sizes":[],"default_left":[0,0,0,0,0,0,0,0,0],"id":33,"left_children":[1,-1,3,5,-1,7,-1,-1,-1],"loss_changes":[2.509487E3,0E0,3.0256348E1,2.970123E1,0E0,8.112114E0,0E0,0E0,0E0],"parents":[2147483647,0,0,2,2,3,3,5,5],"right_children":[2,-1,4,6,-1,8,-1,-1,-1],"split_conditions":[1E0,-1.5684757E-1,1E0,7.1428575E-2,1.9200934E-1,6.35775E2,-1.5352757E-1,1.8983096E-1,-1.3758528E-1],"split_indices":[12,0,7,5,0,1,0,0,0],"split_type":[0,0,0,0,0,0,0,0,0],"sum_hessian":[1.0039099E4,7.4295283E3,2.6095698E3,1.14904144E2,2.4946658E3,6.9810844E1,4.50933E1,6.290662E1,6.904219E0],"tree_param":{"num_deleted":"0","num_feature":"17","num_nodes":"9","size_leaf_vector":"1"}},{"base_weights":[-4.7735006E-2,2.2827236E-1,-1.568562E-1,5.8908635E-1,-1.5676874E-1,6.3544375E-1,-1.5606505E-1,1.9174634E-1,5.574853E-1,2.0876664E-1,1.9109528E-1,-1.477437E-1,1.8732318E-1],"categories":[],"categories_nodes":[],"categories_segments":[],"categories_sizes":[],"default_left":[0,0,0,0,0,0,0,0,0,0,0,0,0],"id":34,"left_children":[1,3,-1,5,-1,7,-1,-1,9,11,-1,-1,-1],"loss_changes":[1.5378024E3,2.0098713E3,0E0,2.5799878E2,0E0,1.0350342E0,0E0,0E0,6.1427917E0,1.2990609E1,0E0,0E0,0E0],"parents":[2147483647,0,0,1,1,3,3,5,5,8,8,9,9],"right_children":[2,4,-1,6,-1,8,-1,-1,10,12,-1,-1,-1],"split_conditions":[1E0,1E0,-1.568562E-1,1E0,-1.5676874E-1,1E0,-1.5606505E-1,1.9174634E-1,7.1428575E-2,6.35775E2,1.9109528E-1,-1.477437E-1,1.8732318E-1],"split_indices":[7,15,0,16,0,12,0,0,5,1,0,0,0],"split_type":[0,0,0,0,0,0,0,0,0,0,0,0,0],"sum_hessian":[1.1724835E4,7.41678E3,4.3080557E3,5.00962E3,2.4071594E3,4.8090776E3,2.0054251E2,4.583701E3,2.2537636E2,4.251448E1,1.828619E2,1.5752722E1,2.6761757E1],"tree_param":{"num_deleted":"0","num_feature":"17","num_nodes":"13","size_leaf_vector":"1"}},{"base_weights":[-5.9219863E-2,-1.5679336E-1,1.6494252E-1,-5.2111286E-1,4.5918483E-1,-1.5678492E-1,-1.033848E-1,5.2711004E-1,-1.5685785E-1,4.0380725E-1,-2.9670727E-1,5.995554E-1,-1.5701652E-1,1.4931135E-1,3.2093793E-2,-1.4375812E-1,1.0951383E-1,1.648369E-1,6.4337504E-1,7.650106E-3,4.3479268E-2,1.9570066E-1,-1.3821176E-1,1.9207785E-1,3.6780512E-1],"categories":[],"categories_nodes":[],"categories_segments":[],"categories_sizes":[],"default_left":[0,0,0,0,0,0,0,0,0,0,0,0,0,0,0,0,0,0,0,0,0,0,0,0,0],"id":35,"left_children":[1,-1,3,5,7,-1,9,11,-1,13,15,17,-1,-1,-1,-1,19,21,23,-1,-1,-1,-1,-1,-1],"loss_changes":[1.2095343E3,0E0,1.5844144E3,1.4256592E0,3.6666638E2,0E0,1.0705389E0,3.9132068E2,0E0,3.3141136E-2,6.1562437E-1,9.146008E1,0E0,0E0,0E0,0E0,5.733017E-3,1.3493782E2,7.1411133E0,0E0,0E0,0E0,0E0,0E0,0E0],"parents":[2147483647,0,0,2,2,3,3,4,4,6,6,7,7,9,9,10,10,11,11,16,16,17,17,18,18],"right_children":[2,-1,4,6,8,-1,10,12,-1,14,16,18,-1,-1,-1,-1,20,22,24,-1,-1,-1,-1,-1,-1],"split_conditions":[1E0,-1.5679336E-1,1.9148937E-1,1.6666667E-1,1E0,-1.5678492E-1,8.9612E2,1E0,-1.5685785E-1,7.5E0,1.081467E4,5.882353E-1,-1.5701652E-1,1.4931135E-1,3.2093793E-2,-1.4375812E-1,4.5E0,1E0,1E0,7.650106E-3,4.3479268E-2,1.9570066E-1,-1.3821176E-1,1.9207785E-1,3.6780512E-1],"split_indices":[7,0,5,5,12,0,1,16,0,4,2,5,0,0,0,0,4,9,10,0,0,0,0,0,0],"split_type":[0,0,0,0,0,0,0,0,0,0,0,0,0,0,0,0,0,0,0,0,0,0,0,0,0],"sum_hessian":[1.1641478E4,3.79484E3,7.846637E3,2.3549844E3,5.491653E3,2.3462883E3,8.696183E0,5.136817E3,3.548359E2,2.0994322E0,6.596751E0,4.805823E3,3.309939E2,1.0807945E0,1.0186379E0,4.4279485E0,2.1688025E0,4.405043E2,4.365319E3,1.1532227E0,1.0155797E0,2.475447E2,1.9295963E2,4.344188E3,2.113101E1],"tree_param":{"num_deleted":"0","num_feature":"17","num_nodes":"25","size_leaf_vector":"1"}},{"base_weights":[-2.289927E-1,-1.5510029E-1,1.7962933E-1],"categories":[],"categories_nodes":[],"categories_segments":[],"categories_sizes":[],"default_left":[0,0,0],"id":36,"left_children":[1,-1,-1],"loss_changes":[1.8393528E3,0E0,0E0],"parents":[2147483647,0,0],"right_children":[2,-1,-1],"split_conditions":[1E0,-1.5510029E-1,1.7962933E-1],"split_indices":[16,0,0],"split_type":[0,0,0],"sum_hessian":[7.7130796E3,5.7224106E3,1.9906691E3],"tree_param":{"num_deleted":"0","num_feature":"17","num_nodes":"3","size_leaf_vector":"1"}},{"base_weights":[1.6488928E-1,4.1208872E-1,-5.1565176E-1,-1.549578E-1,5.4475075E-1,-1.4381751E-1,-1.5508072E-1,5.7837343E-1,-1.5447079E-1,-1.3581173E-1,3.0027875E-1,5.904694E-1,-1.5330097E-1,-9.107698E-2,5.2756536E-1,5.9864134E-1,5.075568E-1,1.9888677E-1,2.5577871E-2,1.7950997E-1,2.7152306E-1,-1.2624863E-1,1.7891227E-1],"categories":[],"categories_nodes":[],"categories_segments":[],"categories_sizes":[],"default_left":[0,0,0,0,0,0,0,0,0,0,0,0,0,0,0,0,0,0,0,0,0,0,0],"id":37,"left_children":[1,3,5,-1,7,9,-1,11,-1,-1,13,15,-1,-1,17,19,21,-1,-1,-1,-1,-1,-1],"loss_changes":[1.9647048E3,1.0556075E3,1.411377E0,0E0,2.6737427E2,1.7950115E0,0E0,9.604761E1,0E0,0E0,9.2363685E-1,4.565674E0,0E0,0E0,2.0736873E-1,8.7890625E-3,5.395961E1,0E0,0E0,0E0,0E0,0E0,0E0],"parents":[2147483647,0,0,1,1,2,2,4,4,5,5,7,7,10,10,11,11,14,14,15,15,16,16],"right_children":[2,4,6,-1,8,10,-1,12,-1,-1,14,16,-1,-1,18,20,22,-1,-1,-1,-1,-1,-1],"split_conditions":[5.714286E-1,1E0,5.882353E-1,-1.549578E-1,1E0,1.02414E3,-1.5508072E-1,1E0,-1.5447079E-1,-1.3581173E-1,1.39E2,1.6666667E-1,-1.5330097E-1,-9.107698E-2,3.2E1,1E0,1E0,1.9888677E-1,2.5577871E-2,1.7950997E-1,2.7152306E-1,-1.2624863E-1,1.7891227E-1],"split_indices":[5,7,5,0,12,1,0,16,0,0,6,5,0,0,4,10,9,0,0,0,0,0,0],"split_type":[0,0,0,0,0,0,0,0,0,0,0,0,0,0,0,0,0,0,0,0,0,0,0],"sum_hessian":[1.1676464E4,8.565521E3,3.1109424E3,1.0703481E3,7.4951733E3,1.10944805E1,3.099848E3,7.2651064E3,2.3006693E2,6.5318847E0,4.562596E0,7.185777E3,7.932974E1,1.1558776E0,3.4067183E0,6.535422E3,6.503549E2,2.2263622E0,1.1803559E0,6.532517E3,2.904873E0,5.645955E1,5.938954E2],"tree_param":{"num_deleted":"0","num_feature":"17","num_nodes":"23","size_leaf_vector":"1"}},{"base_weights":[2.0341669E-1,-1.5509547E-1,5.502548E-1,1.7946178E-1,-1.5473366E-1],"categories":[],"categories_nodes":[],"categories_segments":[],"categories_sizes":[],"default_left":[0,0,0,0,0],"id":38,"left_children":[1,-1,3,-1,-1],"loss_changes":[3.0675972E3,0E0,4.2391675E2,0E0,0E0],"parents":[2147483647,0,0,2,2],"right_children":[2,-1,4,-1,-1],"split_conditions":[1E0,-1.5509547E-1,1E0,1.7946178E-1,-1.5473366E-1],"split_indices":[15,0,7,0,0],"split_type":[0,0,0,0,0],"sum_hessian":[1.2274991E4,3.9890427E3,8.285948E3,7.9297026E3,3.5624615E2],"tree_param":{"num_deleted":"0","num_feature":"17","num_nodes":"5","size_leaf_vector":"1"}},{"base_weights":[-2.2079611E-1,-1.5509978E-1,5.7755107E-1,1.0845598E-1,1.7960496E-1,4.8519406E-1,-1.508228E-1,1.768813E-1,-1.3141303E-1],"categories":[],"categories_nodes":[],"categories_segments":[],"categories_sizes":[],"default_left":[0,0,0,0,0,0,0,0,0],"id":39,"left_children":[1,-1,3,5,-1,7,-1,-1,-1],"loss_changes":[1.8376399E3,0E0,2.0783081E1,2.140018E1,0E0,5.7866488E0,0E0,0E0,0E0],"parents":[2147483647,0,0,2,2,3,3,5,5],"right_children":[2,-1,4,6,-1,8,-1,-1,-1],"split_conditions":[1E0,-1.5509978E-1,1E0,7.1428575E-2,1.7960496E-1,6.35775E2,-1.508228E-1,1.768813E-1,-1.3141303E-1],"split_indices":[12,0,7,5,0,1,0,0,0],"split_type":[0,0,0,0,0,0,0,0,0],"sum_hessian":[7.768775E3,5.6666753E3,2.1020999E3,9.0879135E1,2.0112207E3,5.6350986E1,3.452815E1,5.0950314E1,5.4006724E0],"tree_param":{"num_deleted":"0","num_feature":"17","num_nodes":"9","size_leaf_vector":"1"}},{"base_weights":[-4.6202123E-2,2.177567E-1,-1.551019E-1,5.5250615E-1,-1.5501165E-1,5.947222E-1,-1.5409806E-1,1.7944196E-1,5.2231246E-1,1.9760098E-1,1.7856766E-1,-1.4356133E-1,1.7359047E-1],"categories":[],"categories_nodes":[],"categories_segments":[],"categories_sizes":[],"default_left":[0,0,0,0,0,0,0,0,0,0,0,0,0],"id":40,"left_children":[1,3,-1,5,-1,7,-1,-1,9,11,-1,-1,-1],"loss_changes":[1.1373348E3,1.4420796E3,0E0,1.8163782E2,0E0,6.4660645E-1,0E0,0E0,4.2049446E0,9.287767E0,0E0,0E0,0E0],"parents":[2147483647,0,0,1,1,3,3,5,5,8,8,9,9],"right_children":[2,4,-1,6,-1,8,-1,-1,10,12,-1,-1,-1],"split_conditions":[1E0,1E0,-1.551019E-1,1E0,-1.5501165E-1,1E0,-1.5409806E-1,1.7944196E-1,7.1428575E-2,6.35775E2,1.7856766E-1,-1.4356133E-1,1.7359047E-1],"split_indices":[7,15,0,16,0,12,0,0,5,1,0,0,0],"split_type":[0,0,0,0,0,0,0,0,0,0,0,0,0],"sum_hessian":[9.150006E3,5.86327E3,3.2867358E3,4.0277644E3,1.835506E3,3.87478E3,1.5298419E2,3.6932065E3,1.8157355E2,3.397577E1,1.4759778E2,1.2153564E1,2.1822206E1],"tree_param":{"num_deleted":"0","num_feature":"17","num_nodes":"13","size_leaf_vector":"1"}},{"base_weights":[-5.6942437E-2,-1.5504315E-1,1.5775943E-1,-5.147812E-1,4.3237835E-1,-1.550259E-1,-5.7404354E-2,4.9468789E-1,-1.5487218E-1,1.19794585E-1,-2.5497702E-1,5.607139E-1,-1.549783E-1,-1.3611402E-1,3.8113672E-2,1.5671426E-1,6.0129094E-1,1.8199386E-1,-1.309167E-1,1.7967285E-1,2.8225008E-1],"categories":[],"categories_nodes":[],"categories_segments":[],"categories_sizes":[],"default_left":[0,0,0,0,0,0,0,0,0,0,0,0,0,0,0,0,0,0,0,0,0],"id":41,"left_children":[1,-1,3,5,7,-1,9,11,-1,-1,13,15,-1,-1,-1,17,19,-1,-1,-1,-1],"loss_changes":[8.9796564E2,0E0,1.1453667E3,1.592041E0,2.60515E2,0E0,8.9982927E-1,2.7620288E2,0E0,0E0,5.726588E-1,6.3502197E1,0E0,0E0,0E0,9.511484E1,2.2869873E0,0E0,0E0,0E0,0E0],"parents":[2147483647,0,0,2,2,3,3,4,4,6,6,7,7,10,10,11,11,15,15,16,16],"right_children":[2,-1,4,6,8,-1,10,12,-1,-1,14,16,-1,-1,-1,18,20,-1,-1,-1,-1],"split_conditions":[1E0,-1.5504315E-1,1.9148937E-1,1.6666667E-1,1E0,-1.550259E-1,8.9612E2,1E0,-1.5487218E-1,1.19794585E-1,1.081467E4,5.882353E-1,-1.549783E-1,-1.3611402E-1,3.8113672E-2,1E0,1E0,1.8199386E-1,-1.309167E-1,1.7967285E-1,2.8225008E-1],"split_indices":[7,0,5,5,12,0,1,16,0,0,2,5,0,0,0,9,10,0,0,0,0],"split_type":[0,0,0,0,0,0,0,0,0,0,0,0,0,0,0,0,0,0,0,0,0],"sum_hessian":[9.092923E3,2.8936443E3,6.1992783E3,1.7971619E3,4.4021167E3,1.7893181E3,7.84369E0,4.131237E3,2.7087964E2,2.0601742E0,5.7835155E0,3.8784602E3,2.5277681E2,3.6809466E0,2.102569E0,3.5443546E2,3.5240247E3,2.015304E2,1.5290508E2,3.5022249E3,2.179989E1],"tree_param":{"num_deleted":"0","num_feature":"17","num_nodes":"21","size_leaf_vector":"1"}},{"base_weights":[-2.2471303E-1,-1.5378657E-1,1.7116225E-1],"categories":[],"categories_nodes":[],"categories_segments":[],"categories_sizes":[],"default_left":[0,0,0],"id":42,"left_children":[1,-1,-1],"loss_changes":[1.3520087E3,0E0,0E0],"parents":[2147483647,0,0],"right_children":[2,-1,-1],"split_conditions":[1E0,-1.5378657E-1,1.7116225E-1],"split_indices":[16,0,0],"split_type":[0,0,0],"sum_hessian":[5.9027065E3,4.334005E3,1.5687014E3],"tree_param":{"num_deleted":"0","num_feature":"17","num_nodes":"3","size_leaf_vector":"1"}},{"base_weights":[1.5952125E-1,3.9530122E-1,-5.107602E-1,-1.536097E-1,5.2005E-1,-1.4121655E-1,-1.5375707E-1,5.514988E-1,-1.5295228E-1,-3.8655558E-1,2.4720474E-1,5.6281286E-1,-1.5139075E-1,-1.4105007E-1,1.6168088E-3,-8.6557105E-2,4.3304867E-1,1.7117825E-1,4.8402908E-1,1.6696602E-1,1.3432947E-2,-1.1690195E-1,1.7066497E-1],"categories":[],"categories_nodes":[],"categories_segments":[],"categories_sizes":[],"default_left":[0,0,0,0,0,0,0,0,0,0,0,0,0,0,0,0,0,0,0,0,0,0,0],"id":43,"left_children":[1,3,5,-1,7,9,-1,11,-1,13,15,17,-1,-1,-1,-1,19,-1,21,-1,-1,-1,-1],"loss_changes":[1.4332172E3,7.5958826E2,1.4654541E0,0E0,1.9131348E2,1.295122E0,0E0,6.86792E1,0E0,2.6814258E-1,6.7083514E-1,3.1956787E0,0E0,0E0,0E0,0E0,1.8946171E-1,0E0,3.8453415E1,0E0,0E0,0E0,0E0],"parents":[2147483647,0,0,1,1,2,2,4,4,5,5,7,7,9,9,10,10,11,11,16,16,18,18],"right_children":[2,4,6,-1,8,10,-1,12,-1,14,16,18,-1,-1,-1,-1,20,-1,22,-1,-1,-1,-1],"split_conditions":[5.6E-1,1E0,5.882353E-1,-1.536097E-1,1E0,1.02414E3,-1.5375707E-1,1E0,-1.5295228E-1,2.5E1,1.39E2,1.6666667E-1,-1.5139075E-1,-1.4105007E-1,1.6168088E-3,-8.6557105E-2,3.39E2,1.7117825E-1,1E0,1.6696602E-1,1.3432947E-2,-1.1690195E-1,1.7066497E-1],"split_indices":[5,7,5,0,12,1,0,16,0,0,6,5,0,0,0,0,6,0,9,0,0,0,0],"split_type":[0,0,0,0,0,0,0,0,0,0,0,0,0,0,0,0,0,0,0,0,0,0,0],"sum_hessian":[9.066482E3,6.707459E3,2.359023E3,8.103617E2,5.897097E3,1.158791E1,2.347435E3,5.72281E3,1.7428741E2,7.1049833E0,4.4829264E0,5.6626147E3,6.019517E1,5.6913147E0,1.4136685E0,1.0122961E0,3.4706304E0,5.1479263E3,5.146887E2,2.304262E0,1.1663685E0,4.5243683E1,4.69445E2],"tree_param":{"num_deleted":"0","num_feature":"17","num_nodes":"23","size_leaf_vector":"1"}},{"base_weights":[1.9647914E-1,-1.5377708E-1,5.253514E-1,1.7107464E-1,-1.532988E-1],"categories":[],"categories_nodes":[],"categories_segments":[],"categories_sizes":[],"default_left":[0,0,0,0,0],"id":44,"left_children":[1,-1,3,-1,-1],"loss_changes":[2.2243623E3,0E0,3.034796E2,0E0,0E0],"parents":[2147483647,0,0,2,2],"right_children":[2,-1,4,-1,-1],"split_conditions":[1E0,-1.5377708E-1,1E0,1.7107464E-1,-1.532988E-1],"split_indices":[15,0,7,0,0],"split_type":[0,0,0,0,0],"sum_hessian":[9.536554E3,3.0214844E3,6.5150693E3,6.2449697E3,2.7009933E2],"tree_param":{"num_deleted":"0","num_feature":"17","num_nodes":"5","size_leaf_vector":"1"}},{"base_weights":[-2.1660563E-1,-1.53786E-1,5.5058074E-1,1.0395274E-1,1.7114279E-1,4.5959038E-1,-1.4824419E-1,1.6767763E-1,-1.2481875E-1],"categories":[],"categories_nodes":[],"categories_segments":[],"categories_sizes":[],"default_left":[0,0,0,0,0,0,0,0,0],"id":45,"left_children":[1,-1,3,5,-1,7,-1,-1,-1],"loss_changes":[1.3511355E3,0E0,1.4660889E1,1.5514298E1,0E0,4.1979713E0,0E0,0E0,0E0],"parents":[2147483647,0,0,2,2,3,3,5,5],"right_children":[2,-1,4,6,-1,8,-1,-1,-1],"split_conditions":[1E0,-1.53786E-1,1E0,7.1428575E-2,1.7114279E-1,6.35775E2,-1.4824419E-1,1.6767763E-1,-1.2481875E-1],"split_indices":[12,0,7,5,0,1,0,0,0],"split_type":[0,0,0,0,0,0,0,0,0],"sum_hessian":[5.947323E3,4.29172E3,1.6556033E3,7.086977E1,1.5847334E3,4.458849E1,2.628128E1,4.0370518E1,4.217971E0],"tree_param":{"num_deleted":"0","num_feature":"17","num_nodes":"9","size_leaf_vector":"1"}},{"base_weights":[-4.512178E-2,2.1034224E-1,-1.537802E-1,5.274244E-1,-1.5368333E-1,5.669162E-1,-1.5248805E-1,1.7104769E-1,4.9757728E-1,1.8882339E-1,1.698899E-1,-1.3915674E-1,1.6344401E-1],"categories":[],"categories_nodes":[],"categories_segments":[],"categories_sizes":[],"default_left":[0,0,0,0,0,0,0,0,0,0,0,0,0],"id":46,"left_children":[1,3,-1,5,-1,7,-1,-1,9,11,-1,-1,-1],"loss_changes":[8.418646E2,1.0447554E3,0E0,1.2989795E2,0E0,4.0264893E-1,0E0,0E0,2.9537086E0,6.7029424E0,0E0,0E0,0E0],"parents":[2147483647,0,0,1,1,3,3,5,5,8,8,9,9],"right_children":[2,4,-1,6,-1,8,-1,-1,10,12,-1,-1,-1],"split_conditions":[1E0,1E0,-1.537802E-1,1E0,-1.5368333E-1,1E0,-1.5248805E-1,1.7104769E-1,7.1428575E-2,6.35775E2,1.698899E-1,-1.3915674E-1,1.6344401E-1],"split_indices":[7,15,0,16,0,12,0,0,5,1,0,0,0],"split_type":[0,0,0,0,0,0,0,0,0,0,0,0,0],"sum_hessian":[7.0474707E3,4.5574844E3,2.4899866E3,3.1677576E3,1.3897266E3,3.0518438E3,1.1591389E2,2.9085984E3,1.4324535E2,2.6761154E1,1.1648419E2,9.337886E0,1.742327E1],"tree_param":{"num_deleted":"0","num_feature":"17","num_nodes":"13","size_leaf_vector":"1"}},{"base_weights":[-5.521931E-2,-1.5372425E-1,1.5259856E-1,-5.099671E-1,4.1358778E-1,-1.5369499E-1,-6.682165E-2,4.7206977E-1,-1.5330736E-1,1.0248446E-1,-2.5235862E-1,5.337597E-1,-1.533668E-1,-1.33655E-1,2.8777296E-2,1.3915399E-1,5.7153374E-1,1.7235494E-1,-1.5012643E-1,1.7091031E-1,2.3447081E-1],"categories":[],"categories_nodes":[],"categories_segments":[],"categories_sizes":[],"default_left":[0,0,0,0,0,0,0,0,0,0,0,0,0,0,0,0,0,0,0,0,0],"id":47,"left_children":[1,-1,3,5,7,-1,9,11,-1,-1,13,15,-1,-1,-1,17,19,-1,-1,-1,-1],"loss_changes":[6.664327E2,0E0,8.341097E2,1.3851013E0,1.8734357E2,0E0,7.181715E-1,1.9770978E2,0E0,0E0,4.672062E-1,4.5579834E1,0E0,0E0,0E0,7.517076E1,6.307373E-1,0E0,0E0,0E0,0E0],"parents":[2147483647,0,0,2,2,3,3,4,4,6,6,7,7,10,10,11,11,15,15,16,16],"right_children":[2,-1,4,6,8,-1,10,12,-1,-1,14,16,-1,-1,-1,18,20,-1,-1,-1,-1],"split_conditions":[1E0,-1.5372425E-1,1.9148937E-1,1.6666667E-1,1E0,-1.5369499E-1,8.9612E2,1E0,-1.5330736E-1,1.0248446E-1,1.081467E4,5.6E-1,-1.533668E-1,-1.33655E-1,2.8777296E-2,1E0,1E0,1.7235494E-1,-1.5012643E-1,1.7091031E-1,2.3447081E-1],"split_indices":[7,0,5,5,12,0,1,16,0,0,2,5,0,0,0,9,10,0,0,0,0],"split_type":[0,0,0,0,0,0,0,0,0,0,0,0,0,0,0,0,0,0,0,0,0],"sum_hessian":[7.012279E3,2.1908938E3,4.821385E3,1.3622152E3,3.4591697E3,1.3548757E3,7.339423E0,3.253852E3,2.0531766E2,2.0298152E0,5.309608E0,3.0621929E3,1.9165907E2,3.2358325E0,2.0737758E0,2.679317E2,2.7942612E3,1.5947675E2,1.0845496E2,2.7737705E3,2.0490723E1],"tree_param":{"num_deleted":"0","num_feature":"17","num_nodes":"21","size_leaf_vector":"1"}},{"base_weights":[-2.2154105E-1,-1.5279886E-1,1.6523966E-1],"categories":[],"categories_nodes":[],"categories_segments":[],"categories_sizes":[],"default_left":[0,0,0],"id":48,"left_children":[1,-1,-1],"loss_changes":[9.964263E2,0E0,0E0],"parents":[2147483647,0,0],"right_children":[2,-1,-1],"split_conditions":[1E0,-1.5279886E-1,1.6523966E-1],"split_indices":[16,0,0],"split_type":[0,0,0],"sum_hessian":[4.4806816E3,3.2645784E3,1.2161031E3],"tree_param":{"num_deleted":"0","num_feature":"17","num_nodes":"3","size_leaf_vector":"1"}},{"base_weights":[1.5565696E-1,3.8324815E-1,-5.068091E-1,-1.525755E-1,5.0252277E-1,-8.134907E-2,-1.5275803E-1,5.324842E-1,-1.5169474E-1,-3.4775698E-1,2.792084E-1,5.432719E-1,-1.4962094E-1,-1.3398731E-1,1.16343405E-2,4.187921E-1,-9.171249E-3,1.6522539E-1,4.6190494E-1,1.5216371E-1,3.0999769E-2,-1.494677E-1,1.6434725E-1],"categories":[],"categories_nodes":[],"categories_segments":[],"categories_sizes":[],"default_left":[0,0,0,0,0,0,0,0,0,0,0,0,0,0,0,0,0,0,0,0,0,0,0],"id":49,"left_children":[1,3,5,-1,7,9,-1,11,-1,13,15,17,-1,-1,-1,19,-1,-1,21,-1,-1,-1,-1],"loss_changes":[1.049052E3,5.510917E2,1.7634888E0,0E0,1.382511E2,1.1638453E0,0E0,4.9626587E1,0E0,2.7841055E-1,2.4083409E-1,2.4179688E0,0E0,0E0,0E0,5.0890684E-2,0E0,0E0,3.1279076E1,0E0,0E0,0E0,0E0],"parents":[2147483647,0,0,1,1,2,2,4,4,5,5,7,7,9,9,10,10,11,11,15,15,18,18],"right_children":[2,4,6,-1,8,10,-1,12,-1,14,16,18,-1,-1,-1,20,-1,-1,22,-1,-1,-1,-1],"split_conditions":[5.6E-1,1E0,5.882353E-1,-1.525755E-1,1E0,1.02414E3,-1.5275803E-1,1E0,-1.5169474E-1,2.5E1,1.05388E3,2.5E-1,-1.4962094E-1,-1.3398731E-1,1.16343405E-2,2.3E1,-9.171249E-3,1.6522539E-1,1E0,1.5216371E-1,3.0999769E-2,-1.494677E-1,1.6434725E-1],"split_indices":[5,7,5,0,12,1,0,16,0,0,1,5,0,0,0,4,0,0,9,0,0,0,0],"split_type":[0,0,0,0,0,0,0,0,0,0,0,0,0,0,0,0,0,0,0,0,0,0,0],"sum_hessian":[6.955607E3,5.177344E3,1.7782627E3,6.103567E2,4.566988E3,1.010556E1,1.7681571E3,4.4356387E3,1.3134889E2,5.8319573E0,4.2736025E0,4.3901855E3,4.545329E1,4.520319E0,1.3116382E0,2.7035172E0,1.5700854E0,4.0153247E3,3.748608E2,1.636867E0,1.06665E0,3.039572E1,3.444651E2],"tree_param":{"num_deleted":"0","num_feature":"17","num_nodes":"23","size_leaf_vector":"1"}},{"base_weights":[1.9150756E-1,-1.5278287E-1,5.07874E-1,1.6521616E-1,-1.5215051E-1],"categories":[],"categories_nodes":[],"categories_segments":[],"categories_sizes":[],"default_left":[0,0,0,0,0],"id":50,"left_children":[1,-1,3,-1,-1],"loss_changes":[1.6229713E3,0E0,2.1961462E2,0E0,0E0],"parents":[2147483647,0,0,2,2],"right_children":[2,-1,4,-1,-1],"split_conditions":[1E0,-1.5278287E-1,1E0,1.6521616E-1,-1.5215051E-1],"split_indices":[15,0,7,0,0],"split_type":[0,0,0,0,0],"sum_hessian":[7.3182603E3,2.2760247E3,5.0422354E3,4.838454E3,2.0378107E2],"tree_param":{"num_deleted":"0","num_feature":"17","num_nodes":"5","size_leaf_vector":"1"}},{"base_weights":[-2.1350114E-1,-1.527982E-1,5.316163E-1,1.00095205E-1,1.6522399E-1,4.3943834E-1,-1.4560123E-1,1.607759E-1,-1.1771912E-1],"categories":[],"categories_nodes":[],"categories_segments":[],"categories_sizes":[],"default_left":[0,0,0,0,0,0,0,0,0],"id":51,"left_children":[1,-1,3,5,-1,7,-1,-1,-1],"loss_changes":[9.9588086E2,0E0,1.054541E1,1.1285387E1,0E0,3.0840368E0,0E0,0E0,0E0],"parents":[2147483647,0,0,2,2,3,3,5,5],"right_children":[2,-1,4,6,-1,8,-1,-1,-1],"split_conditions":[1E0,-1.527982E-1,1E0,7.1428575E-2,1.6522399E-1,6.35775E2,-1.4560123E-1,1.607759E-1,-1.1771912E-1],"split_indices":[12,0,7,5,0,1,0,0,0],"split_type":[0,0,0,0,0,0,0,0,0],"sum_hessian":[4.5157695E3,3.2326575E3,1.2831119E3,5.4733265E1,1.2283787E3,3.480696E1,1.9926304E1,3.1508186E1,3.2987735E0],"tree_param":{"num_deleted":"0","num_feature":"17","num_nodes":"9","size_leaf_vector":"1"}},{"base_weights":[-4.4331476E-2,2.0503771E-1,-1.5278196E-1,5.0980985E-1,-1.5267514E-1,5.4745543E-1,-1.5110213E-1,1.651804E-1,4.794619E-1,1.814141E-1,1.636543E-1,-1.343216E-1,1.5539959E-1],"categories":[],"categories_nodes":[],"categories_segments":[],"categories_sizes":[],"default_left":[0,0,0,0,0,0,0,0,0,0,0,0,0],"id":52,"left_children":[1,3,-1,5,-1,7,-1,-1,9,11,-1,-1,-1],"loss_changes":[6.233933E2,7.6180133E2,0E0,9.387665E1,0E0,2.4206543E-1,0E0,0E0,2.1130924E0,4.8657813E0,0E0,0E0,0E0],"parents":[2147483647,0,0,1,1,3,3,5,5,8,8,9,9],"right_children":[2,4,-1,6,-1,8,-1,-1,10,12,-1,-1,-1],"split_conditions":[1E0,1E0,-1.5278196E-1,1E0,-1.5267514E-1,1E0,-1.5110213E-1,1.651804E-1,7.1428575E-2,6.35775E2,1.636543E-1,-1.343216E-1,1.5539959E-1],"split_indices":[7,15,0,16,0,12,0,0,5,1,0,0,0],"split_type":[0,0,0,0,0,0,0,0,0,0,0,0,0],"sum_hessian":[5.374862E3,3.4988367E3,1.8760249E3,2.4522915E3,1.0465452E3,2.3649075E3,8.738412E1,2.253545E3,1.1136262E2,2.0882254E1,9.048036E1,7.16291E0,1.3719343E1],"tree_param":{"num_deleted":"0","num_feature":"17","num_nodes":"13","size_leaf_vector":"1"}},{"base_weights":[-5.3970028E-2,-1.5272883E-1,1.4883853E-1,-5.031666E-1,4.0154254E-1,-1.5268436E-1,-7.529607E-2,4.575419E-1,-1.5203258E-1,-1.5550607E-1,2.6960742E-1,5.165277E-1,-1.5205E-1,1.4688908E-1,4.9747694E-2,1.5273647E-1,5.5242056E-1,-1.2215393E-1,1.05955005E-1,1.6741005E-1,-1.1884985E-1,1.6530135E-1,2.0463134E-1],"categories":[],"categories_nodes":[],"categories_segments":[],"categories_sizes":[],"default_left":[0,0,0,0,0,0,0,0,0,0,0,0,0,0,0,0,0,0,0,0,0,0,0],"id":53,"left_children":[1,-1,3,5,7,-1,9,11,-1,-1,13,15,-1,-1,17,19,21,-1,-1,-1,-1,-1,-1],"loss_changes":[4.9435538E2,0E0,6.106624E2,2.522705E0,1.360781E2,0E0,2.4283159E0,1.4339124E2,0E0,0E0,4.148206E-1,3.0882935E1,0E0,0E0,9.277487E-1,4.7909462E1,2.0507812E-2,0E0,0E0,0E0,0E0,0E0,0E0],"parents":[2147483647,0,0,2,2,3,3,4,4,6,6,7,7,10,10,11,11,14,14,15,15,16,16],"right_children":[2,-1,4,6,8,-1,10,12,-1,-1,14,16,-1,-1,18,20,22,-1,-1,-1,-1,-1,-1],"split_conditions":[1E0,-1.5272883E-1,2.5E-1,1.6666667E-1,1E0,-1.5268436E-1,1E0,1E0,-1.5203258E-1,-1.5550607E-1,5.76205E3,5.882353E-1,-1.5205E-1,1.4688908E-1,7E0,1E0,1E0,-1.2215393E-1,1.05955005E-1,1.6741005E-1,-1.1884985E-1,1.6530135E-1,2.0463134E-1],"split_indices":[7,0,5,5,12,0,15,16,0,0,2,5,0,0,0,9,10,0,0,0,0,0,0],"split_type":[0,0,0,0,0,0,0,0,0,0,0,0,0,0,0,0,0,0,0,0,0,0,0],"sum_hessian":[5.353941E3,1.6498883E3,3.7040525E3,1.0343418E3,2.6697107E3,1.0203654E3,1.397633E1,2.515144E3,1.5456673E2,5.897544E0,8.078786E0,2.3706106E3,1.4453343E2,3.4246168E0,4.654169E0,2.1336009E2,2.1572505E3,1.7208838E0,2.933285E0,1.2272566E2,9.063442E1,2.1391406E3,1.8109867E1],"tree_param":{"num_deleted":"0","num_feature":"17","num_nodes":"23","size_leaf_vector":"1"}},{"base_weights":[-2.1920381E-1,-1.5205532E-1,1.6101827E-1],"categories":[],"categories_nodes":[],"categories_segments":[],"categories_sizes":[],"default_left":[0,0,0],"id":54,"left_children":[1,-1,-1],"loss_changes":[7.356316E2,0E0,0E0],"parents":[2147483647,0,0],"right_children":[2,-1,-1],"split_conditions":[1E0,-1.5205532E-1,1.6101827E-1],"split_indices":[16,0,0],"split_type":[0,0,0],"sum_hessian":[3.380872E3,2.4492224E3,9.316495E2],"tree_param":{"num_deleted":"0","num_feature":"17","num_nodes":"3","size_leaf_vector":"1"}},{"base_weights":[1.5280236E-1,3.7516713E-1,-5.0217885E-1,-1.5176532E-1,4.9025875E-1,-8.9080416E-2,-1.5199979E-1,5.191743E-1,-1.5059018E-1,-1.643677E-1,4.3219857E-2,5.295973E-1,-1.4784296E-1,-1.2065729E-1,2.619798E-1,1.6112082E-1,4.5387045E-1,3.9456993E-1,5.9328525E-4,-9.833196E-2,1.6080746E-1,1.6989356E-2,1.5932852E-1,-8.7263435E-2,8.724598E-2],"categories":[],"categories_nodes":[],"categories_segments":[],"categories_sizes":[],"default_left":[0,0,0,0,0,0,0,0,0,0,0,0,0,0,0,0,0,0,0,0,0,0,0,0,0],"id":55,"left_children":[1,3,5,-1,7,9,-1,11,-1,-1,13,15,-1,-1,17,-1,19,21,23,-1,-1,-1,-1,-1,-1],"loss_changes":[7.7107544E2,4.0098706E2,2.4422913E0,0E0,1.0056067E2,9.726029E-1,0E0,3.6096436E1,0E0,0E0,1.3779827E0,1.6593018E0,0E0,0E0,3.243128E-1,0E0,1.998669E1,2.5650024E-1,4.359114E-1,0E0,0E0,0E0,0E0,0E0,0E0],"parents":[2147483647,0,0,1,1,2,2,4,4,5,5,7,7,10,10,11,11,14,14,16,16,17,17,18,18],"right_children":[2,4,6,-1,8,10,-1,12,-1,-1,14,16,-1,-1,18,-1,20,22,24,-1,-1,-1,-1,-1,-1],"split_conditions":[5.3846157E-1,1E0,5.882353E-1,-1.5176532E-1,1E0,8.75E2,-1.5199979E-1,1E0,-1.5059018E-1,-1.643677E-1,1E0,1.6666667E-1,-1.4784296E-1,-1.2065729E-1,1.2E1,1.6112082E-1,1E0,1.00431E3,1.1111112E0,-9.833196E-2,1.6080746E-1,1.6989356E-2,1.5932852E-1,-8.7263435E-2,8.724598E-2],"split_indices":[5,7,5,0,12,1,0,16,0,0,7,5,0,0,0,0,9,1,3,0,0,0,0,0,0],"split_type":[0,0,0,0,0,0,0,0,0,0,0,0,0,0,0,0,0,0,0,0,0,0,0,0,0],"sum_hessian":[5.291927E3,3.950998E3,1.3409286E3,4.560951E2,3.494903E3,1.4632757E1,1.3262958E3,3.3964016E3,9.850148E1,2.5719748E0,1.2060782E1,3.3622485E3,3.4153008E1,3.6963158E0,8.364467E0,3.0547402E3,3.075083E2,5.2114134E0,3.153053E0,2.8962255E1,2.7854605E2,1.9066681E0,3.3047452E0,1.572033E0,1.58102E0],"tree_param":{"num_deleted":"0","num_feature":"17","num_nodes":"25","size_leaf_vector":"1"}},{"base_weights":[1.8786459E-1,-1.5203233E-1,4.9543652E-1,1.6105384E-1,-1.5117574E-1],"categories":[],"categories_nodes":[],"categories_segments":[],"categories_sizes":[],"default_left":[0,0,0,0,0],"id":56,"left_children":[1,-1,3,-1,-1],"loss_changes":[1.1895464E3,0E0,1.5995471E2,0E0,0E0],"parents":[2147483647,0,0,2,2],"right_children":[2,-1,4,-1,-1],"split_conditions":[1E0,-1.5203233E-1,1E0,1.6105384E-1,-1.5117574E-1],"split_indices":[15,0,7,0,0],"split_type":[0,0,0,0,0],"sum_hessian":[5.5655205E3,1.7078228E3,3.8576978E3,3.7046533E3,1.5304431E2],"tree_param":{"num_deleted":"0","num_feature":"17","num_nodes":"5","size_leaf_vector":"1"}},{"base_weights":[-2.1120994E-1,-1.5205455E-1,5.179919E-1,9.652399E-2,1.6100611E-1,4.223995E-1,-1.4271349E-1,1.5527233E-1,-1.101299E-1],"categories":[],"categories_nodes":[],"categories_segments":[],"categories_sizes":[],"default_left":[0,0,0,0,0,0,0,0,0],"id":57,"left_children":[1,-1,3,5,-1,7,-1,-1,-1],"loss_changes":[7.352083E2,0E0,7.7010803E0,8.221428E0,0E0,2.2889776E0,0E0,0E0,0E0],"parents":[2147483647,0,0,2,2,3,3,5,5],"right_children":[2,-1,4,6,-1,8,-1,-1,-1],"split_conditions":[1E0,-1.5205455E-1,1E0,7.1428575E-2,1.6100611E-1,6.35775E2,-1.4271349E-1,1.5527233E-1,-1.101299E-1],"split_indices":[12,0,7,5,0,1,0,0,0],"split_type":[0,0,0,0,0,0,0,0,0],"sum_hessian":[3.4081536E3,2.4252112E3,9.829425E2,4.2010475E1,9.40932E2,2.6934002E1,1.5076473E1,2.4343761E1,2.5902388E0],"tree_param":{"num_deleted":"0","num_feature":"17","num_nodes":"9","size_leaf_vector":"1"}},{"base_weights":[-4.3782793E-2,2.011973E-1,-1.5202522E-1,4.9720883E-1,-1.5190221E-1,5.335822E-1,-1.49824E-1,1.6100654E-1,4.6558005E-1,1.746563E-1,1.5899758E-1,-1.288949E-1,1.4852174E-1],"categories":[],"categories_nodes":[],"categories_segments":[],"categories_sizes":[],"default_left":[0,0,0,0,0,0,0,0,0,0,0,0,0],"id":58,"left_children":[1,3,-1,5,-1,7,-1,-1,9,11,-1,-1,-1],"loss_changes":[4.617855E2,5.579348E2,0E0,6.83389E1,0E0,1.3287354E-1,0E0,0E0,1.53228E0,3.5449557E0,0E0,0E0,0E0],"parents":[2147483647,0,0,1,1,3,3,5,5,8,8,9,9],"right_children":[2,4,-1,6,-1,8,-1,-1,10,12,-1,-1,-1],"split_conditions":[1E0,1E0,-1.5202522E-1,1E0,-1.5190221E-1,1E0,-1.49824E-1,1.6100654E-1,7.1428575E-2,6.35775E2,1.5899758E-1,-1.288949E-1,1.4852174E-1],"split_indices":[7,15,0,16,0,12,0,0,5,1,0,0,0],"split_type":[0,0,0,0,0,0,0,0,0,0,0,0,0],"sum_hessian":[4.0696404E3,2.6617417E3,1.4078988E3,1.8768318E3,7.849099E2,1.8111938E3,6.563793E1,1.7254843E3,8.570958E1,1.6209414E1,6.950017E1,5.498435E0,1.07109785E1],"tree_param":{"num_deleted":"0","num_feature":"17","num_nodes":"13","size_leaf_vector":"1"}},{"base_weights":[-5.291936E-2,-1.5197325E-1,1.4603814E-1,-1.5190868E-1,3.888242E-1,4.4251305E-1,-1.5094724E-1,4.9888945E-1,-1.5092474E-1,1.3593899E-1,1.6142038E-1,1.542993E-1,-1.1146797E-1],"categories":[],"categories_nodes":[],"categories_segments":[],"categories_sizes":[],"default_left":[0,0,0,0,0,0,0,0,0,0,0,0,0],"id":59,"left_children":[1,-1,3,-1,5,7,-1,9,-1,11,-1,-1,-1],"loss_changes":[3.6666458E2,0E0,4.4751944E2,0E0,9.881488E1,1.037988E2,0E0,2.6000458E1,0E0,3.4753685E1,0E0,0E0,0E0],"parents":[2147483647,0,0,2,2,4,4,5,5,7,7,9,9],"right_children":[2,-1,4,-1,6,8,-1,10,-1,12,-1,-1,-1],"split_conditions":[1E0,-1.5197325E-1,1.6666667E-1,-1.5190868E-1,1E0,1E0,-1.5094724E-1,5.882353E-1,-1.5092474E-1,1E0,1.6142038E-1,1.542993E-1,-1.1146797E-1],"split_indices":[7,0,5,0,12,16,0,5,0,9,0,0,0],"split_type":[0,0,0,0,0,0,0,0,0,0,0,0,0],"sum_hessian":[4.0605542E3,1.237436E3,2.823118E3,7.6537134E2,2.0577466E3,1.9413969E3,1.1634979E2,1.8326091E3,1.0878776E2,1.7898204E2,1.6536271E3,1.0252544E2,7.6456604E1],"tree_param":{"num_deleted":"0","num_feature":"17","num_nodes":"13","size_leaf_vector":"1"}},{"base_weights":[-2.1746524E-1,-1.5149319E-1,1.5796365E-1],"categories":[],"categories_nodes":[],"categories_segments":[],"categories_sizes":[],"default_left":[0,0,0],"id":60,"left_children":[1,-1,-1],"loss_changes":[5.437586E2,0E0,0E0],"parents":[2147483647,0,0],"right_children":[2,-1,-1],"split_conditions":[1E0,-1.5149319E-1,1.5796365E-1],"split_indices":[16,0,0],"split_type":[0,0,0],"sum_hessian":[2.53973E3,1.8320734E3,7.076566E2],"tree_param":{"num_deleted":"0","num_feature":"17","num_nodes":"3","size_leaf_vector":"1"}},{"base_weights":[1.5071535E-1,3.6888966E-1,-4.996112E-1,-1.5111516E-1,4.8112413E-1,-1.0607623E-1,-1.5141842E-1,5.092898E-1,-1.4954777E-1,-3.5746652E-1,1.1990712E-1,5.1946694E-1,-1.4593041E-1,-1.9361922E-1,-1.4115894E-1,-8.065502E-2,2.1902345E-1,1.5810886E-1,4.4364995E-1,-1.0838425E-1,8.334296E-2,-9.043953E-2,3.8601202E-1,-8.3633825E-2,1.5766287E-1,7.7336326E-2,-2.9619748E-2,5.0977226E-2,-9.10381E-2,1.5490104E-1,3.2837614E-2],"categories":[],"categories_nodes":[],"categories_segments":[],"categories_sizes":[],"default_left":[0,0,0,0,0,0,0,0,0,0,0,0,0,0,0,0,0,0,0,0,0,0,0,0,0,0,0,0,0,0,0],"id":61,"left_children":[1,3,5,-1,7,9,-1,11,-1,13,15,17,-1,-1,19,-1,21,-1,23,-1,25,27,29,-1,-1,-1,-1,-1,-1,-1,-1],"loss_changes":[5.681263E2,2.9384396E2,1.9721527E0,0E0,7.3557495E1,8.4832275E-1,0E0,2.6427734E1,0E0,3.425601E-1,3.754334E-1,1.232544E0,0E0,0E0,2.8984696E-1,0E0,4.016738E-1,0E0,1.4243103E1,0E0,1.33908E-1,2.3446248E-1,1.1646837E-1,0E0,0E0,0E0,0E0,0E0,0E0,0E0,0E0],"parents":[2147483647,0,0,1,1,2,2,4,4,5,5,7,7,9,9,10,10,11,11,14,14,16,16,18,18,20,20,21,21,22,22],"right_children":[2,4,6,-1,8,10,-1,12,-1,14,16,18,-1,-1,20,-1,22,-1,24,-1,26,28,30,-1,-1,-1,-1,-1,-1,-1,-1],"split_conditions":[5.3846157E-1,1E0,5.882353E-1,-1.5111516E-1,1E0,2.92E2,-1.5141842E-1,1E0,-1.4954777E-1,9.0776E2,1E0,1.6666667E-1,-1.4593041E-1,-1.9361922E-1,3.05E1,-8.065502E-2,9.1379E2,1.5810886E-1,1E0,-1.0838425E-1,3.95E1,5.6E-1,3.75E1,-8.3633825E-2,1.5766287E-1,7.7336326E-2,-2.9619748E-2,5.0977226E-2,-9.10381E-2,1.5490104E-1,3.2837614E-2],"split_indices":[5,7,5,0,12,6,0,16,0,1,7,5,0,0,4,0,1,0,9,0,4,5,4,0,0,0,0,0,0,0,0],"split_type":[0,0,0,0,0,0,0,0,0,0,0,0,0,0,0,0,0,0,0,0,0,0,0,0,0,0,0,0,0,0,0],"sum_hessian":[4.0018462E3,2.9968748E3,1.00497144E3,3.4113235E2,2.6557424E3,1.3178131E1,9.9179333E2,2.581986E3,7.3756386E1,5.9629498E0,7.2151814E0,2.5563364E3,2.5649689E1,1.7070125E0,4.255937E0,1.1179303E0,6.097251E0,2.3190647E3,2.372717E2,1.8413029E0,2.4146342E0,2.297653E0,3.799598E0,2.391328E1,2.1335841E2,1.020793E0,1.3938413E0,1.1249727E0,1.1726801E0,1.9932454E0,1.8063527E0],"tree_param":{"num_deleted":"0","num_feature":"17","num_nodes":"31","size_leaf_vector":"1"}},{"base_weights":[1.8514273E-1,-1.5146062E-1,4.8640883E-1,1.5805867E-1,-1.5031397E-1],"categories":[],"categories_nodes":[],"categories_segments":[],"categories_sizes":[],"default_left":[0,0,0,0,0],"id":62,"left_children":[1,-1,3,-1,-1],"loss_changes":[8.744779E2,0E0,1.1722174E2,0E0,0E0],"parents":[2147483647,0,0,2,2],"right_children":[2,-1,4,-1,-1],"split_conditions":[1E0,-1.5146062E-1,1E0,1.5805867E-1,-1.5031397E-1],"split_indices":[15,0,7,0,0],"split_type":[0,0,0,0,0],"sum_hessian":[4.204526E3,1.2776216E3,2.9269043E3,2.812164E3,1.1474036E2],"tree_param":{"num_deleted":"0","num_feature":"17","num_nodes":"5","size_leaf_vector":"1"}},{"base_weights":[-2.0950441E-1,-1.5149222E-1,5.080042E-1,9.295922E-2,1.5795435E-1,4.068606E-1,-1.3940965E-1,1.5055576E-1,-1.0216301E-1],"categories":[],"categories_nodes":[],"categories_segments":[],"categories_sizes":[],"default_left":[0,0,0,0,0,0,0,0,0],"id":63,"left_children":[1,-1,3,5,-1,7,-1,-1,-1],"loss_changes":[5.433597E2,0E0,5.695572E0,5.989893E0,0E0,1.7141206E0,0E0,0E0,0E0],"parents":[2147483647,0,0,2,2,3,3,5,5],"right_children":[2,-1,4,6,-1,8,-1,-1,-1],"split_conditions":[1E0,-1.5149222E-1,1E0,7.1428575E-2,1.5795435E-1,6.35775E2,-1.3940965E-1,1.5055576E-1,-1.0216301E-1],"split_indices":[12,0,7,5,0,1,0,0,0],"split_type":[0,0,0,0,0,0,0,0,0],"sum_hessian":[2.560783E3,1.8140532E3,7.467299E2,3.213818E1,7.1459174E2,2.0736292E1,1.1401887E1,1.8689478E1,2.0468144E0],"tree_param":{"num_deleted":"0","num_feature":"17","num_nodes":"9","size_leaf_vector":"1"}},{"base_weights":[-4.3418735E-2,1.9838318E-1,-1.514468E-1,4.8804754E-1,-1.5129814E-1,5.2354074E-1,-1.485469E-1,1.5799621E-1,4.5433378E-1,1.6802332E-1,1.5535192E-1,-1.2278029E-1,1.4218399E-1],"categories":[],"categories_nodes":[],"categories_segments":[],"categories_sizes":[],"default_left":[0,0,0,0,0,0,0,0,0,0,0,0,0],"id":64,"left_children":[1,3,-1,5,-1,7,-1,-1,9,11,-1,-1,-1],"loss_changes":[3.4216467E2,4.0987653E2,0E0,5.0006073E1,0E0,5.7250977E-2,0E0,0E0,1.1226969E0,2.588498E0,0E0,0E0,0E0],"parents":[2147483647,0,0,1,1,3,3,5,5,8,8,9,9],"right_children":[2,4,-1,6,-1,8,-1,-1,10,12,-1,-1,-1],"split_conditions":[1E0,1E0,-1.514468E-1,1E0,-1.5129814E-1,1E0,-1.485469E-1,1.5799621E-1,7.1428575E-2,6.35775E2,1.5535192E-1,-1.2278029E-1,1.4218399E-1],"split_indices":[7,15,0,16,0,12,0,0,5,1,0,0,0],"split_type":[0,0,0,0,0,0,0,0,0,0,0,0,0],"sum_hessian":[3.0649639E3,2.0114302E3,1.0535338E3,1.4245299E3,5.8690027E2,1.3753479E3,4.9181934E1,1.3098163E3,6.553163E1,1.2558525E1,5.2973106E1,4.2329497E0,8.325576E0],"tree_param":{"num_deleted":"0","num_feature":"17","num_nodes":"13","size_leaf_vector":"1"}},{"base_weights":[-5.2036855E-2,-1.5139261E-1,1.4378971E-1,-4.9735415E-1,3.8386524E-1,-1.5130125E-1,-1.0354137E-1,4.3640032E-1,-1.4994165E-1,-1.5864608E-1,1.5555541E-1,4.915051E-1,-1.4987263E-1,1.289755E-1,-5.3764433E-2,1.2338091E-1,5.258411E-1,-1.2703621E-1,7.621992E-2,1.5833893E-1,-1.4865133E-1,9.960751E-2,1.5831885E-1],"categories":[],"categories_nodes":[],"categories_segments":[],"categories_sizes":[],"default_left":[0,0,0,0,0,0,0,0,0,0,0,0,0,0,0,0,0,0,0,0,0,0,0],"id":65,"left_children":[1,-1,3,5,7,-1,9,11,-1,-1,13,15,-1,-1,17,19,21,-1,-1,-1,-1,-1,-1],"loss_changes":[2.7185693E2,0E0,3.297626E2,1.5531921E0,7.256421E1,0E0,1.3416721E0,7.613922E1,0E0,0E0,4.7538394E-1,1.7506683E1,0E0,0E0,7.171025E-1,3.0273094E1,2.9000854E-1,0E0,0E0,0E0,0E0,0E0,0E0],"parents":[2147483647,0,0,2,2,3,3,4,4,6,6,7,7,10,10,11,11,14,14,15,15,16,16],"right_children":[2,-1,4,6,8,-1,10,12,-1,-1,14,16,-1,-1,18,20,22,-1,-1,-1,-1,-1,-1],"split_conditions":[1E0,-1.5139261E-1,2.5E-1,1.6666667E-1,1E0,-1.5130125E-1,1E0,1E0,-1.4994165E-1,-1.5864608E-1,5.76205E3,5.3846157E-1,-1.4987263E-1,1.289755E-1,7E0,1E0,5.882353E-1,-1.2703621E-1,7.621992E-2,1.5833893E-1,-1.4865133E-1,9.960751E-2,1.5831885E-1],"split_indices":[7,0,5,5,12,0,15,16,0,0,2,5,0,0,0,9,5,0,0,0,0,0,0],"split_type":[0,0,0,0,0,0,0,0,0,0,0,0,0,0,0,0,0,0,0,0,0,0,0],"sum_hessian":[3.0654321E3,9.2528516E2,2.140147E3,5.827603E2,1.5573867E3,5.723307E2,1.042962E1,1.4704719E3,8.6914825E1,3.5544183E0,6.875201E0,1.3891611E3,8.1310776E1,2.5192497E0,4.355952E0,1.1890869E2,1.2702524E3,1.8084664E0,2.547485E0,7.200417E1,4.6904522E1,1.3962697E1,1.2562898E3],"tree_param":{"num_deleted":"0","num_feature":"17","num_nodes":"23","size_leaf_vector":"1"}},{"base_weights":[-2.161049E-1,-1.5106192E-1,1.5572037E-1],"categories":[],"categories_nodes":[],"categories_segments":[],"categories_sizes":[],"default_left":[0,0,0],"id":66,"left_children":[1,-1,-1],"loss_changes":[4.0226715E2,0E0,0E0],"parents":[2147483647,0,0],"right_children":[2,-1,-1],"split_conditions":[1E0,-1.5106192E-1,1.5572037E-1],"split_indices":[16,0,0],"split_type":[0,0,0],"sum_hessian":[1.901407E3,1.3671854E3,5.3422156E2],"tree_param":{"num_deleted":"0","num_feature":"17","num_nodes":"3","size_leaf_vector":"1"}},{"base_weights":[1.4909156E-1,3.6404765E-1,-4.9662477E-1,-1.5056539E-1,4.7419605E-1,-7.7431664E-2,-1.5096274E-1,5.0183547E-1,-1.4847806E-1,-1.6319747E-1,5.460365E-2,5.118568E-1,-1.437402E-1,-1.05937704E-1,2.0457567E-1,5.195271E-1,4.2883563E-1,-3.9595336E-2,3.1856978E-1,1.5591663E-1,3.5195876E-2,-1.4240357E-1,1.5515846E-1,-5.3386394E-2,3.854287E-2,1.362382E-1,2.9348828E-2],"categories":[],"categories_nodes":[],"categories_segments":[],"categories_sizes":[],"default_left":[0,0,0,0,0,0,0,0,0,0,0,0,0,0,0,0,0,0,0,0,0,0,0,0,0,0,0],"id":67,"left_children":[1,3,5,-1,7,9,-1,11,-1,-1,13,15,-1,-1,17,19,21,23,25,-1,-1,-1,-1,-1,-1,-1,-1],"loss_changes":[4.183157E2,2.1586432E2,2.0388489E0,0E0,5.3983368E1,8.1965363E-1,0E0,1.9424286E1,0E0,0E0,7.3897576E-1,1.0073242E0,0E0,0E0,2.521176E-1,7.7301025E-2,1.37457695E1,1.072315E-1,1.3441122E-1,0E0,0E0,0E0,0E0,0E0,0E0,0E0,0E0],"parents":[2147483647,0,0,1,1,2,2,4,4,5,5,7,7,10,10,11,11,14,14,15,15,16,16,17,17,18,18],"right_children":[2,4,6,-1,8,10,-1,12,-1,-1,14,16,-1,-1,18,20,22,24,26,-1,-1,-1,-1,-1,-1,-1,-1],"split_conditions":[5.3846157E-1,1E0,5.882353E-1,-1.5056539E-1,1E0,8.75E2,-1.5096274E-1,1E0,-1.4847806E-1,-1.6319747E-1,1E0,2.2222222E-1,-1.437402E-1,-1.05937704E-1,2.2E2,3E1,1E0,1.00431E3,3.2E2,1.5591663E-1,3.5195876E-2,-1.4240357E-1,1.5515846E-1,-5.3386394E-2,3.854287E-2,1.362382E-1,2.9348828E-2],"split_indices":[5,7,5,0,12,1,0,16,0,0,7,5,0,0,6,0,9,1,6,0,0,0,0,0,0,0,0],"split_type":[0,0,0,0,0,0,0,0,0,0,0,0,0,0,0,0,0,0,0,0,0,0,0,0,0,0,0],"sum_hessian":[3.011485E3,2.2596829E3,7.518021E2,2.545986E2,2.0050844E3,1.1823361E1,7.3997876E2,1.9499537E3,5.5130596E1,1.9197363E0,9.9036255E0,1.9307084E3,1.9245337E1,2.2989242E0,7.6047015E0,1.7626036E3,1.681047E2,2.6280892E0,4.976612E0,1.7614576E3,1.1460415E0,1.45858135E1,1.5351889E2,1.4092053E0,1.218884E0,2.428171E0,2.5484412E0],"tree_param":{"num_deleted":"0","num_feature":"17","num_nodes":"27","size_leaf_vector":"1"}},{"base_weights":[1.831398E-1,-1.5101591E-1,4.7980112E-1,1.5588202E-1,-1.4948806E-1],"categories":[],"categories_nodes":[],"categories_segments":[],"categories_sizes":[],"default_left":[0,0,0,0,0],"id":68,"left_children":[1,-1,3,-1,-1],"loss_changes":[6.4417566E2,0E0,8.623334E1,0E0,0E0],"parents":[2147483647,0,0,2,2],"right_children":[2,-1,4,-1,-1],"split_conditions":[1E0,-1.5101591E-1,1E0,1.5588202E-1,-1.4948806E-1],"split_indices":[15,0,7,0,0],"split_type":[0,0,0,0,0],"sum_hessian":[3.1607202E3,9.534873E2,2.207233E3,2.1213684E3,8.586467E1],"tree_param":{"num_deleted":"0","num_feature":"17","num_nodes":"5","size_leaf_vector":"1"}},{"base_weights":[-2.0816666E-1,-1.510607E-1,5.005106E-1,8.917456E-2,1.557134E-1,3.916534E-1,-1.355319E-1,1.461849E-1,-9.400604E-2],"categories":[],"categories_nodes":[],"categories_segments":[],"categories_sizes":[],"default_left":[0,0,0,0,0,0,0,0,0],"id":69,"left_children":[1,-1,3,5,-1,7,-1,-1,-1],"loss_changes":[4.018532E2,0E0,4.260437E0,4.3598156E0,0E0,1.2942026E0,0E0,0E0,0E0],"parents":[2147483647,0,0,2,2,3,3,5,5],"right_children":[2,-1,4,6,-1,8,-1,-1,-1],"split_conditions":[1E0,-1.510607E-1,1E0,7.1428575E-2,1.557134E-1,6.35775E2,-1.355319E-1,1.461849E-1,-9.400604E-2],"split_indices":[12,0,7,5,0,1,0,0,0],"split_type":[0,0,0,0,0,0,0,0,0],"sum_hessian":[1.9175875E3,1.3536785E3,5.63909E2,2.4563774E1,5.393452E2,1.5931453E1,8.632321E0,1.4300507E1,1.6309468E0],"tree_param":{"num_deleted":"0","num_feature":"17","num_nodes":"9","size_leaf_vector":"1"}},{"base_weights":[-4.312542E-2,1.9630472E-1,-1.5099362E-1,4.812784E-1,-1.5081024E-1,5.161686E-1,-1.471669E-1,1.5579936E-1,4.4458726E-1,1.6112487E-1,1.523191E-1,-1.1596396E-1,1.3595627E-1],"categories":[],"categories_nodes":[],"categories_segments":[],"categories_sizes":[],"default_left":[0,0,0,0,0,0,0,0,0,0,0,0,0],"id":70,"left_children":[1,3,-1,5,-1,7,-1,-1,9,11,-1,-1,-1],"loss_changes":[2.535276E2,3.017568E2,0E0,3.6730362E1,0E0,4.3029785E-3,0E0,0E0,8.294039E-1,1.8929788E0,0E0,0E0,0E0],"parents":[2147483647,0,0,1,1,3,3,5,5,8,8,9,9],"right_children":[2,4,-1,6,-1,8,-1,-1,10,12,-1,-1,-1],"split_conditions":[1E0,1E0,-1.5099362E-1,1E0,-1.5081024E-1,1E0,-1.471669E-1,1.5579936E-1,7.1428575E-2,6.35775E2,1.523191E-1,-1.1596396E-1,1.3595627E-1],"split_indices":[7,15,0,16,0,12,0,0,5,1,0,0,0],"split_type":[0,0,0,0,0,0,0,0,0,0,0,0,0],"sum_hessian":[2.299081E3,1.5126427E3,7.864383E2,1.0747822E3,4.3786047E2,1.037986E3,3.6796295E1,9.8807654E2,4.9909435E1,9.739317E0,4.0170116E1,3.2748547E0,6.4644623E0],"tree_param":{"num_deleted":"0","num_feature":"17","num_nodes":"13","size_leaf_vector":"1"}},{"base_weights":[-5.1406074E-2,-1.5093628E-1,1.4206481E-1,-4.95734E-1,3.780958E-1,-1.5080951E-1,-1.2869179E-1,4.295438E-1,-1.48946E-1,-1.5661976E-1,9.652533E-2,4.8344013E-1,-1.4882737E-1,1.0731061E-1,-9.546508E-2,1.4629595E-1,1.5604706E-1,5.1297817E-2,-1.4762522E-1,1.5539062E-1,-9.312717E-2],"categories":[],"categories_nodes":[],"categories_segments":[],"categories_sizes":[],"default_left":[0,0,0,0,0,0,0,0,0,0,0,0,0,0,0,0,0,0,0,0,0],"id":71,"left_children":[1,-1,3,5,7,-1,9,11,-1,-1,13,15,-1,-1,17,19,-1,-1,-1,-1,-1],"loss_changes":[2.0148888E2,0E0,2.4321704E2,1.051094E0,5.325789E1,0E0,8.895673E-1,5.5811813E1,0E0,0E0,3.785048E-1,1.2960587E1,0E0,0E0,5.858471E-1,1.7954023E1,0E0,0E0,0E0,0E0,0E0],"parents":[2147483647,0,0,2,2,3,3,4,4,6,6,7,7,10,10,11,11,14,14,15,15],"right_children":[2,-1,4,6,8,-1,10,12,-1,-1,14,16,-1,-1,18,20,-1,-1,-1,-1,-1],"split_conditions":[1E0,-1.5093628E-1,2.2222222E-1,1.6666667E-1,1E0,-1.5080951E-1,2.6190476E0,1E0,-1.48946E-1,-1.5661976E-1,5.76205E3,5.882353E-1,-1.4882737E-1,1.0731061E-1,8.333333E0,1E0,1.5604706E-1,5.1297817E-2,-1.4762522E-1,1.5539062E-1,-9.312717E-2],"split_indices":[7,0,5,5,12,0,3,16,0,0,2,5,0,0,3,9,0,0,0,0,0],"split_type":[0,0,0,0,0,0,0,0,0,0,0,0,0,0,0,0,0,0,0,0,0],"sum_hessian":[2.3037139E3,6.9033124E2,1.6133826E3,4.3549506E2,1.1778875E3,4.2702298E2,8.472078E0,1.1129275E3,6.495996E1,2.6046417E0,5.867437E0,1.0521428E3,6.0784725E1,2.120145E0,3.7472918E0,1.0382002E2,9.4832275E2,2.581712E0,1.1655798E0,5.7165424E1,4.66546E1],"tree_param":{"num_deleted":"0","num_feature":"17","num_nodes":"21","size_leaf_vector":"1"}},{"base_weights":[-2.1505271E-1,-1.507248E-1,1.5404364E-1],"categories":[],"categories_nodes":[],"categories_segments":[],"categories_sizes":[],"default_left":[0,0,0],"id":72,"left_children":[1,-1,-1],"loss_changes":[2.9780212E2,0E0,0E0],"parents":[2147483647,0,0],"right_children":[2,-1,-1],"split_conditions":[1E0,-1.507248E-1,1.5404364E-1],"split_indices":[16,0,0],"split_type":[0,0,0],"sum_hessian":[1.4202542E3,1.01873346E3,4.0152066E2],"tree_param":{"num_deleted":"0","num_feature":"17","num_nodes":"3","size_leaf_vector":"1"}},{"base_weights":[1.4776975E-1,3.6042425E-1,-4.9434984E-1,-1.500677E-1,4.6891674E-1,-9.714009E-2,-1.505929E-1,4.9616015E-1,-1.4729327E-1,-3.9777976E-1,9.7937375E-2,5.060835E-1,-1.4113103E-1,-1.7158355E-1,-1.3779281E-2,-8.977302E-2,2.3182392E-1,1.5430404E-1,4.250284E-1,-3.6535636E-2,3.3431488E-1,-6.184687E-2,1.5335526E-1,1.4260288E-1,1.1577362E-2],"categories":[],"categories_nodes":[],"categories_segments":[],"categories_sizes":[],"default_left":[0,0,0,0,0,0,0,0,0,0,0,0,0,0,0,0,0,0,0,0,0,0,0,0,0],"id":73,"left_children":[1,3,5,-1,7,9,-1,11,-1,13,15,17,-1,-1,-1,-1,19,-1,21,-1,23,-1,-1,-1,-1],"loss_changes":[3.0897913E2,1.5891624E2,1.6568451E0,0E0,3.9723206E1,7.337422E-1,0E0,1.4323975E1,0E0,2.7152228E-1,4.9410534E-1,7.5531006E-1,0E0,0E0,0E0,0E0,2.7762675E-1,0E0,7.734009E0,0E0,2.0415676E-1,0E0,0E0,0E0,0E0],"parents":[2147483647,0,0,1,1,2,2,4,4,5,5,7,7,9,9,10,10,11,11,16,16,18,18,20,20],"right_children":[2,4,6,-1,8,10,-1,12,-1,14,16,18,-1,-1,-1,-1,20,-1,22,-1,24,-1,-1,-1,-1],"split_conditions":[5.3846157E-1,1E0,5.882353E-1,-1.500677E-1,1E0,9.2672E2,-1.505929E-1,1E0,-1.4729327E-1,2.99E2,1E0,1.6666667E-1,-1.4113103E-1,-1.7158355E-1,-1.3779281E-2,-8.977302E-2,1.32E2,1.5430404E-1,1E0,-3.6535636E-2,3.8333332E1,-6.184687E-2,1.5335526E-1,1.4260288E-1,1.1577362E-2],"split_indices":[5,7,5,0,12,1,0,16,0,6,7,5,0,0,0,0,6,0,9,0,4,0,0,0,0],"split_type":[0,0,0,0,0,0,0,0,0,0,0,0,0,0,0,0,0,0,0,0,0,0,0,0,0],"sum_hessian":[2.2604563E3,1.6984194E3,5.620368E2,1.8972862E2,1.5086908E3,1.0846685E1,5.511901E2,1.4675232E3,4.116764E1,3.8595428E0,6.987142E0,1.4530818E3,1.4441312E1,2.1632102E0,1.6963327E0,1.4501503E0,5.536992E0,1.3137987E3,1.3928311E2,1.2019224E0,4.3350697E0,1.6561234E1,1.2272188E2,2.5240052E0,1.8110642E0],"tree_param":{"num_deleted":"0","num_feature":"17","num_nodes":"25","size_leaf_vector":"1"}},{"base_weights":[1.8156731E-1,-1.5066257E-1,4.749291E-1,1.5428531E-1,-1.4860679E-1],"categories":[],"categories_nodes":[],"categories_segments":[],"categories_sizes":[],"default_left":[0,0,0,0,0],"id":74,"left_children":[1,-1,3,-1,-1],"loss_changes":[4.7537952E2,0E0,6.3568848E1,0E0,0E0],"parents":[2147483647,0,0,2,2],"right_children":[2,-1,4,-1,-1],"split_conditions":[1E0,-1.5066257E-1,1E0,1.5428531E-1,-1.4860679E-1],"split_indices":[15,0,7,0,0],"split_type":[0,0,0,0,0],"sum_hessian":[2.3676736E3,7.106226E2,1.657051E3,1.5929116E3,6.413943E1],"tree_param":{"num_deleted":"0","num_feature":"17","num_nodes":"5","size_leaf_vector":"1"}},{"base_weights":[-2.0713028E-1,-1.5072319E-1,4.947136E-1,8.49806E-2,1.5403882E-1,3.7591314E-1,-1.3094752E-1,1.4182524E-1,-8.58871E-2],"categories":[],"categories_nodes":[],"categories_segments":[],"categories_sizes":[],"default_left":[0,0,0,0,0,0,0,0,0],"id":75,"left_children":[1,-1,3,5,-1,7,-1,-1,-1],"loss_changes":[2.9736395E2,0E0,3.221733E0,3.1676598E0,0E0,9.847082E-1,0E0,0E0,0E0],"parents":[2147483647,0,0,2,2,3,3,5,5],"right_children":[2,-1,4,6,-1,8,-1,-1,-1],"split_conditions":[1E0,-1.5072319E-1,1E0,7.1428575E-2,1.5403882E-1,6.35775E2,-1.3094752E-1,1.4182524E-1,-8.58871E-2],"split_indices":[12,0,7,5,0,1,0,0,0],"split_type":[0,0,0,0,0,0,0,0,0],"sum_hessian":[1.4326732E3,1.008613E3,4.2406027E2,1.879772E1,4.0526257E2,1.2245187E1,6.5525327E0,1.0932553E1,1.3126336E0],"tree_param":{"num_deleted":"0","num_feature":"17","num_nodes":"9","size_leaf_vector":"1"}},{"base_weights":[-4.2952698E-2,1.947405E-1,-1.5062785E-1,4.7617188E-1,-1.5039554E-1,1.531995E-1,-1.4557715E-1],"categories":[],"categories_nodes":[],"categories_segments":[],"categories_sizes":[],"default_left":[0,0,0,0,0,0,0],"id":76,"left_children":[1,3,-1,5,-1,-1,-1],"loss_changes":[1.8789688E2,2.2248897E2,0E0,2.7056885E1,0E0,0E0,0E0],"parents":[2147483647,0,0,1,1,3,3],"right_children":[2,4,-1,6,-1,-1,-1],"split_conditions":[1E0,1E0,-1.5062785E-1,1E0,-1.5039554E-1,1.531995E-1,-1.4557715E-1],"split_indices":[7,15,0,16,0,0,0],"split_type":[0,0,0,0,0,0,0],"sum_hessian":[1.7198043E3,1.1335502E3,5.862541E2,8.0741223E2,3.2613797E2,7.799007E2,2.7511541E1],"tree_param":{"num_deleted":"0","num_feature":"17","num_nodes":"7","size_leaf_vector":"1"}},{"base_weights":[-5.0723527E-2,-1.5056407E-1,1.4055428E-1,-4.9152273E-1,3.7301913E-1,-1.5039042E-1,-9.671214E-2,4.2355594E-1,-1.4787191E-1,-1.5640035E-1,1.15411736E-1,4.7644448E-1,-1.476949E-1,1.161107E-1,-7.180545E-2,1.1156825E-1,5.1138663E-1,-1.1812568E-1,6.261405E-2,1.5238023E-1,-1.458098E-1,8.983046E-2,1.5436265E-1],"categories":[],"categories_nodes":[],"categories_segments":[],"categories_sizes":[],"default_left":[0,0,0,0,0,0,0,0,0,0,0,0,0,0,0,0,0,0,0,0,0,0,0],"id":77,"left_children":[1,-1,3,5,7,-1,9,11,-1,-1,13,15,-1,-1,17,19,21,-1,-1,-1,-1,-1,-1],"loss_changes":[1.4933339E2,0E0,1.787765E2,1.2149429E0,3.912113E1,0E0,8.8419384E-1,4.095752E1,0E0,0E0,3.7966728E-1,1.00828705E1,0E0,0E0,5.282976E-1,1.701377E1,3.311615E-1,0E0,0E0,0E0,0E0,0E0,0E0],"parents":[2147483647,0,0,2,2,3,3,4,4,6,6,7,7,10,10,11,11,14,14,15,15,16,16],"right_children":[2,-1,4,6,8,-1,10,12,-1,-1,14,16,-1,-1,18,20,22,-1,-1,-1,-1,-1,-1],"split_conditions":[1E0,-1.5056407E-1,2.5E-1,1.6666667E-1,1E0,-1.5039042E-1,1E0,1E0,-1.4787191E-1,-1.5640035E-1,5.76205E3,5.3846157E-1,-1.476949E-1,1.161107E-1,7E0,1E0,5.882353E-1,-1.1812568E-1,6.261405E-2,1.5238023E-1,-1.458098E-1,8.983046E-2,1.5436265E-1],"split_indices":[7,0,5,5,12,0,15,16,0,0,2,5,0,0,0,9,5,0,0,0,0,0,0],"split_type":[0,0,0,0,0,0,0,0,0,0,0,0,0,0,0,0,0,0,0,0,0,0,0],"sum_hessian":[1.7286559E3,5.142048E2,1.214451E3,3.262516E2,8.881995E2,3.1810312E2,8.148468E0,8.397039E2,4.8495613E1,2.2289476E0,5.9195204E0,7.943147E2,4.5389202E1,1.9798083E0,3.9397118E0,6.9785645E1,7.2452905E2,1.6464512E0,2.2932606E0,4.204731E1,2.773833E1,1.203512E1,7.1249396E2],"tree_param":{"num_deleted":"0","num_feature":"17","num_nodes":"23","size_leaf_vector":"1"}},{"base_weights":[-2.1417369E-1,-1.5045169E-1,1.5276021E-1],"categories":[],"categories_nodes":[],"categories_segments":[],"categories_sizes":[],"default_left":[0,0,0],"id":78,"left_children":[1,-1,-1],"loss_changes":[2.2059265E2,0E0,0E0],"parents":[2147483647,0,0],"right_children":[2,-1,-1],"split_conditions":[1E0,-1.5045169E-1,1.5276021E-1],"split_indices":[16,0,0],"split_type":[0,0,0],"sum_hessian":[1.0590857E3,7.582196E2,3.0086612E2],"tree_param":{"num_deleted":"0","num_feature":"17","num_nodes":"3","size_leaf_vector":"1"}},{"base_weights":[1.4666215E-1,3.5736677E-1,-4.908733E-1,-1.4957851E-1,4.6459886E-1,-6.909664E-2,-1.5027647E-1,4.91572E-1,-1.4590082E-1,-4.2902753E-1,9.6158706E-2,5.014574E-1,-1.3795969E-1,-1.8866026E-1,-4.2191874E-3,-8.6288914E-2,2.100707E-1,1.5310575E-1,4.1522673E-1,-3.4920316E-2,2.983025E-1,-4.915925E-2,1.5175286E-1,1.28924E-1,6.3666147E-3],"categories":[],"categories_nodes":[],"categories_segments":[],"categories_sizes":[],"default_left":[0,0,0,0,0,0,0,0,0,0,0,0,0,0,0,0,0,0,0,0,0,0,0,0,0],"id":79,"left_children":[1,3,5,-1,7,9,-1,11,-1,13,15,17,-1,-1,-1,-1,19,-1,21,-1,23,-1,-1,-1,-1],"loss_changes":[2.276749E2,1.1711809E2,1.7500839E0,0E0,2.9279694E1,6.930935E-1,0E0,1.0590332E1,0E0,2.9229558E-1,4.2448288E-1,6.246338E-1,0E0,0E0,0E0,0E0,2.3634207E-1,0E0,5.71595E0,0E0,2.0178819E-1,0E0,0E0,0E0,0E0],"parents":[2147483647,0,0,1,1,2,2,4,4,5,5,7,7,9,9,10,10,11,11,16,16,18,18,20,20],"right_children":[2,4,6,-1,8,10,-1,12,-1,14,16,18,-1,-1,-1,-1,20,-1,22,-1,24,-1,-1,-1,-1],"split_conditions":[5.3846157E-1,1E0,5.882353E-1,-1.4957851E-1,1E0,9.0388E2,-1.5027647E-1,1E0,-1.4590082E-1,2.99E2,1E0,1.6666667E-1,-1.3795969E-1,-1.8866026E-1,-4.2191874E-3,-8.6288914E-2,1.32E2,1.5310575E-1,1E0,-3.4920316E-2,3.8333332E1,-4.915925E-2,1.5175286E-1,1.28924E-1,6.3666147E-3],"split_indices":[5,7,5,0,12,1,0,16,0,6,7,5,0,0,0,0,6,0,9,0,4,0,0,0,0],"split_type":[0,0,0,0,0,0,0,0,0,0,0,0,0,0,0,0,0,0,0,0,0,0,0,0,0],"sum_hessian":[1.6925656E3,1.272459E3,4.2010654E2,1.412562E2,1.1312028E3,9.958865E0,4.1014767E2,1.1004712E3,3.0731611E1,2.6314158E0,7.327449E0,1.0896229E3,1.0848222E1,1.4281601E0,1.2032558E0,1.3280412E0,5.999408E0,9.832753E2,1.0634758E2,1.2085001E0,4.7909074E0,1.4280214E1,9.206737E1,2.8757157E0,1.9151918E0],"tree_param":{"num_deleted":"0","num_feature":"17","num_nodes":"25","size_leaf_vector":"1"}},{"base_weights":[1.8032481E-1,-1.5036649E-1,4.7121885E-1,1.531025E-1,-1.4763035E-1],"categories":[],"categories_nodes":[],"categories_segments":[],"categories_sizes":[],"default_left":[0,0,0,0,0],"id":80,"left_children":[1,-1,3,-1,-1],"loss_changes":[3.511626E2,0E0,4.7024567E1,0E0,0E0],"parents":[2147483647,0,0,2,2],"right_children":[2,-1,4,-1,-1],"split_conditions":[1E0,-1.5036649E-1,1E0,1.531025E-1,-1.4763035E-1],"split_indices":[15,0,7,0,0],"split_type":[0,0,0,0,0],"sum_hessian":[1.7690511E3,5.289744E2,1.2400768E3,1.1921316E3,4.7945175E1],"tree_param":{"num_deleted":"0","num_feature":"17","num_nodes":"5","size_leaf_vector":"1"}},{"base_weights":[-2.0587775E-1,-1.5044962E-1,4.9022856E-1,9.7372934E-2,1.5275735E-1,3.694172E-1,-1.2549117E-1,1.3837172E-1,-7.715861E-2],"categories":[],"categories_nodes":[],"categories_segments":[],"categories_sizes":[],"default_left":[0,0,0,0,0,0,0,0,0],"id":81,"left_children":[1,-1,3,5,-1,7,-1,-1,-1],"loss_changes":[2.2047151E2,0E0,2.3306427E0,2.3919249E0,0E0,7.499075E-1,0E0,0E0,0E0],"parents":[2147483647,0,0,2,2,3,3,5,5],"right_children":[2,-1,4,6,-1,8,-1,-1,-1],"split_conditions":[1E0,-1.5044962E-1,1E0,7.1428575E-2,1.5275735E-1,6.35775E2,-1.2549117E-1,1.3837172E-1,-7.715861E-2],"split_indices":[12,0,7,5,0,1,0,0,0],"split_type":[0,0,0,0,0,0,0,0,0],"sum_hessian":[1.0691808E3,7.5066815E2,3.1851257E2,1.4948717E1,3.0356384E2,9.971761E0,4.976956E0,8.927473E0,1.0442876E0],"tree_param":{"num_deleted":"0","num_feature":"17","num_nodes":"9","size_leaf_vector":"1"}},{"base_weights":[-4.286739E-2,1.931915E-1,-1.5031669E-1,4.7128505E-1,-1.5001723E-1,5.0545233E-1,-1.436641E-1,1.5295997E-1,4.0760812E-1,8.9261085E-2,1.4692509E-1,-1.09063864E-1,1.2217166E-1],"categories":[],"categories_nodes":[],"categories_segments":[],"categories_sizes":[],"default_left":[0,0,0,0,0,0,0,0,0,0,0,0,0],"id":82,"left_children":[1,3,-1,5,-1,7,-1,-1,9,11,-1,-1,-1],"loss_changes":[1.3916736E2,1.639739E2,0E0,1.993747E1,0E0,4.5318604E-2,0E0,0E0,7.4826145E-1,1.2185215E0,0E0,0E0,0E0],"parents":[2147483647,0,0,1,1,3,3,5,5,8,8,9,9],"right_children":[2,4,-1,6,-1,8,-1,-1,10,12,-1,-1,-1],"split_conditions":[1E0,1E0,-1.5031669E-1,1E0,-1.5001723E-1,1E0,-1.436641E-1,1.5295997E-1,7.1428575E-2,6.35775E2,1.4692509E-1,-1.09063864E-1,1.2217166E-1],"split_indices":[7,15,0,16,0,12,0,0,5,1,0,0,0],"split_type":[0,0,0,0,0,0,0,0,0,0,0,0,0],"sum_hessian":[1.2847927E3,8.483174E2,4.3647537E2,6.056742E2,2.4264319E2,5.8510236E2,2.0571854E1,5.558161E2,2.9286238E1,6.4347253E0,2.2851513E1,2.5954463E0,3.839279E0],"tree_param":{"num_deleted":"0","num_feature":"17","num_nodes":"13","size_leaf_vector":"1"}},{"base_weights":[-5.0241083E-2,-1.5024316E-1,1.392246E-1,-4.898499E-1,3.689779E-1,-1.500069E-1,-1.2110602E-1,4.1879672E-1,-1.466331E-1,-1.5033323E-1,7.328666E-2,4.7089615E-1,-1.4638515E-1,9.7449064E-2,-9.515837E-2,1.420396E-1,1.5309449E-1,4.8548445E-2,-1.3920493E-1,1.5019774E-1,-7.457326E-2],"categories":[],"categories_nodes":[],"categories_segments":[],"categories_sizes":[],"default_left":[0,0,0,0,0,0,0,0,0,0,0,0,0,0,0,0,0,0,0,0,0],"id":83,"left_children":[1,-1,3,5,7,-1,9,11,-1,-1,13,15,-1,-1,17,19,-1,-1,-1,-1,-1],"loss_changes":[1.1064354E2,0E0,1.3208365E2,8.569031E-1,2.8794655E1,0E0,6.192554E-1,3.012674E1,0E0,0E0,2.8892916E-1,7.6921844E0,0E0,0E0,4.9412596E-1,9.299676E0,0E0,0E0,0E0,0E0,0E0],"parents":[2147483647,0,0,2,2,3,3,4,4,6,6,7,7,10,10,11,11,14,14,15,15],"right_children":[2,-1,4,6,8,-1,10,12,-1,-1,14,16,-1,-1,18,20,-1,-1,-1,-1,-1],"split_conditions":[1E0,-1.5024316E-1,2.2222222E-1,1.6666667E-1,1E0,-1.500069E-1,2.6190476E0,1E0,-1.466331E-1,-1.5033323E-1,5.76205E3,5.882353E-1,-1.4638515E-1,9.7449064E-2,8.333333E0,1E0,1.5309449E-1,4.8548445E-2,-1.3920493E-1,1.5019774E-1,-7.457326E-2],"split_indices":[7,0,5,5,12,0,3,16,0,0,2,5,0,0,3,9,0,0,0,0,0],"split_type":[0,0,0,0,0,0,0,0,0,0,0,0,0,0,0,0,0,0,0,0,0],"sum_hessian":[1.2942692E3,3.8264816E2,9.1162103E2,2.4357367E2,6.6804736E2,2.3668779E2,6.885876E0,6.3186035E2,3.6186996E1,1.7963972E0,5.089479E0,5.979824E2,3.3877895E1,1.6688839E0,3.420595E0,6.4498505E1,5.3348395E2,2.3468192E0,1.0737758E0,3.3479645E1,3.1018858E1],"tree_param":{"num_deleted":"0","num_feature":"17","num_nodes":"21","size_leaf_vector":"1"}},{"base_weights":[-2.1341063E-1,-1.5021956E-1,1.5174237E-1],"categories":[],"categories_nodes":[],"categories_segments":[],"categories_sizes":[],"default_left":[0,0,0],"id":84,"left_children":[1,-1,-1],"loss_changes":[1.6349187E2,0E0,0E0],"parents":[2147483647,0,0],"right_children":[2,-1,-1],"split_conditions":[1E0,-1.5021956E-1,1.5174237E-1],"split_indices":[16,0,0],"split_type":[0,0,0],"sum_hessian":[7.889404E2,5.63951E2,2.2498944E2],"tree_param":{"num_deleted":"0","num_feature":"17","num_nodes":"3","size_leaf_vector":"1"}},{"base_weights":[1.456415E-1,3.5491765E-1,-4.882552E-1,-1.4905503E-1,4.6096215E-1,-9.207371E-2,-1.4998513E-1,4.8770836E-1,-1.4419961E-1,-3.8709208E-1,9.5770344E-2,4.975888E-1,-1.3408852E-1,-1.6678016E-1,-1.535127E-2,-5.0850343E-2,1.9566098E-1,